\data\
ngram 1=5387
ngram 2=16636
ngram 3=21230
ngram 4=21379
ngram 5=20553

\1-grams:
-4.246764	<unk>	0
0	<s>	-0.41113198
-2.327505	</s>	0
-3.9759805	Vincent	-0.066016406
-3.3600693	G.	-0.066016406
-3.9759805	Ierulli	-0.066016406
-2.6497977	has	-0.19234857
-3.3600693	been	-0.07279177
-3.8668022	appointed	-0.066016406
-4.115903	temporary	-0.066016406
-3.591566	assistant	-0.108351015
-3.4244246	district	-0.066016406
-3.9759805	attorney	-0.066016406
-1.2301506	,	-0.36360538
-2.537455	it	-0.16649938
-2.2331114	was	-0.14824902
-3.3600693	announced	-0.17718133
-2.8361452	Monday	-0.2724843
-2.338748	by	-0.16243206
-3.4244246	Charles	-0.066016436
-3.209871	E.	-0.066016406
-3.8668022	Raymond	-0.13905577
-3.9759805	District	-0.066016406
-3.8668022	Attorney	-0.066016406
-1.4079614	.	-2.5856805
-2.2071137	will	-0.3482717
-3.9759805	replace	-0.066016406
-4.115903	Desmond	-0.066016406
-3.209871	D.	-0.066016406
-4.115903	Connall	-0.066016406
-2.72605	who	-0.10642329
-3.5000038	called	-0.10100242
-1.7464528	to	-0.2273458
-4.115903	active	-0.066016406
-3.8668022	military	-0.066016406
-3.7077355	service	-0.066016406
-3.0099092	but	-0.08721074
-2.1946762	is	-0.21068743
-3.5000038	expected	-0.09582854
-2.9363763	back	-0.17289326
-2.123234	on	-0.37311992
-1.8023157	the	-0.14680767
-3.4244246	job	-0.11893631
-3.7077355	March	-0.066016406
-4.115903	31	-0.066016406
-3.9759805	29	-0.066016406
-3.8668022	practicing	-0.066016406
-1.7141913	in	-0.31808674
-3.7077355	Portland	-0.066016436
-3.4244246	since	-0.066016406
-4.115903	November	-0.066016406
-3.9759805	1959	-0.15526253
-3.9759805	He	-0.066016406
-1.9924927	a	-0.12861063
-3.8668022	graduate	-0.11961245
-1.6596366	of	-0.26990435
-3.132533	University	-0.11512616
-1.6766574	and	-0.19234917
-4.115903	Northwestern	-0.066016406
-3.3600693	College	-0.16082934
-3.9759805	Law	-0.066016406
-3.7077355	married	-0.11961245
-3.7077355	father	-0.108351015
-2.9143941	three	-0.13749671
-3.3040311	children	-0.13117366
-4.115903	Helping	-0.066016406
-3.8668022	foreign	-0.13905577
-3.591566	countries	-0.066016406
-3.9759805	build	-0.066016406
-3.9759805	sound	-0.066016406
-4.115903	political	-0.066016406
-4.115903	structure	-0.066016406
-2.8544257	more	-0.13355152
-3.7077355	important	-0.066016406
-3.0669074	than	-0.075728156
-4.115903	aiding	-0.066016406
-3.037474	them	-0.106046304
-4.115903	economically	-0.066016406
-3.3600693	M.	-0.066016406
-3.7077355	Martin	-0.13905577
-3.8668022	secretary	-0.19568422
-3.7077355	state	-0.066016406
-1.9748933	for	-0.30651614
-3.9759805	economic	-0.066016406
-4.115903	affairs	-0.066016406
-3.2544043	told	-0.10508964
-3.1694827	members	-0.22078948
-3.8668022	World	-0.11961245
-4.115903	Affairs	-0.066016406
-3.8668022	Council	-0.066016406
-3.037474	night	-0.16998553
-3.591566	office	-0.066016436
-3.5000038	Washington	-0.16082934
-3.098482	C.	-0.066016406
-3.591566	13	-0.10100242
-3.4244246	months	-0.09582854
-4.115903	spoke	-0.066016406
-2.0898771	at	-0.30016777
-4.115903	council's	-0.066016406
-3.3600693	annual	-0.066016406
-3.4244246	meeting	-0.18816125
-3.9759805	Multnomah	-0.066016406
-3.591566	Hotel	-0.14802893
-2.959531	some	-0.1411942
-4.115903	350	-0.066016406
-3.9759805	persons	-0.066016406
-2.219918	that	-0.17730467
-3.8668022	United	-0.108351015
-4.115903	States'	-0.066016406
-3.7077355	challenge	-0.066016406
-3.5000038	help	-0.12602879
-2.7401698	their	-0.13709803
-3.7077355	own	-0.066016406
-4.115903	societies	-0.066016406
-3.7077355	ways	-0.11961245
-3.5000038	following	-0.09198818
-4.115903	paths	-0.066016406
-2.6862524	``	-0.09089084
-3.9759805	We	-0.09198818
-3.4244246	must	-0.11893631
-3.9759805	persuade	-0.066016406
-4.115903	enjoy	-0.066016406
-3.4244246	way	-0.08474956
-3.8668022	life	-0.066016406
-2.9363763	which	-0.09770281
-3.3040311	if	-0.066016436
-2.959531	not	-0.088245295
-4.115903	identical	-0.066016406
-4.115903	congenial	-0.066016406
-2.2331114	with	-0.27761918
-4.115903	ours	-0.066016406
-2.0930998	''	-0.7960089
-2.5849552	he	-0.15091749
-2.6616125	said	-0.28879195
-3.9759805	adding	-0.1807664
-2.8017423	they	-0.14507273
-3.3600693	do	-0.12954305
-4.115903	develop	-0.066016406
-3.9759805	kind	-0.1807664
-3.7077355	society	-0.108351015
-3.591566	themselves	-0.108351015
-3.8668022	want	-0.13905577
-3.8668022	lack	-0.066016406
-4.115903	ritiuality	-0.066016406
-4.115903	loyalty	-0.066016406
-4.115903	Patience	-0.066016406
-3.591566	needed	-0.066016436
-4.115903	Insuring	-0.066016406
-2.6497977	have	-0.16824509
-3.9759805	freedom	-0.066016406
-3.9759805	choice	-0.066016406
-3.8668022	biggest	-0.066016406
-4.115903	detriment	-0.066016406
-3.9759805	Soviet	-0.066016406
-3.9759805	Union	-0.066016406
-3.8668022	cited	-0.066016406
-4.115903	East	-0.066016406
-3.9759805	Germany	-0.066016406
-3.2544043	where	-0.14074859
-2.6737578	after	-0.27734518
-3.4244246	15	-0.11332009
-3.0099092	years	-0.17602831
-3.5000038	rule	-0.066016406
-3.8668022	become	-0.066016406
-3.8668022	necessary	-0.066016406
-3.8668022	wall	-0.066016406
-4.115903	keep	-0.066016406
-3.7077355	people	-0.066016436
-3.3600693	added	-0.108351015
-3.098482	so	-0.1733249
-3.591566	long	-0.09582854
-2.28023	as	-0.2555381
-4.115903	rebel	-0.066016406
-3.0669074	we	-0.16126262
-3.591566	give	-0.08666809
-2.712375	up	-0.20417333
-4.115903	patience	-0.066016406
-3.7077355	part	-0.19568422
-3.8668022	Americans	-0.066016406
-3.3040311	The	-0.07020935
-2.5653274	are	-0.107746944
-4.115903	trying	-0.066016406
-4.115903	decade	-0.066016406
-3.3600693	took	-0.11961245
-4.115903	century	-0.066016406
-3.9759805	By	-0.066016406
-3.9759805	leaving	-0.066016406
-3.209871	our	-0.08474956
-4.115903	doors	-0.066016406
-3.2544043	open	-0.14634763
-4.115903	States	-0.066016406
-4.115903	gives	-0.066016406
-3.1694827	other	-0.066016406
-4.115903	peoples	-0.066016406
-4.115903	opportunity	-0.066016406
-3.9759805	see	-0.066016406
-3.8668022	us	-0.13905577
-4.115903	compare	-0.066016406
-4.115903	Individual	-0.066016406
-3.3040311	best	-0.11512616
-3.1694827	no	-0.066016406
-4.115903	reason	-0.066016406
-4.115903	fear	-0.066016406
-4.115903	failure	-0.066016406
-2.8544257	be	-0.10835085
-4.115903	extraordinarily	-0.066016406
-4.115903	patient	-0.066016406
-4.115903	Economically	-0.066016406
-3.4244246	could	-0.08666809
-4.115903	helping	-0.066016406
-4.115903	Private	-0.066016406
-3.3040311	business	-0.08902452
-3.9759805	effective	-0.066016406
-3.9759805	government	-0.066016406
-3.9759805	aid	-0.066016406
-3.7077355	explained	-0.16646838
-3.3040311	because	-0.12954305
-4.115903	individuals	-0.066016406
-3.5000038	able	-0.5502507
-3.209871	work	-0.08474956
-3.8668022	plan	-0.066016406
-4.115903	absorb	-0.066016406
-4.115903	exported	-0.066016406
-3.9759805	goods	-0.066016406
-3.8668022	country	-0.066016406
-2.959531	what	-0.08666809
-4.115903	termed	-0.066016406
-3.8668022	social	-0.066016406
-3.8668022	cost	-0.066016406
-3.591566	working	-0.10100242
-4.115903	establish	-0.066016406
-3.9759805	firmer	-0.066016406
-3.9759805	prices	-0.066016406
-4.115903	primary	-0.066016406
-4.115903	products	-0.066016406
-3.5000038	may	-0.14802893
-4.115903	involve	-0.066016406
-3.3040311	total	-0.08666809
-3.9759805	income	-0.066016406
-2.6737578	one	-0.19702698
-3.2544043	school	-0.115246475
-3.2544043	board	-0.14913768
-3.7077355	asked	-0.108351015
-3.591566	take	-0.27296767
-4.115903	positive	-0.066016406
-3.591566	stand	-0.066016406
-4.115903	towards	-0.066016406
-3.9759805	developing	-0.066016406
-4.115903	coordinating	-0.066016406
-3.9759805	Portland's	-0.066016406
-4.115903	civil	-0.066016406
-3.591566	defense	-0.108351015
-3.5000038	plans	-0.13905577
-4.115903	city's	-0.066016406
-3.4244246	schools	-0.09198818
-3.4244246	event	-0.08902452
-3.4244246	attack	-0.12783897
-3.8668022	But	-0.08474956
-2.9143941	there	-0.14325136
-3.8668022	seemed	-0.24922071
-4.115903	difference	-0.066016406
-3.9759805	opinion	-0.066016406
-3.209871	how	-0.10100242
-3.5000038	far	-0.08666809
-3.132533	should	-0.36881378
-3.4244246	go	-0.066016406
-3.8668022	whose	-0.066016406
-4.115903	advice	-0.066016406
-3.8668022	follow	-0.13905577
-3.9759805	hearing	-0.066016406
-4.115903	coordination	-0.066016406
-4.115903	plea	-0.066016406
-2.455673	from	-0.2189237
-2.8017423	Mrs.	-0.13052557
-3.7077355	Ralph	-0.16646838
-3.4244246	H.	-0.066016406
-3.9759805	Molvar	-0.13905577
-4.115903	1409	-0.066016406
-4.115903	SW	-0.066016406
-4.115903	Maplecrest	-0.066016406
-3.3600693	Dr.	-0.12925108
-3.7077355	thought	-0.10100242
-2.638296	had	-0.19709297
-3.591566	already	-0.16646838
-4.115903	cooperating	-0.066016406
-4.115903	Chairman	-0.066016406
-3.4244246	Richard	-0.066016406
-4.115903	Mears	-0.066016406
-3.8668022	pointed	-0.24922071
-2.6991172	out	-0.26739857
-3.9759805	perhaps	-0.066016406
-2.5653274	this	-0.17831558
-3.9759805	strictly	-0.066016406
-3.591566	problem	-0.108351015
-3.9759805	case	-0.066016406
-4.115903	atomic	-0.066016406
-2.959531	would	-0.14980271
-4.115903	cooperate	-0.066016406
-3.8668022	possible	-0.066016436
-3.3040311	get	-0.18789154
-3.8668022	parents	-0.13905577
-3.7077355	wanted	-0.066016406
-3.9759805	Melvin	-0.066016406
-3.1694827	W.	-0.066016406
-3.7077355	Barnes	-0.19568422
-3.591566	superintendent	-0.19065446
-2.6055121	were	-0.081510924
-3.8668022	waiting	-0.066016406
-3.9759805	leadership	-0.066016406
-3.7077355	national	-0.066016406
-3.7077355	level	-0.108351015
-3.591566	make	-0.09582854
-3.9759805	sure	-0.066016406
-4.115903	whatever	-0.066016406
-4.115903	steps	-0.066016406
-3.8668022	planning	-0.066016406
-4.115903	fruitful	-0.066016406
-3.3600693	found	-0.15598483
-4.115903	districts	-0.066016406
-3.3040311	along	-0.11332009
-3.591566	Los	-0.29259422
-4.115903	Angeles	-0.066016406
-4.115903	send	-0.066016406
-3.9759805	homes	-0.066016406
-4.115903	disaster	-0.066016406
-4.115903	Nobody	-0.066016406
-3.7077355	really	-0.066016406
-3.9759805	expects	-0.066016406
-4.115903	evacuate	-0.066016406
-2.98399	I	-0.16484353
-3.9759805	think	-0.066016406
-4.115903	everybody	-0.066016406
-3.7077355	agreed	-0.11961245
-3.8668022	need	-0.066016436
-3.8668022	hear	-0.066016406
-4.115903	voice	-0.066016406
-3.8668022	sense	-0.13905577
-3.9759805	confidence	-0.1807664
-3.591566	kept	-0.108351015
-4.115903	reiterating	-0.066016406
-2.8186033	her	-0.08474952
-3.9759805	request	-0.1807664
-4.115903	please	-0.066016406
-3.9759805	faith	-0.066016406
-3.9759805	somebody	-0.066016406
-2.6616125	--	-0.099910796
-3.591566	local	-0.09198818
-4.115903	everyone	-0.066016406
-3.9759805	rush	-0.066016406
-3.9759805	feeling	-0.066016406
-4.115903	evacuation	-0.066016406
-3.2544043	even	-0.066016406
-3.3600693	high	-0.13643827
-3.8668022	lots	-0.24922071
-3.9759805	cars	-0.066016406
-3.591566	might	-0.108351015
-4.115903	realistic	-0.066016406
-3.209871	again	-0.10432729
-3.9759805	join	-0.066016406
-3.9759805	taking	-0.066016406
-3.8668022	keeping	-0.066016406
-3.3600693	Jack	-0.066016406
-4.115903	Lowe's	-0.066016406
-3.2544043	program	-0.13643827
-3.8668022	gone	-0.066016436
-4.115903	instructed	-0.066016406
-4.115903	information	-0.066016406
-3.591566	brought	-0.066016436
-3.1694827	next	-0.12925108
-3.9759805	It	-0.108351015
-3.8668022	generally	-0.066016406
-4.115903	subject	-0.066016406
-3.8668022	informed	-0.066016406
-3.9759805	done	-0.066016406
-3.5000038	going	-0.24564965
-3.9759805	Salem	-0.066016406
-2.72605	(	-0.10684886
-4.115903	AP	-0.066016406
-2.7855115	)	-0.12326731
-4.115903	statewide	-0.066016406
-4.115903	war	-0.066016406
-3.9759805	mothers	-0.066016406
-3.2544043	Tuesday	-0.16408925
-4.115903	greeting	-0.066016406
-4.115903	Gov.	-0.066016406
-4.115903	Mark	-0.066016406
-3.9759805	Hatfield	-0.066016406
-2.959531	also	-0.07415959
-3.7077355	scheduled	-0.16646838
-3.9759805	hold	-0.11961245
-3.7077355	public	-0.066016436
-4.115903	Nations	-0.066016406
-3.7077355	Day	-0.066016406
-3.5000038	reception	-0.066016406
-4.115903	capitol	-0.066016406
-3.8668022	His	-0.066016406
-3.7077355	schedule	-0.066016406
-3.8668022	calls	-0.066016406
-3.9759805	noon	-0.066016406
-4.115903	speech	-0.066016406
-3.9759805	Eugene	-0.066016406
-4.115903	Emerald	-0.066016406
-3.9759805	Empire	-0.066016406
-4.115903	Kiwanis	-0.066016406
-3.4244246	Club	-0.12482941
-4.115903	speak	-0.066016406
-4.115903	Willamette	-0.066016406
-3.9759805	Young	-0.066016406
-4.115903	Republicans	-0.066016406
-3.8668022	Thursday	-0.066016406
-3.9759805	On	-0.11961245
-3.3040311	Friday	-0.17783096
-4.115903	swearing	-0.066016406
-3.9759805	Dean	-0.066016406
-4.115903	Bryson	-0.066016406
-3.8668022	County	-0.066016406
-3.9759805	Circuit	-0.066016406
-3.591566	Judge	-0.108351015
-3.9759805	attend	-0.066016406
-4.115903	Republican	-0.066016406
-3.1694827	State	-0.11167365
-3.8668022	Central	-0.066016406
-3.7077355	Committee	-0.11961245
-3.037474	Saturday	-0.27649266
-4.115903	Washington-Oregon	-0.066016406
-3.3040311	football	-0.108351015
-2.7698658	game	-0.24467732
-4.115903	Beaverton	-0.066016406
-3.8668022	School	-0.066016406
-3.9759805	No.	-0.066016406
-4.115903	48	-0.066016406
-4.115903	examined	-0.066016406
-4.115903	blueprints	-0.066016406
-4.115903	specifications	-0.066016406
-2.7547638	two	-0.14583595
-3.9759805	proposed	-0.066016406
-3.5000038	junior	-0.10100242
-4.115903	workshop	-0.066016406
-3.7077355	session	-0.11961245
-3.5000038	A	-0.079821534
-3.9759805	bond	-0.066016406
-3.9759805	issue	-0.1807664
-4.115903	provided	-0.066016406
-4.115903	$3.5	-0.066016406
-3.9759805	million	-0.066016406
-3.4244246	construction	-0.12783897
-4.115903	900-student	-0.066016406
-4.115903	defeated	-0.066016406
-3.9759805	voters	-0.066016406
-4.115903	January	-0.066016406
-4.115903	Last	-0.066016406
-3.2544043	week	-0.13597798
-3.7077355	4	-0.066016406
-3.2544043	3	-0.2321674
-4.115903	vote	-0.066016406
-3.8668022	decided	-0.066016406
-3.9759805	ask	-0.066016406
-3.9759805	whether	-0.066016406
-4.115903	prefer	-0.066016406
-4.115903	6-3-3	-0.066016406
-3.8668022	system	-0.13905577
-3.0099092	or	-0.066016406
-4.115903	8-4	-0.066016406
-3.591566	Board	-0.108351015
-3.8668022	indicated	-0.066016406
-2.72605	an	-0.06991235
-3.9759805	advisory	-0.066016406
-4.115903	poll	-0.066016406
-3.591566	taken	-0.12783897
-3.8668022	Nov.	-0.066016406
-4.115903	same	-0.066016406
-3.7077355	date	-0.11961245
-4.115903	$581,000	-0.066016406
-3.9759805	election	-0.066016406
-3.037474	new	-0.09440057
-4.115903	elementary	-0.066016406
-3.8668022	Secretary	-0.11961245
-3.8668022	Labor	-0.066016406
-3.9759805	Arthur	-0.066016406
-3.9759805	Goldberg	-0.066016406
-3.0669074	Sunday	-0.09377613
-3.9759805	Masonic	-0.066016406
-3.9759805	Temple	-0.066016406
-4.115903	$25-a-plate	-0.066016406
-3.132533	dinner	-0.07967451
-3.9759805	honoring	-0.066016406
-3.9759805	Sen.	-0.066016406
-3.7077355	Wayne	-0.16646838
-3.132533	L.	-0.066016406
-3.9759805	Morse	-0.066016406
-3.9759805	Aj	-0.1807664
-4.115903	sponsored	-0.066016406
-4.115903	organized	-0.066016406
-4.115903	labor	-0.066016406
-3.4244246	7	-0.09198818
-3.5000038	p.m.	-0.13905574
-4.115903	joint	-0.066016406
-4.115903	press	-0.066016406
-3.8668022	conference	-0.13905577
-4.115903	Roosevelt	-0.066016406
-4.115903	4:30	-0.066016406
-4.115903	Blaine	-0.066016406
-4.115903	Whipple	-0.066016406
-3.9759805	executive	-0.1807664
-4.115903	Democratic	-0.066016406
-4.115903	Party	-0.066016406
-4.115903	Oregon	-0.066016406
-3.8668022	reported	-0.066016406
-4.115903	Other	-0.066016406
-3.9759805	speakers	-0.066016406
-4.115903	fund-raising	-0.066016406
-3.9759805	include	-0.066016406
-4.115903	Reps.	-0.066016406
-4.115903	Edith	-0.066016406
-3.8668022	Green	-0.066016406
-3.591566	Al	-0.066016436
-4.115903	Ullman	-0.066016406
-3.9759805	Commissioner	-0.066016406
-3.8668022	Norman	-0.066016406
-4.115903	Nilsen	-0.066016406
-3.7077355	Mayor	-0.066016436
-3.7077355	Terry	-0.066016406
-4.115903	Schrunk	-0.066016406
-2.8544257	all	-0.14230064
-4.115903	Democrats	-0.066016406
-3.9759805	Oak	-0.066016406
-3.8668022	Grove	-0.066016406
-3.8668022	special	-0.066016406
-3.9759805	Three	-0.066016406
-4.115903	positions	-0.066016406
-4.115903	Lodge	-0.066016406
-4.115903	Water	-0.066016406
-4.115903	directors	-0.066016406
-4.115903	attracted	-0.066016406
-3.591566	11	-0.066016436
-3.9759805	candidates	-0.066016406
-3.7077355	Dec.	-0.066016406
-3.5000038	8	-0.11961245
-4.115903	a.m.	-0.066016406
-4.115903	Polls	-0.066016406
-4.115903	water	-0.066016406
-4.115903	Incumbent	-0.066016406
-4.115903	Salter	-0.066016406
-4.115903	seeks	-0.066016406
-3.9759805	re-election	-0.066016406
-4.115903	opposed	-0.066016406
-3.9759805	Donald	-0.066016406
-4.115903	Huffman	-0.066016406
-4.115903	five-year	-0.066016406
-3.8668022	term	-0.066016406
-3.5000038	William	-0.066016406
-4.115903	Brod	-0.066016406
-2.494642	his	-0.10607542
-4.115903	bid	-0.066016406
-3.8668022	Barbara	-0.066016406
-4.115903	Njust	-0.066016406
-4.115903	Miles	-0.066016406
-4.115903	Bubenik	-0.066016406
-3.591566	Frank	-0.066016406
-3.591566	Lee	-0.066016436
-4.115903	Five	-0.066016406
-3.8668022	seek	-0.11961245
-3.7077355	place	-0.066016406
-3.9759805	vacated	-0.1807664
-4.115903	Hugh	-0.066016406
-4.115903	Stout	-0.066016406
-4.115903	Seeking	-0.066016406
-3.9759805	two-year	-0.1807664
-3.4244246	James	-0.08315722
-4.115903	Culbertson	-0.066016406
-3.9759805	Dwight	-0.066016406
-4.115903	Steeves	-0.066016406
-4.115903	Piersee	-0.066016406
-4.115903	W.M.	-0.066016406
-4.115903	Sexton	-0.066016406
-3.9759805	Theodore	-0.066016406
-4.115903	Heitschmidt	-0.066016406
-4.115903	stronger	-0.066016406
-3.8668022	beliefs	-0.066016406
-4.115903	grasp	-0.066016406
-3.8668022	future	-0.066016406
-3.8668022	delegates	-0.11961245
-4.115903	29th	-0.066016406
-3.591566	general	-0.108351015
-3.9759805	council	-0.066016406
-3.591566	Assemblies	-0.47106948
-4.115903	God	-0.066016406
-3.8668022	Memorial	-0.13905577
-4.115903	Coliseum	-0.066016406
-4.115903	revised	-0.066016406
-3.8668022	effort	-0.066016406
-4.115903	strengthen	-0.066016406
-4.115903	denomination's	-0.066016406
-3.591566	16	-0.108351015
-4.115903	basic	-0.066016406
-3.591566	adopted	-0.066016436
-4.115903	1966	-0.066016406
-3.7077355	changes	-0.11961245
-4.115903	unanimously	-0.066016406
-4.115903	felt	-0.066016406
-3.8668022	face	-0.066016406
-3.9759805	modern	-0.066016406
-4.115903	trends	-0.066016406
-3.5000038	away	-0.10100242
-4.115903	Bible	-0.066016406
-4.115903	firmly	-0.066016406
-3.0099092	its	-0.075728156
-3.8668022	belief	-0.066016406
-4.115903	dependence	-0.066016406
-4.115903	At	-0.066016406
-4.115903	adoption	-0.066016406
-3.9759805	Rev.	-0.066016406
-3.8668022	T.	-0.066016406
-3.4244246	F.	-0.066016406
-3.9759805	Zimmerman	-0.13905577
-3.9759805	commented	-0.066016406
-4.115903	bulwark	-0.066016406
-4.115903	fundamentalism	-0.066016406
-3.8668022	these	-0.066016406
-3.4244246	days	-0.066016406
-3.591566	without	-0.066016406
-4.115903	compromise	-0.066016406
-3.8668022	stood	-0.13905577
-3.591566	great	-0.066016406
-4.115903	truths	-0.066016406
-3.037474	men	-0.119254366
-3.8668022	past	-0.08902452
-4.115903	willing	-0.066016406
-4.115903	lives	-0.066016406
-2.9143941	New	-0.45136556
-3.8668022	point	-0.13905577
-4.115903	Many	-0.066016406
-3.9759805	involved	-0.066016406
-3.591566	minor	-0.16646838
-4.115903	editing	-0.066016406
-4.115903	clarification	-0.066016406
-2.9143941	;	-0.91584355
-3.9759805	however	-0.1807664
-3.132533	first	-0.0773681
-3.8668022	entire	-0.066016406
-4.115903	revision	-0.066016406
-3.209871	third	-0.11069771
-3.7077355	list	-0.066016406
-4.115903	denomination	-0.066016406
-3.037474	now	-0.10859788
-4.115903	reads	-0.066016406
-2.72605	:	-0.27000108
-4.115903	scriptures	-0.066016406
-3.5000038	both	-0.09198818
-3.5000038	Old	-0.10100242
-4.115903	Testament	-0.066016406
-4.115903	verbally	-0.066016406
-4.115903	inspired	-0.066016406
-4.115903	revelation	-0.066016406
-3.209871	man	-0.11167365
-4.115903	infallible	-0.066016406
-4.115903	authoritative	-0.066016406
-4.115903	conduct	-0.066016406
-3.5000038	six	-0.066016406
-3.8668022	points	-0.066016406
-3.9759805	emphasizes	-0.1807664
-4.115903	Diety	-0.066016406
-4.115903	Lord	-0.066016406
-4.115903	Jesus	-0.066016406
-3.9759805	Christ	-0.066016406
-4.115903	Virgin	-0.066016406
-3.9759805	birth	-0.066016406
-4.115903	sinless	-0.066016406
-4.115903	miracles	-0.066016406
-4.115903	substitutionary	-0.066016406
-4.115903	cross	-0.066016406
-4.115903	bodily	-0.066016406
-4.115903	resurrection	-0.066016406
-3.8668022	dead	-0.066016406
-4.115903	exaltation	-0.066016406
-3.3040311	right	-0.115246475
-3.8668022	hand	-0.066016406
-4.115903	Super	-0.066016406
-4.115903	elected	-0.066016406
-3.591566	afternoon	-0.10100242
-4.115903	reelected	-0.066016406
-3.209871	second	-0.09041666
-3.9759805	consecutive	-0.066016406
-4.115903	offices	-0.066016406
-4.115903	Springfield	-0.066016406
-4.115903	Mo.	-0.066016406
-4.115903	Election	-0.066016406
-3.2544043	came	-0.10882244
-4.115903	nominating	-0.066016406
-4.115903	ballot	-0.066016406
-4.115903	heard	-0.066016406
-4.115903	forthcoming	-0.066016406
-4.115903	Breakthrough	-0.066016406
-4.115903	fill	-0.066016406
-3.5000038	churches	-0.15598483
-3.9759805	In	-0.066016406
-3.591566	opening	-0.066016406
-4.115903	address	-0.066016406
-3.209871	Wednesday	-0.119144246
-3.098482	Mr.	-0.23049833
-3.8668022	urged	-0.066016406
-4.115903	consider	-0.066016406
-3.9759805	10-year	-0.066016406
-3.8668022	expansion	-0.066016406
-3.9759805	theme	-0.066016406
-3.7077355	R.	-0.066016406
-3.7077355	Brandt	-0.066016436
-2.72605	home	-0.2414754
-4.115903	missions	-0.066016406
-3.9759805	department	-0.066016406
-4.115903	stressed	-0.066016406
-4.115903	years'	-0.066016406
-4.115903	Surveys	-0.066016406
-3.4244246	show	-0.08666809
-3.9759805	vital	-0.066016406
-3.9759805	contact	-0.066016406
-3.7077355	church	-0.066016436
-3.8668022	This	-0.08666809
-3.7077355	means	-0.066016406
-3.7077355	100	-0.066016406
-3.9759805	touch	-0.066016406
-4.115903	religious	-0.066016406
-3.5000038	Church	-0.13905577
-4.115903	loses	-0.066016406
-3.8668022	pace	-0.066016406
-4.115903	Talking	-0.066016406
-4.115903	rapid	-0.066016406
-3.9759805	population	-0.066016406
-4.115903	growth	-0.066016406
-4.115903	upwards	-0.066016406
-4.115903	12,000	-0.066016406
-4.115903	babies	-0.066016406
-3.9759805	born	-0.066016406
-3.8668022	daily	-0.066016406
-4.115903	immigrant	-0.066016406
-3.9759805	entering	-0.066016406
-3.4244246	every	-0.066016406
-4.115903	1-1/2	-0.066016406
-3.3040311	minutes	-0.1563136
-4.115903	organization	-0.066016406
-4.115903	35	-0.066016406
-3.9759805	opened	-0.066016406
-4.115903	7,000	-0.066016406
-3.7077355	goal	-0.066016406
-4.115903	10,000	-0.066016406
-3.8668022	light	-0.066016406
-4.115903	1,000	-0.066016406
-3.9759805	Illinois	-0.13905577
-3.8668022	200	-0.066016406
-4.115903	800	-0.066016406
-3.9759805	Southern	-0.066016406
-4.115903	England	-0.066016406
-3.9759805	60	-0.066016406
-4.115903	Rhode	-0.066016406
-3.9759805	Island	-0.066016406
-4.115903	none	-0.066016406
-4.115903	To	-0.066016406
-4.115903	step	-0.066016406
-4.115903	suggested	-0.066016406
-4.115903	vision	-0.066016406
-4.115903	8,000	-0.066016406
-3.2544043	10	-0.17783096
-3.9759805	accomplish	-0.066016406
-4.115903	necessitate	-0.066016406
-3.9759805	methods	-0.066016406
-3.5000038	'	-0.066016406
-4.115903	meets	-0.066016406
-3.8668022	change	-0.066016406
-4.115903	church's	-0.066016406
-3.591566	ability	-0.16646838
-4.115903	determine	-0.066016406
-3.3040311	meet	-0.08666809
-3.9759805	hour	-0.066016406
-4.115903	capsule	-0.066016406
-4.115903	view	-0.066016406
-3.9759805	includes	-0.066016406
-4.115903	Encouraging	-0.066016406
-3.9759805	existing	-0.066016406
-3.209871	start	-0.07880816
-4.115903	Engaging	-0.066016406
-3.9759805	mature	-0.066016406
-4.115903	experienced	-0.066016406
-3.9759805	pioneer	-0.066016406
-4.115903	strategic	-0.066016406
-3.8668022	centers	-0.066016406
-4.115903	Surrounding	-0.066016406
-4.115903	pastors	-0.066016406
-4.115903	vocational	-0.066016406
-4.115903	volunteers	-0.066016406
-4.115903	laymen	-0.066016406
-3.7077355	move	-0.108351015
-2.8735096	into	-0.35327256
-3.5000038	area	-0.066016406
-3.8668022	interest	-0.066016406
-4.115903	lending	-0.066016406
-4.115903	support	-0.066016406
-3.9759805	project	-0.066016406
-4.115903	Arranging	-0.066016406
-4.115903	ministerial	-0.066016406
-4.115903	graduates	-0.066016406
-3.9759805	spend	-0.066016406
-4.115903	6-12	-0.066016406
-4.115903	apprentices	-0.066016406
-4.115903	well-established	-0.066016406
-3.9759805	U.S.	-0.066016406
-4.115903	Dist.	-0.066016406
-3.8668022	Powell	-0.066016406
-4.115903	denied	-0.066016406
-3.7077355	motions	-0.066016406
-2.9143941	made	-0.15282527
-4.115903	attorneys	-0.066016406
-4.115903	insurance	-0.066016406
-4.115903	fraud	-0.066016406
-3.9759805	trial	-0.066016406
-4.115903	Denials	-0.066016406
-3.9759805	dismissal	-0.1807664
-4.115903	continuance	-0.066016406
-4.115903	mistrial	-0.066016406
-4.115903	separate	-0.066016406
-4.115903	acquittal	-0.066016406
-4.115903	striking	-0.066016406
-4.115903	testimony	-0.066016406
-4.115903	directed	-0.066016406
-4.115903	verdict	-0.066016406
-4.115903	denying	-0.066016406
-4.115903	stated	-0.066016406
-4.115903	mass	-0.066016406
-4.115903	trials	-0.066016406
-4.115903	upheld	-0.066016406
-4.115903	proper	-0.066016406
-3.9759805	courts	-0.066016406
-3.9759805	person	-0.066016406
-3.9759805	conspiracy	-0.11961245
-4.115903	knowing	-0.066016406
-4.115903	conspirators	-0.066016406
-3.9759805	Schwab	-0.066016406
-4.115903	behalf	-0.066016406
-3.9759805	defendant	-0.066016406
-3.9759805	Philip	-0.066016406
-3.9759805	Weinstein	-0.066016406
-4.115903	argued	-0.066016406
-3.9759805	evidence	-0.066016406
-4.115903	linking	-0.066016406
-3.8668022	declared	-0.066016406
-3.591566	matter	-0.10100242
-4.115903	jury	-0.066016406
-4.115903	decide	-0.066016406
-4.115903	Proof	-0.066016406
-4.115903	charged	-0.066016406
-4.115903	proof	-0.066016406
-4.115903	Weinstein's	-0.066016406
-3.4244246	use	-0.09198818
-3.9759805	mails	-0.066016406
-4.115903	defraud	-0.066016406
-4.115903	federal	-0.066016406
-4.115903	prosecutor	-0.066016406
-3.2544043	A.	-0.066016406
-4.115903	Lawrence	-0.066016406
-4.115903	Burbank	-0.066016406
-4.115903	replied	-0.066016406
-3.9759805	actually	-0.066016406
-4.115903	conpired	-0.066016406
-3.7077355	then	-0.066016406
-3.591566	used	-0.108351015
-3.9759805	carry	-0.066016406
-3.7077355	began	-0.11961245
-4.115903	presentation	-0.066016406
-4.115903	cases	-0.066016406
-4.115903	statements	-0.066016406
-4.115903	deferred	-0.066016406
-4.115903	until	-0.066016406
-4.115903	witnesses	-0.066016406
-3.591566	presented	-0.13905577
-3.8668022	Miami	-0.13905577
-3.9759805	Fla.	-0.066016406
-3.8668022	17	-0.066016406
-3.9759805	Orioles	-0.066016406
-3.591566	tonight	-0.108351015
-4.115903	retained	-0.066016406
-3.9759805	distinction	-0.066016406
-3.591566	being	-0.066016436
-2.8186033	only	-0.12028383
-3.9759805	winless	-0.066016406
-2.9363763	team	-0.16279112
-3.4244246	among	-0.22849765
-4.115903	eighteen	-0.066016406
-4.115903	Major-League	-0.066016406
-3.8668022	clubs	-0.066016406
-3.591566	dropped	-0.066016406
-3.8668022	sixth	-0.066016406
-3.3600693	straight	-0.108351015
-3.5000038	spring	-0.10100242
-3.7077355	exhibition	-0.066016406
-3.8668022	decision	-0.066016406
-3.7077355	Kansas	-0.37415946
-3.4244246	City	-0.066016406
-3.9759805	Athletics	-0.066016406
-3.8668022	score	-0.066016436
-3.8668022	5	-0.066016406
-4.115903	Indications	-0.066016406
-3.5000038	late	-0.066016406
-3.209871	top	-0.10100242
-3.8668022	Birds	-0.066016436
-3.591566	end	-0.066016406
-3.0669074	victory	-0.17424811
-4.115903	draught	-0.066016406
-4.115903	coasted	-0.066016406
-4.115903	3-to-o	-0.066016406
-3.8668022	advantage	-0.066016406
-3.8668022	Siebern	-0.066016406
-3.209871	hits	-0.12387946
-3.3600693	homer	-0.08902452
-4.115903	Over	-0.066016406
-3.4244246	five	-0.066016406
-3.9759805	frames	-0.1807664
-4.115903	Fisher	-0.066016406
-3.4244246	big	-0.066016406
-3.9759805	righthander	-0.1807664
-4.115903	figures	-0.066016406
-4.115903	middle	-0.066016406
-3.8668022	Oriole	-0.066016406
-3.5000038	drive	-0.066016406
-3.5000038	1961	-0.066016406
-3.5000038	American	-0.09198818
-3.5000038	League	-0.07967451
-3.7077355	pennant	-0.066016406
-3.5000038	held	-0.09198818
-4.115903	A's	-0.066016406
-3.9759805	scoreless	-0.066016406
-3.209871	while	-0.10195597
-4.115903	yielding	-0.066016406
-4.115903	scattered	-0.066016406
-3.9759805	Then	-0.066016436
-3.5000038	Dick	-0.066016406
-3.7077355	Hyde	-0.066016406
-4.115903	submarine-ball	-0.066016406
-4.115903	hurler	-0.066016406
-3.9759805	entered	-0.1807664
-3.8668022	contest	-0.13905577
-4.115903	batters	-0.066016406
-2.7855115	him	-0.14723535
-2.7855115	before	-0.12395308
-4.115903	existed	-0.066016406
-4.115903	3-to-3	-0.066016406
-4.115903	deadlock	-0.066016406
-3.9759805	two-run	-0.066016406
-3.9759805	Norm	-0.066016406
-4.115903	solo	-0.066016406
-3.8668022	blast	-0.066016406
-3.3040311	Bill	-0.066016406
-3.7077355	Tuttle	-0.066016406
-3.8668022	tied	-0.24922071
-3.4244246	single	-0.10100242
-3.4244246	runs	-0.12954305
-4.115903	eighth	-0.066016406
-3.9759805	ninth	-0.066016406
-3.3600693	gave	-0.24683672
-3.8668022	fifth	-0.066016406
-3.5000038	eight	-0.10100242
-3.5000038	starts	-0.10100242
-3.5000038	House	-0.066016406
-4.115903	throws	-0.066016406
-3.8668022	wild	-0.13905577
-4.115903	With	-0.066016406
-3.1694827	down	-0.12687257
-3.9759805	Marv	-0.066016406
-3.7077355	Throneberry	-0.11961245
-3.8668022	drew	-0.13905577
-3.9759805	walk	-0.066016406
-4.115903	stole	-0.066016406
-3.8668022	fanned	-0.066016406
-4.115903	Catcher	-0.066016406
-4.115903	House's	-0.066016406
-3.8668022	throw	-0.066016406
-4.115903	nab	-0.066016406
-3.8668022	wide	-0.066016406
-4.115903	dirt	-0.066016406
-4.115903	Heywood	-0.066016406
-4.115903	Sullivan	-0.066016406
-4.115903	catcher	-0.066016406
-3.5000038	singled	-0.066016406
-3.5000038	across	-0.13905577
-4.115903	proved	-0.066016406
-3.591566	winning	-0.066016406
-3.098482	run	-0.20952182
-4.115903	Rookie	-0.066016406
-3.591566	southpaw	-0.066016436
-3.5000038	George	-0.066016406
-3.9759805	Stepanovich	-0.066016406
-4.115903	relieved	-0.066016406
-3.9759805	tally	-0.066016406
-3.9759805	baseman	-0.066016406
-3.9759805	Howser	-0.066016406
-4.115903	pitch	-0.066016406
-4.115903	Cipriani's	-0.066016406
-3.209871	under	-0.10882244
-4.115903	Shortstop	-0.066016406
-3.591566	Jerry	-0.066016436
-4.115903	Adair's	-0.066016406
-3.7077355	glove	-0.066016406
-3.3040311	center	-0.19082627
-3.7077355	once	-0.066016436
-4.115903	performed	-0.066016406
-4.115903	plate	-0.066016406
-4.115903	powderpuff	-0.066016406
-3.7077355	fashion	-0.19568422
-4.115903	gathering	-0.066016406
-3.9759805	seven	-0.066016406
-4.115903	blows	-0.066016406
-2.7547638	off	-0.21817702
-4.115903	offerings	-0.066016406
-3.7077355	pitchers	-0.19568422
-3.8668022	doubles	-0.066016436
-4.115903	Brooks	-0.066016406
-3.3040311	Robinson	-0.08666809
-3.591566	getting	-0.108351015
-3.8668022	pair	-0.066016406
-3.8668022	Breeding	-0.066016406
-3.8668022	Hartman	-0.066016406
-3.9759805	impressive	-0.066016406
-3.9759805	Kunkel	-0.066016406
-3.132533	Bob	-0.066016406
-3.9759805	Ed	-0.066016406
-3.8668022	Keegan	-0.066016406
-3.1694827	did	-0.09582854
-3.9759805	mound	-0.13905577
-4.115903	chores	-0.066016406
-3.0669074	club	-0.11445741
-3.7077355	West	-0.11961245
-3.9759805	Palm	-0.1807664
-3.8668022	Beach	-0.108351015
-2.9363763	play	-0.13811918
-4.115903	767	-0.066016406
-4.115903	paying	-0.066016406
-4.115903	customers	-0.066016406
-3.5000038	Stadium	-0.08902452
-3.132533	got	-0.15864158
-2.7698658	over	-0.30468473
-3.8668022	fourth	-0.066016406
-4.115903	purchased	-0.066016406
-4.115903	Milwaukee	-0.066016406
-4.115903	Braves	-0.066016406
-2.6616125	last	-0.21930604
-4.115903	fall	-0.066016406
-4.115903	allowed	-0.066016406
-4.115903	three-inning	-0.066016406
-3.9759805	appearance	-0.066016406
-4.115903	merited	-0.066016406
-3.8668022	triumph	-0.066016406
-4.115903	6-foot-3-inch	-0.066016406
-4.115903	158-pounder	-0.066016406
-4.115903	Orioles'	-0.066016406
-4.115903	safeties	-0.066016406
-3.8668022	final	-0.066016406
-4.115903	escaping	-0.066016406
-4.115903	load	-0.066016406
-3.7077355	trouble	-0.11961245
-2.7547638	when	-0.20584762
-4.115903	threatened	-0.066016406
-3.8668022	failed	-0.13905577
-3.591566	led	-0.108351015
-3.3040311	double	-0.108351015
-3.9759805	fence	-0.066016406
-4.115903	375	-0.066016406
-3.7077355	feet	-0.066016406
-3.7077355	deep	-0.19568422
-3.3040311	left	-0.12482941
-4.115903	Whitey	-0.066016406
-4.115903	Herzog	-0.066016406
-4.115903	performing	-0.066016406
-4.115903	fielded	-0.066016406
-4.115903	possibly	-0.066016406
-4.115903	strongest	-0.066016406
-3.5000038	worked	-0.14802893
-3.8668022	base	-0.066016406
-3.9759805	balls	-0.066016406
-4.115903	pinch-hitters	-0.066016406
-3.9759805	produce	-0.066016406
-4.115903	Pete	-0.066016406
-4.115903	Ward	-0.066016406
-3.8668022	sent	-0.066016406
-4.115903	failing	-0.066016406
-4.115903	bunt	-0.066016406
-4.115903	attempt	-0.066016406
-3.9759805	popped	-0.066016406
-4.115903	grass	-0.066016406
-3.5000038	short	-0.066016406
-3.1694827	John	-0.066016406
-3.591566	batting	-0.13905577
-3.9759805	Adair	-0.066016406
-4.115903	fouling	-0.066016406
-4.115903	2-and-2	-0.066016406
-4.115903	pitches	-0.066016406
-4.115903	Buddy	-0.066016406
-4.115903	Barker	-0.066016406
-3.8668022	bounced	-0.13905577
-3.9759805	sharply	-0.066016406
-3.8668022	Lumpe	-0.066016406
-4.115903	2-hour-and-27-minute	-0.066016406
-3.7077355	inning	-0.12783897
-3.9759805	doubled	-0.066016406
-3.7077355	moved	-0.09582854
-4.115903	Russ	-0.066016406
-4.115903	Snyder's	-0.066016406
-4.115903	crossed	-0.066016406
-3.9759805	Kunkel's	-0.066016406
-4.115903	front	-0.066016406
-3.9759805	Flock	-0.066016406
-3.9759805	tallies	-0.066016406
-3.7077355	Jackie	-0.066016406
-3.591566	hole	-0.10100242
-4.115903	rally	-0.066016406
-4.115903	errs	-0.066016406
-3.5000038	Jim	-0.066016406
-3.8668022	Gentile	-0.066016406
-3.9759805	hard	-0.066016406
-3.3600693	shot	-0.11961245
-3.3600693	beat	-0.14501719
-3.9759805	grabbed	-0.066016406
-3.2544043	ball	-0.092830956
-3.9759805	threw	-0.066016406
-4.115903	Throneberry's	-0.066016406
-3.4244246	head	-0.066016406
-3.9759805	error	-0.066016406
-3.9759805	slammed	-0.1807664
-4.115903	runners	-0.066016406
-4.115903	When	-0.066016436
-3.5000038	tried	-0.25760123
-3.9759805	stretch	-0.066016406
-4.115903	blow	-0.066016406
-4.115903	triple	-0.066016406
-3.4244246	cut	-0.09582854
-3.8668022	close	-0.066016406
-4.115903	Andy	-0.066016406
-3.8668022	Carey	-0.066016406
-4.115903	detailed	-0.066016406
-4.115903	rundown	-0.066016406
-3.8668022	scoring	-0.066016406
-3.3600693	went	-0.11961245
-3.3040311	like	-0.08666809
-4.115903	batter	-0.066016406
-4.115903	romped	-0.066016406
-3.5000038	around	-0.10100242
-4.115903	blasted	-0.066016406
-4.115903	Hyde's	-0.066016406
-4.115903	toss	-0.066016406
-4.115903	415	-0.066016406
-4.115903	scoreboard	-0.066016406
-4.115903	Singles	-0.066016406
-4.115903	slow-bouncing	-0.066016406
-3.3600693	field	-0.08666809
-3.8668022	ruled	-0.066016406
-4.115903	difficult	-0.066016406
-4.115903	chance	-0.066016406
-3.1694827	hit	-0.0818144
-4.115903	rapped	-0.066016406
-4.115903	fast	-0.066016406
-3.9759805	setting	-0.066016406
-4.115903	Tuttle's	-0.066016406
-4.115903	390-foot	-0.066016406
-3.9759805	If	-0.066016406
-3.7077355	break	-0.11961245
-3.9759805	losing	-0.066016406
-3.9759805	streak	-0.066016406
-3.9759805	within	-0.066016406
-3.9759805	expense	-0.066016406
-3.8668022	champion	-0.066016406
-4.115903	York	-0.066016406
-3.7077355	Yankees	-0.16082934
-3.4244246	come	-0.09582854
-2.8735096	here	-0.17731449
-3.2544043	tomorrow	-0.12954305
-4.115903	test	-0.066016406
-4.115903	flavor	-0.066016406
-3.9759805	Baltimore's	-0.066016406
-3.9759805	Florida	-0.066016406
-4.115903	Grapefruit	-0.066016406
-3.7077355	news	-0.066016406
-4.115903	ripened	-0.066016406
-4.115903	considerably	-0.066016406
-3.132533	today	-0.1813731
-4.115903	advised	-0.066016406
-3.9759805	Ron	-0.066016406
-3.5000038	Hansen	-0.066016406
-4.115903	fulfilled	-0.066016406
-4.115903	obligations	-0.066016406
-3.9759805	Army's	-0.066016406
-3.9759805	training	-0.066016406
-3.8668022	ready	-0.19568422
-4.115903	belated	-0.066016406
-4.115903	slugged	-0.066016406
-3.8668022	1960	-0.09198818
-3.3040311	22	-0.08902452
-3.8668022	homers	-0.13905577
-3.9759805	drove	-0.1807664
-3.9759805	86	-0.066016406
-3.9759805	freshman	-0.066016406
-3.9759805	average	-0.066016406
-4.115903	completes	-0.066016406
-3.9759805	Birds'	-0.066016406
-3.8668022	squad	-0.066016406
-4.115903	49	-0.066016406
-3.3040311	players	-0.12954305
-3.9759805	22-year-old	-0.066016406
-3.9759805	shortstop	-0.066016406
-3.4244246	league	-0.066016406
-4.115903	rookie-of-the-year	-0.066016406
-4.115903	flew	-0.066016406
-3.7077355	Baltimore	-0.066016406
-3.4244246	signed	-0.12783897
-3.8668022	contract	-0.066016406
-3.8668022	estimated	-0.066016406
-4.115903	$15,000	-0.066016406
-3.9759805	spectator	-0.066016406
-3.9759805	tonight's	-0.066016406
-4.115903	5-to-3	-0.066016406
-3.591566	loss	-0.108351015
-4.115903	setback	-0.066016406
-4.115903	row	-0.066016406
-3.8668022	pounds	-0.066016406
-4.115903	lighter	-0.066016406
-3.9759805	6-foot	-0.066016406
-4.115903	3-inch	-0.066016406
-4.115903	checked	-0.066016406
-4.115903	reporting	-0.066016406
-3.8668022	weight	-0.066016406
-3.9759805	hopes	-0.1807664
-4.115903	melt	-0.066016406
-4.115903	additional	-0.066016406
-4.115903	breaks	-0.066016406
-3.9759805	camp	-0.066016406
-3.3600693	weeks	-0.11332009
-4.115903	hence	-0.066016406
-4.115903	inducted	-0.066016406
-3.8668022	Army	-0.066016436
-4.115903	Fort	-0.066016406
-4.115903	Knox	-0.066016406
-4.115903	Ky.	-0.066016406
-4.115903	Hansen's	-0.066016406
-4.115903	180	-0.066016406
-3.3600693	too	-0.11334452
-3.3040311	me	-0.11332009
-3.5000038	my	-0.10100242
-3.9759805	feel	-0.066016406
-3.132533	good	-0.09041666
-3.9759805	physically	-0.066016406
-3.591566	better	-0.066016406
-3.9759805	carrying	-0.066016406
-3.7077355	little	-0.066016406
-4.115903	less	-0.066016406
-4.115903	Seeks	-0.066016406
-4.115903	improved	-0.066016406
-4.115903	fielding	-0.066016406
-4.115903	rangy	-0.066016406
-4.115903	Albany	-0.066016406
-4.115903	Cal.	-0.066016406
-4.115903	native	-0.066016406
-3.9759805	surprise	-0.066016406
-4.115903	slugging	-0.066016406
-4.115903	sensation	-0.066016406
-3.209871	year	-0.17152555
-3.591566	well	-0.066016436
-3.5000038	defensive	-0.09582854
-3.9759805	whiz	-0.066016406
-3.209871	set	-0.0982088
-3.1694827	can	-0.15134633
-3.5000038	know	-0.108351015
-4.115903	hitters	-0.066016406
-4.115903	engage	-0.066016406
-3.8668022	workout	-0.066016406
-4.115903	prior	-0.066016406
-4.115903	two-game	-0.066016406
-3.8668022	weekend	-0.066016406
-3.5000038	series	-0.12783897
-4.115903	Skinny	-0.066016406
-3.8668022	Brown	-0.066016406
-4.115903	Hoyt	-0.066016406
-4.115903	Wilhelm	-0.066016406
-4.115903	Flock's	-0.066016406
-3.7077355	veteran	-0.066016406
-4.115903	knuckleball	-0.066016406
-4.115903	specialists	-0.066016406
-4.115903	slated	-0.066016406
-4.115903	oppose	-0.066016406
-3.591566	champions	-0.108351015
-4.115903	tomorrow's	-0.066016406
-3.9759805	P.M.	-0.066016406
-3.9759805	Duren	-0.066016406
-3.9759805	Sheldon	-0.066016406
-4.115903	hill	-0.066016406
-4.115903	Ryne	-0.066016406
-4.115903	Roland	-0.066016406
-3.7077355	rookie	-0.066016406
-4.115903	posted	-0.066016406
-4.115903	15-1	-0.066016406
-3.037474	record	-0.1031509
-4.115903	Yanks'	-0.066016406
-4.115903	Auburn	-0.066016406
-3.9759805	N.Y.	-0.066016406
-3.9759805	farm	-0.066016406
-4.115903	Class-D	-0.066016406
-4.115903	York-Pennsylvania	-0.066016406
-4.115903	probable	-0.066016406
-4.115903	rival	-0.066016406
-4.115903	Twenty-one-year-old	-0.066016406
-3.9759805	Milt	-0.066016406
-4.115903	Pappas	-0.066016406
-3.9759805	Walker	-0.066016406
-3.9759805	share	-0.066016406
-2.8186033	against	-0.21283694
-4.115903	Bombers'	-0.066016406
-3.7077355	Art	-0.066016406
-4.115903	Ditmar	-0.066016406
-4.115903	Sunday's	-0.066016406
-3.2544043	2	-0.2321674
-4.115903	encounter	-0.066016406
-4.115903	Houk	-0.066016406
-4.115903	successor	-0.066016406
-3.7077355	Casey	-0.19568422
-3.9759805	Stengel	-0.066016406
-3.7077355	Yankee	-0.066016436
-3.9759805	helm	-0.1807664
-4.115903	bring	-0.066016406
-3.1694827	St.	-0.18857047
-4.115903	Petersburg	-0.066016406
-3.8668022	including	-0.066016436
-3.7077355	Joe	-0.066016406
-4.115903	Dimaggio	-0.066016406
-3.9759805	large	-0.066016406
-4.115903	crowds	-0.066016406
-4.115903	anticipated	-0.066016406
-3.209871	games	-0.10195597
-4.115903	famed	-0.066016406
-4.115903	Clipper	-0.066016406
-3.9759805	retired	-0.066016406
-3.9759805	assisting	-0.066016406
-3.209871	coach	-0.14661098
-4.115903	Squad	-0.066016406
-3.9759805	near	-0.066016406
-4.115903	Pitcher	-0.066016406
-4.115903	Steve	-0.066016406
-3.9759805	Barber	-0.066016406
-3.8668022	joined	-0.066016436
-3.7077355	ago	-0.09198818
-4.115903	completing	-0.066016406
-4.115903	hitch	-0.066016406
-4.115903	accelerated	-0.066016406
-4.115903	wintertime	-0.066016406
-3.9759805	course	-0.13905577
-3.9759805	enlisted	-0.066016406
-3.5000038	earlier	-0.066016406
-4.115903	bulky	-0.066016406
-4.115903	spring-training	-0.066016406
-4.115903	contingent	-0.066016406
-4.115903	gradually	-0.066016406
-4.115903	reduced	-0.066016406
-3.7077355	Manager	-0.066016406
-3.9759805	Paul	-0.066016406
-4.115903	Richards	-0.066016406
-3.8668022	coaches	-0.13905577
-4.115903	trim	-0.066016406
-4.115903	streamlined	-0.066016406
-4.115903	workable	-0.066016406
-3.8668022	unit	-0.066016406
-4.115903	Take	-0.066016406
-3.9759805	ride	-0.066016406
-4.115903	greeted	-0.066016406
-4.115903	Bird	-0.066016406
-4.115903	sacker	-0.066016406
-3.7077355	bat	-0.066016406
-3.591566	headed	-0.108351015
-4.115903	third-inning	-0.066016406
-4.115903	left-centerfield	-0.066016406
-3.9759805	mood	-0.066016406
-4.115903	celebrate	-0.066016406
-3.9759805	Just	-0.066016406
-3.098482	time	-0.12602879
-4.115903	Robinson's	-0.066016406
-3.9759805	pretty	-0.066016406
-3.8668022	wife	-0.13905577
-4.115903	Connie	-0.066016406
-3.9759805	addition	-0.13905577
-3.9759805	family	-0.066016436
-3.591566	summer	-0.066016436
-4.115903	Unfortunately	-0.066016406
-4.115903	Brooks's	-0.066016406
-4.115903	teammates	-0.066016406
-3.3040311	such	-0.13643827
-4.115903	festive	-0.066016406
-4.115903	expired	-0.066016406
-4.115903	seven-hit	-0.066016406
-3.2544043	pitching	-0.066016436
-4.115903	hurlers	-0.066016406
-4.115903	arrived	-0.066016406
-3.132533	just	-0.09698868
-4.115903	nightfall	-0.066016406
-3.8668022	hours	-0.066016406
-3.9759805	company	-0.066016406
-4.115903	MacPhail	-0.066016406
-3.3040311	J.	-0.08474956
-4.115903	Iglehart	-0.066016406
-3.5000038	chairman	-0.27965018
-4.115903	Public	-0.066016406
-4.115903	Relations	-0.066016406
-4.115903	Director	-0.066016406
-3.9759805	Dunn	-0.066016406
-4.115903	Their	-0.066016406
-3.9759805	flight	-0.066016406
-4.115903	delayed	-0.066016406
-4.115903	boarding	-0.066016406
-4.115903	ramp	-0.066016406
-4.115903	inflicted	-0.066016406
-3.8668022	damage	-0.066016406
-3.9759805	wing	-0.066016406
-4.115903	plane	-0.066016406
-4.115903	Ex-Oriole	-0.066016406
-3.9759805	Clint	-0.066016406
-4.115903	Courtney	-0.066016406
-4.115903	catching	-0.066016406
-4.115903	League's	-0.066016406
-3.9759805	Coast	-0.066016406
-4.115903	Tokyo	-0.066016406
-4.115903	Scrapiron	-0.066016406
-4.115903	someplace	-0.066016406
-4.115903	Bowie	-0.066016406
-4.115903	Md.	-0.066016406
-4.115903	Gaining	-0.066016406
-3.098482	B.	-0.07967451
-4.115903	Small	-0.066016406
-4.115903	Jr.'s	-0.066016406
-3.7077355	Garden	-0.19568422
-4.115903	Fresh	-0.066016406
-4.115903	3-year-old	-0.066016406
-4.115903	filly	-0.066016406
-4.115903	downed	-0.066016406
-3.9759805	promising	-0.066016406
-4.115903	colts	-0.066016406
-4.115903	$4,500	-0.066016406
-4.115903	Patrick's	-0.066016406
-4.115903	Purse	-0.066016406
-3.9759805	featured	-0.066016406
-3.8668022	seventh	-0.066016406
-3.7077355	race	-0.066016436
-3.9759805	paid	-0.066016406
-4.115903	$7.20	-0.066016406
-4.115903	Toying	-0.066016406
-3.3600693	early	-0.08666809
-3.9759805	stages	-0.066016406
-3.8668022	speed	-0.066016406
-4.115903	Jockey	-0.066016406
-4.115903	Grimm	-0.066016406
-3.3040311	won	-0.1907747
-3.9759805	length	-0.066016406
-4.115903	half	-0.066016406
-3.9759805	1.24	-0.066016406
-4.115903	3-5	-0.066016406
-4.115903	furlongs	-0.066016406
-3.9759805	8,280	-0.066016406
-3.9759805	races	-0.066016406
-4.115903	Forbes's	-0.066016406
-4.115903	Paget	-0.066016406
-4.115903	substantial	-0.066016406
-3.3040311	lead	-0.11334452
-4.115903	tired	-0.066016406
-4.115903	rapidly	-0.066016406
-4.115903	nearing	-0.066016406
-4.115903	wire	-0.066016406
-4.115903	save	-0.066016406
-3.5000038	money	-0.10100242
-3.9759805	Glen	-0.066016406
-4.115903	Hallowell's	-0.066016406
-4.115903	Milties	-0.066016406
-3.4244246	Miss	-0.0836145
-3.8668022	bright	-0.066016406
-4.115903	sun	-0.066016406
-4.115903	brisk	-0.066016406
-3.9759805	wind	-0.066016406
-3.9759805	track	-0.066016406
-3.591566	condition	-0.066016436
-4.115903	Patty	-0.066016406
-4.115903	celebrants	-0.066016406
-4.115903	bet	-0.066016406
-4.115903	$842,617	-0.066016406
-4.115903	well-prepared	-0.066016406
-4.115903	Prior	-0.066016406
-4.115903	stewards	-0.066016406
-4.115903	apprentice	-0.066016406
-3.7077355	P.	-0.066016406
-4.115903	Verrone	-0.066016406
-4.115903	suspended	-0.066016406
-3.8668022	ten	-0.066016406
-4.115903	crowding	-0.066016406
-4.115903	horses	-0.066016406
-4.115903	crossing	-0.066016406
-4.115903	Culmone	-0.066016406
-3.591566	gets	-0.066016436
-3.8668022	win	-0.11961245
-3.9759805	result	-0.066016406
-4.115903	mating	-0.066016406
-4.115903	Better	-0.066016406
-4.115903	Self	-0.066016406
-4.115903	Rosy	-0.066016406
-4.115903	Fingered	-0.066016406
-3.9759805	seems	-0.066016406
-4.115903	improve	-0.066016406
-3.3600693	each	-0.066016406
-3.9759805	appeared	-0.066016406
-4.115903	reserve	-0.066016406
-3.9759805	She	-0.066016406
-3.9759805	moving	-0.066016406
-4.115903	allowance	-0.066016406
-3.9759805	$10,000	-0.066016406
-4.115903	claiming	-0.066016406
-3.8668022	Cleveland	-0.13905577
-3.8668022	Kerr	-0.24922071
-4.115903	swift-striding	-0.066016406
-4.115903	Jamaican	-0.066016406
-4.115903	600-yard	-0.066016406
-4.115903	Knights	-0.066016406
-3.9759805	Columbus	-0.066016406
-3.9759805	beating	-0.066016406
-4.115903	Purdue's	-0.066016406
-3.591566	Dave	-0.066016406
-3.591566	Mills	-0.066016406
-3.8668022	hot	-0.066016406
-4.115903	duel	-0.066016406
-4.115903	1.10.1	-0.066016406
-3.3040311	world	-0.10432729
-3.7077355	month	-0.09582854
-4.115903	clocking	-0.066016406
-4.115903	1.09.3	-0.066016406
-4.115903	wiped	-0.066016406
-3.9759805	Mills's	-0.066016406
-3.8668022	young	-0.066016436
-3.9759805	Big	-0.066016406
-4.115903	quarter-mile	-0.066016406
-4.115903	king	-0.066016406
-2.98399	yards	-0.21538222
-4.115903	Both	-0.066016406
-3.591566	mark	-0.066016436
-4.115903	1.10.8	-0.066016406
-3.9759805	1950	-0.066016406
-4.115903	Mal	-0.066016406
-4.115903	Whitfield	-0.066016406
-3.209871	through	-0.12387946
-4.115903	thirds	-0.066016406
-3.8668022	student	-0.066016406
-4.115903	straightaway	-0.066016406
-3.7077355	turn	-0.11961245
-3.9759805	timed	-0.066016406
-4.115903	1.10.4	-0.066016406
-3.7077355	crowd	-0.108351015
-4.115903	twenty-first	-0.066016406
-3.9759805	K.	-0.066016406
-4.115903	Games	-0.066016406
-4.115903	indoor	-0.066016406
-3.0099092	season	-0.26677206
-4.115903	thrill	-0.066016406
-3.9759805	few	-0.066016406
-3.9759805	slender	-0.066016406
-4.115903	bespectacled	-0.066016406
-3.9759805	woman	-0.066016406
-3.591566	broke	-0.066016436
-4.115903	one-week-old	-0.066016406
-4.115903	half-mile	-0.066016406
-4.115903	Grace	-0.066016406
-4.115903	Butcher	-0.066016406
-4.115903	nearby	-0.066016406
-4.115903	Chardon	-0.066016406
-4.115903	27-year-old	-0.066016406
-4.115903	housewife	-0.066016406
-3.8668022	finished	-0.066016406
-4.115903	2.21.6	-0.066016406
-4.115903	snapped	-0.066016406
-4.115903	tenths	-0.066016406
-3.8668022	Helen	-0.066016406
-4.115903	Shipley	-0.066016406
-4.115903	Wellsley	-0.066016406
-3.2544043	National	-0.1353213
-4.115903	A.A.U.	-0.066016406
-3.9759805	Ohio	-0.066016406
-3.8668022	San	-0.19568422
-4.115903	Francisco	-0.066016406
-3.8668022	Bobby	-0.066016406
-3.9759805	Waters	-0.066016406
-3.9759805	Sylvania	-0.066016406
-4.115903	Ga.	-0.066016406
-4.115903	relief	-0.066016406
-3.7077355	quarterback	-0.066016406
-4.115903	49ers	-0.066016406
-3.8668022	Football	-0.13905577
-4.115903	undergo	-0.066016406
-3.591566	knee	-0.09198818
-3.7077355	operation	-0.066016406
-3.9759805	Franklin	-0.066016406
-3.5000038	Hospital	-0.10100242
-3.8668022	injured	-0.066016406
-4.115903	While	-0.066016406
-4.115903	swelling	-0.066016406
-4.115903	developed	-0.066016406
-4.115903	consult	-0.066016406
-4.115903	physician	-0.066016406
-3.9759805	Two	-0.066016406
-3.9759805	errors	-0.066016406
-4.115903	Tony	-0.066016406
-4.115903	Kubek	-0.066016406
-4.115903	eleventh	-0.066016406
-4.115903	donated	-0.066016406
-3.037474	four	-0.091670804
-4.115903	unearned	-0.066016406
-4.115903	5-to-2	-0.066016406
-3.591566	Chicago	-0.066016406
-3.591566	White	-0.16646838
-3.8668022	Sox	-0.066016406
-3.9759805	Austin	-0.1807664
-3.132533	Texas	-0.07967451
-3.3600693	halfback	-0.09198818
-4.115903	team's	-0.066016406
-3.591566	plays	-0.066016436
-4.115903	Eldon	-0.066016406
-3.591566	Moritz	-0.10882244
-4.115903	ranks	-0.066016406
-3.9759805	Southwest	-0.1807664
-4.115903	Conference	-0.066016406
-3.9759805	Time	-0.066016406
-3.9759805	stands	-0.066016406
-3.591566	still	-0.066016436
-4.115903	26-year-old	-0.066016406
-4.115903	Signal	-0.066016406
-4.115903	Corps	-0.066016406
-4.115903	goes	-0.066016406
-4.115903	Although	-0.066016406
-3.3600693	never	-0.066016436
-4.115903	clock	-0.066016406
-3.591566	running	-0.108351015
-3.8668022	kick	-0.066016406
-3.3040311	several	-0.08474956
-3.8668022	fact	-0.066016406
-4.115903	nose	-0.066016406
-3.9759805	guard	-0.066016406
-4.115903	hip	-0.066016406
-4.115903	pads	-0.066016406
-3.1694827	most	-0.106046304
-3.9759805	valuable	-0.066016406
-4.115903	Longhorn	-0.066016406
-4.115903	heavily	-0.066016406
-4.115903	favored	-0.066016406
-3.9759805	Oklahoma	-0.066016406
-3.9759805	Cotton	-0.066016406
-4.115903	Bowl	-0.066016406
-3.7077355	kicked	-0.066016406
-3.8668022	14	-0.13905577
-3.7077355	extra	-0.19568422
-3.7077355	tries	-0.1807664
-3.7077355	ran	-0.066016406
-4.115903	string	-0.066016406
-3.8668022	successful	-0.13905577
-4.115903	conversions	-0.066016406
-4.115903	astray	-0.066016406
-4.115903	41-8	-0.066016406
-4.115903	slaughter	-0.066016406
-3.8668022	listed	-0.066016406
-4.115903	roster	-0.066016406
-3.8668022	position	-0.066016406
-4.115903	lettered	-0.066016406
-3.9759805	1956	-0.066016406
-4.115903	Darrell	-0.066016406
-3.7077355	Royal	-0.066016406
-3.8668022	quick	-0.066016406
-3.9759805	response	-0.066016406
-4.115903	place-kicker	-0.066016406
-4.115903	208-pound	-0.066016406
-4.115903	1-inch	-0.066016406
-3.8668022	senior	-0.066016406
-3.9759805	Stamford	-0.066016406
-4.115903	practices	-0.066016406
-3.9759805	nothing	-0.066016406
-3.8668022	place-kicking	-0.066016406
-3.9759805	So	-0.066016406
-3.9759805	started	-0.066016406
-3.9759805	bothered	-0.066016406
-3.0099092	during	-0.23564981
-4.115903	pulled	-0.066016406
-4.115903	muscle	-0.066016406
-4.115903	thigh	-0.066016406
-3.9759805	kicking	-0.066016406
-3.7077355	leg	-0.066016406
-3.9759805	barely	-0.066016406
-3.9759805	enough	-0.066016406
-3.9759805	feels	-0.066016406
-3.7077355	fine	-0.066016406
-4.115903	goals	-0.066016406
-3.5000038	playing	-0.12783897
-3.9759805	High	-0.1807664
-4.115903	Anson	-0.066016406
-4.115903	3-0	-0.066016406
-4.115903	1953	-0.066016406
-2.8735096	about	-0.106581174
-4.115903	110	-0.066016406
-4.115903	135	-0.066016406
-3.9759805	26	-0.066016406
-3.9759805	miss	-0.066016406
-3.9759805	playoff	-0.066016406
-3.9759805	20	-0.066016406
-3.9759805	1954	-0.066016406
-3.8668022	efforts	-0.066016406
-4.115903	hampered	-0.066016406
-3.5000038	injury	-0.10100242
-3.9759805	missed	-0.066016406
-4.115903	1955	-0.066016406
-4.115903	ailing	-0.066016406
-3.3040311	played	-0.066016406
-4.115903	77	-0.066016406
-4.115903	statistical	-0.066016406
-4.115903	lost	-0.066016406
-3.591566	nine	-0.066016436
-3.8668022	carried	-0.066016406
-3.3040311	times	-0.08902452
-4.115903	net	-0.066016406
-4.115903	gain	-0.066016406
-4.115903	punted	-0.066016406
-3.9759805	39	-0.066016406
-3.9759805	caught	-0.066016406
-3.591566	pass	-0.066016406
-4.115903	1957	-0.066016406
-3.8668022	returned	-0.066016406
-3.591566	later	-0.12783897
-4.115903	scholastically	-0.066016406
-4.115903	ineligible	-0.066016406
-3.7077355	merely	-0.066016406
-3.591566	present	-0.066016436
-3.8668022	Place	-0.066016406
-3.9759805	largely	-0.066016406
-3.9759805	timing	-0.066016406
-3.9759805	Once	-0.066016406
-3.209871	you	-0.066016406
-3.2544043	much	-0.0818144
-4.115903	teach	-0.066016406
-3.7077355	boys	-0.12783897
-3.9759805	seem	-0.1807664
-4.115903	Practice	-0.066016406
-3.9759805	helps	-0.066016406
-3.8668022	your	-0.11961245
-3.591566	golf	-0.066016436
-4.115903	swing	-0.066016406
-3.8668022	very	-0.066016406
-3.8668022	often	-0.066016406
-4.115903	kicks	-0.066016406
-3.5000038	12	-0.066016406
-3.8668022	practice	-0.108351015
-4.115903	kinda	-0.066016406
-4.115903	Footnotes	-0.066016406
-3.8668022	Longhorns	-0.066016406
-3.8668022	41	-0.066016406
-3.8668022	scored	-0.108351015
-3.8668022	40	-0.066016406
-3.132533	per	-0.7075676
-4.115903	cent	-0.066016406
-3.591566	passing	-0.10100242
-4.115903	yardage	-0.066016406
-3.9759805	447	-0.066016406
-3.5000038	30	-0.10100242
-3.8668022	completions	-0.24922071
-3.9759805	56	-0.066016406
-3.9759805	attempts	-0.066016406
-4.115903	469	-0.066016406
-4.115903	37	-0.066016406
-4.115903	Tailback	-0.066016406
-3.9759805	Saxton	-0.066016406
-4.115903	surpassed	-0.066016406
-3.591566	rushing	-0.066016436
-4.115903	brilliant	-0.066016406
-3.8668022	sophomore	-0.066016406
-4.115903	netted	-0.066016406
-4.115903	271	-0.066016406
-4.115903	55	-0.066016406
-4.115903	carries	-0.066016406
-4.115903	273	-0.066016406
-4.115903	second-half	-0.066016406
-3.9759805	kickoff	-0.066016406
-4.115903	gained	-0.066016406
-3.5000038	line	-0.1353213
-4.115903	uncorked	-0.066016406
-4.115903	56-yard	-0.066016406
-3.8668022	touchdown	-0.066016406
-3.9759805	retiring	-0.066016406
-3.9759805	bench	-0.066016406
-4.115903	Wingback	-0.066016406
-4.115903	Collins	-0.066016406
-3.9759805	insists	-0.066016406
-4.115903	conference's	-0.066016406
-3.8668022	That	-0.066016406
-4.115903	prevailed	-0.066016406
-3.8668022	SMU	-0.066016406
-3.8668022	coaching	-0.066016406
-3.591566	staff	-0.066016406
-4.115903	attention	-0.066016406
-4.115903	quickly	-0.066016406
-3.591566	turned	-0.108351015
-4.115903	Saturday's	-0.066016406
-3.8668022	week's	-0.066016406
-3.4244246	Rice	-0.066016406
-4.115903	Mustangs	-0.066016406
-3.8668022	real	-0.066016406
-3.7077355	happy	-0.066016406
-3.591566	Coach	-0.066016406
-3.8668022	Meek	-0.10100242
-4.115903	9-7	-0.066016406
-3.8668022	Air	-0.13905577
-4.115903	Force	-0.066016406
-4.115903	Academy	-0.066016406
-3.7077355	thing	-0.066016406
-3.591566	kids	-0.108351015
-3.591566	stayed	-0.108351015
-4.115903	pressure	-0.066016406
-3.9759805	ahead	-0.066016406
-4.115903	Richey	-0.066016406
-4.115903	Assistant	-0.066016406
-4.115903	Cudmore	-0.066016406
-4.115903	described	-0.066016406
-4.115903	expressed	-0.066016406
-4.115903	particular	-0.066016406
-4.115903	gratification	-0.066016406
-4.115903	performances	-0.066016406
-3.9759805	Happy	-0.066016406
-3.9759805	Nelson	-0.066016406
-3.9759805	Billy	-0.066016406
-3.7077355	Gannon	-0.066016406
-3.7077355	jobs	-0.11961245
-4.115903	magnificent	-0.066016406
-4.115903	praised	-0.066016406
-3.7077355	knocked	-0.11961245
-4.115903	interference	-0.066016406
-3.7077355	key	-0.066016436
-3.9759805	stops	-0.066016406
-3.9759805	And	-0.066016436
-4.115903	caused	-0.066016406
-4.115903	fumble	-0.066016406
-3.5000038	boy	-0.08902452
-3.9759805	fullback	-0.066016406
-3.9759805	Nick	-0.066016406
-4.115903	Arshinkoff	-0.066016406
-3.8668022	loose	-0.13905577
-4.115903	contributed	-0.066016406
-4.115903	saving	-0.066016406
-4.115903	Falcons'	-0.066016406
-4.115903	aerial	-0.066016406
-4.115903	thrusts	-0.066016406
-4.115903	One	-0.066016406
-4.115903	fourth-down	-0.066016406
-4.115903	screen	-0.066016406
-4.115903	Mustang	-0.066016406
-3.9759805	21	-0.066016406
-4.115903	incomplete	-0.066016406
-4.115903	Gannon's	-0.066016406
-4.115903	territory	-0.066016406
-3.9759805	As	-0.066016406
-3.7077355	soon	-0.11961245
-3.9759805	form	-0.066016406
-3.9759805	spotted	-0.066016406
-4.115903	Isaacson	-0.066016406
-4.115903	crucified	-0.066016406
-4.115903	nailed	-0.066016406
-4.115903	yard	-0.066016406
-4.115903	Force's	-0.066016406
-4.115903	game's	-0.066016406
-4.115903	McNaughton	-0.066016406
-4.115903	intercepted	-0.066016406
-4.115903	44	-0.066016406
-4.115903	lay	-0.066016406
-4.115903	waited	-0.066016406
-3.7077355	almost	-0.066016406
-4.115903	Except	-0.066016406
-3.9759805	Mike	-0.066016406
-3.5000038	Kelsey	-0.13905577
-4.115903	doubtful	-0.066016406
-3.5000038	action	-0.066016406
-4.115903	blind	-0.066016406
-3.5000038	side	-0.1353213
-3.8668022	split	-0.066016406
-3.591566	coming	-0.108351015
-4.115903	There	-0.066016406
-3.8668022	definitely	-0.066016406
-4.115903	ligament	-0.066016406
-4.115903	injuring	-0.066016406
-3.8668022	opener	-0.066016406
-3.7077355	Maryland	-0.066016406
-4.115903	looking	-0.066016406
-4.115903	lot	-0.066016406
-3.9759805	let	-0.066016406
-3.8668022	saw	-0.066016406
-3.9759805	film	-0.066016406
-4.115903	reserves	-0.066016406
-4.115903	scrimmaged	-0.066016406
-3.9759805	45	-0.066016406
-3.5000038	probably	-0.10100242
-4.115903	scrimmage	-0.066016406
-4.115903	taper	-0.066016406
-4.115903	Owls	-0.066016406
-3.7077355	Houston	-0.066016406
-3.9759805	Oct.	-0.066016406
-4.115903	Huddle	-0.066016406
-4.115903	hearsay	-0.066016406
-4.115903	Held	-0.066016406
-4.115903	Tech's	-0.066016406
-4.115903	sweat-suits	-0.066016406
-4.115903	drill	-0.066016406
-4.115903	Lubbock	-0.066016406
-4.115903	tackle	-0.066016406
-4.115903	Stafford	-0.066016406
-4.115903	undergoing	-0.066016406
-3.9759805	treatment	-0.066016406
-3.9759805	suffered	-0.1807664
-4.115903	Raiders'	-0.066016406
-4.115903	38-7	-0.066016406
-3.9759805	&	-0.066016406
-4.115903	M	-0.066016406
-3.9759805	Because	-0.1807664
-3.8668022	Arkansas	-0.066016406
-3.9759805	Baylor	-0.066016406
-4.115903	rain	-0.066016406
-3.9759805	mud	-0.066016406
-4.115903	End	-0.066016406
-3.8668022	Gene	-0.066016406
-4.115903	Raesz	-0.066016406
-4.115903	Owl's	-0.066016406
-4.115903	LSU	-0.066016406
-4.115903	Nichols	-0.066016406
-4.115903	idleness	-0.066016406
-3.9759805	ankle	-0.066016406
-3.9759805	Aggies	-0.066016406
-3.209871	day	-0.10195597
-4.115903	gift	-0.066016406
-3.9759805	Myers	-0.066016406
-4.115903	Hargett	-0.066016406
-4.115903	shaken	-0.066016406
-3.8668022	Tech	-0.066016406
-4.115903	Trinity	-0.066016406
-4.115903	Halfback	-0.066016406
-3.8668022	Bud	-0.066016406
-4.115903	Priddy	-0.066016406
-4.115903	slowed	-0.066016406
-4.115903	slowly-mending	-0.066016406
-4.115903	sprained	-0.066016406
-4.115903	TCU's	-0.066016406
-3.591566	Dallas	-0.066016436
-3.8668022	Texans	-0.10100242
-4.115903	19-12	-0.066016406
-3.7077355	Denver	-0.066016406
-4.115903	Broncos	-0.066016406
-3.9759805	visit	-0.066016406
-3.8668022	road	-0.066016406
-3.8668022	Buffalo	-0.066016406
-4.115903	folks	-0.066016406
-3.9759805	looks	-0.066016406
-4.115903	Hank	-0.066016406
-4.115903	Stram's	-0.066016406
-4.115903	Bills	-0.066016406
-4.115903	pre-season	-0.066016406
-4.115903	reckonings	-0.066016406
-3.9759805	Buster	-0.066016406
-3.9759805	Ramsey	-0.066016406
-3.9759805	greatest	-0.066016406
-4.115903	collectors	-0.066016406
-4.115903	quarterbacks	-0.066016406
-4.115903	apparently	-0.066016406
-4.115903	productive	-0.066016406
-4.115903	ex-National	-0.066016406
-3.9759805	Leaguers	-0.066016406
-3.9759805	Reynolds	-0.066016406
-3.7077355	Warren	-0.108351015
-3.9759805	Rabb	-0.066016406
-3.7077355	former	-0.066016406
-3.9759805	Louisiana	-0.066016406
-3.8668022	debut	-0.066016406
-4.115903	22-12	-0.066016406
-4.115903	upset	-0.066016406
-4.115903	Oilers	-0.066016406
-4.115903	defending	-0.066016406
-3.9759805	luck	-0.066016406
-3.591566	!	-0.29259422
-4.115903	Exclaimed	-0.066016406
-3.8668022	Stram	-0.11961245
-4.115903	solve	-0.066016406
-4.115903	mutter	-0.066016406
-3.7077355	himself	-0.11961245
-3.4244246	another	-0.066016436
-4.115903	splendid	-0.066016406
-4.115903	whip	-0.066016406
-4.115903	dangerous	-0.066016406
-3.9759805	Broncs	-0.066016406
-4.115903	fullbacking	-0.066016406
-4.115903	star	-0.066016406
-4.115903	Spikes	-0.066016406
-3.9759805	though	-0.066016406
-4.115903	nursing	-0.066016406
-3.9759805	Our	-0.066016406
-4.115903	interior	-0.066016406
-4.115903	linebackers	-0.066016406
-4.115903	exceptionally	-0.066016406
-4.115903	reviewed	-0.066016406
-3.9759805	movies	-0.066016406
-4.115903	whole	-0.066016406
-4.115903	control	-0.066016406
-4.115903	Quarterback	-0.066016406
-4.115903	Davidson	-0.066016406
-4.115903	throwing	-0.066016406
-3.7077355	passes	-0.066016406
-3.9759805	always	-0.066016406
-4.115903	explosive	-0.066016406
-3.9759805	They	-0.066016406
-3.9759805	doing	-0.066016406
-3.9759805	bang	-0.066016406
-3.591566	couple	-0.14802893
-4.115903	touchdowns	-0.066016406
-3.5000038	put	-0.09582854
-4.115903	strikes	-0.066016406
-3.591566	period	-0.108351015
-4.115903	principal	-0.066016406
-4.115903	tactic	-0.066016406
-3.9759805	controlling	-0.1807664
-3.9759805	giving	-0.066016406
-4.115903	Abner	-0.066016406
-4.115903	Haynes	-0.066016406
-4.115903	flashy	-0.066016406
-3.9759805	upon	-0.066016406
-4.115903	ball-carriers	-0.066016406
-3.8668022	combined	-0.066016406
-4.115903	delivered	-0.066016406
-4.115903	145	-0.066016406
-4.115903	comforting	-0.066016406
-4.115903	Denver's	-0.066016406
-4.115903	Carmichael	-0.066016406
-4.115903	jarred	-0.066016406
-4.115903	Grayson	-0.066016406
-4.115903	speedy	-0.066016406
-4.115903	Guard	-0.066016406
-4.115903	claimed	-0.066016406
-4.115903	resulted	-0.066016406
-3.9759805	permitted	-0.066016406
-4.115903	quipping	-0.066016406
-4.115903	book	-0.066016406
-4.115903	leaders	-0.066016406
-4.115903	dent	-0.066016406
-3.9759805	statistics	-0.066016406
-3.9759805	Texas'	-0.066016406
-4.115903	545-yard	-0.066016406
-3.9759805	spree	-0.066016406
-4.115903	3-game	-0.066016406
-4.115903	offense	-0.066016406
-4.115903	1,512	-0.066016406
-4.115903	1,065	-0.066016406
-4.115903	SWC	-0.066016406
-4.115903	280	-0.066016406
-4.115903	64	-0.066016406
-4.115903	tosses	-0.066016406
-4.115903	tough	-0.066016406
-4.115903	TCU	-0.066016406
-4.115903	38-point	-0.066016406
-4.115903	bulge	-0.066016406
-4.115903	loop	-0.066016406
-4.115903	Completing	-0.066016406
-4.115903	174	-0.066016406
-4.115903	361	-0.066016406
-4.115903	leads	-0.066016406
-4.115903	per-game	-0.066016406
-3.9759805	averages	-0.066016406
-4.115903	355	-0.066016406
-4.115903	149	-0.066016406
-4.115903	Baylor's	-0.066016406
-4.115903	126	-0.066016406
-4.115903	idle	-0.066016406
-4.115903	187.5	-0.066016406
-4.115903	189	-0.066016406
-4.115903	34.7	-0.066016406
-4.115903	Not	-0.066016406
-4.115903	satisfied	-0.066016406
-3.9759805	various	-0.066016406
-4.115903	unofficial	-0.066016406
-4.115903	checks	-0.066016406
-4.115903	liveliness	-0.066016406
-4.115903	baseballs	-0.066016406
-4.115903	currently	-0.066016406
-3.7077355	major	-0.11961245
-3.9759805	leagues	-0.066016406
-4.115903	ordered	-0.066016406
-4.115903	tests	-0.066016406
-4.115903	progress	-0.066016406
-4.115903	Massachusetts	-0.066016406
-3.9759805	Institute	-0.066016406
-4.115903	Technology	-0.066016406
-3.9759805	Nischwitz	-0.066016406
-3.7077355	continued	-0.066016406
-4.115903	pinpoint	-0.066016406
-3.591566	Bears	-0.11961245
-3.9759805	Indianapolis	-0.066016406
-4.115903	5-3	-0.066016406
-4.115903	husky	-0.066016406
-3.9759805	6-3	-0.1807664
-4.115903	205-pound	-0.066016406
-3.9759805	lefthander	-0.066016406
-4.115903	command	-0.066016406
-4.115903	on-the-scene	-0.066016406
-3.8668022	audience	-0.066016406
-4.115903	949	-0.066016406
-3.9759805	countless	-0.066016406
-3.8668022	television	-0.066016406
-4.115903	viewers	-0.066016406
-4.115903	Nischwitz'	-0.066016406
-4.115903	Grizzlies'	-0.066016406
-4.115903	Louisville	-0.066016406
-3.9759805	full	-0.066016406
-3.591566	Association	-0.108351015
-4.115903	pack	-0.066016406
-3.8668022	walked	-0.066016406
-3.8668022	Charley	-0.066016406
-3.9759805	Hinton	-0.066016406
-3.8668022	given	-0.066016436
-4.115903	27	-0.066016406
-3.9759805	innings	-0.066016406
-4.115903	unusual	-0.066016406
-3.9759805	characteristic	-0.066016406
-4.115903	lagged	-0.066016406
-3.7077355	McAuliffe	-0.066016406
-4.115903	cracked	-0.066016406
-3.9759805	Lefty	-0.066016406
-3.591566	Don	-0.108351015
-3.9759805	Rudolph	-0.066016406
-4.115903	Bear's	-0.066016406
-4.115903	After	-0.066016436
-3.9759805	Paschal	-0.066016406
-4.115903	gruonded	-0.066016406
-3.8668022	Jay	-0.066016406
-3.8668022	Cooke	-0.066016406
-3.9759805	McDaniel	-0.066016406
-4.115903	Alusik	-0.066016406
-3.9759805	Porter	-0.066016406
-3.7077355	bases	-0.11961245
-4.115903	Wert's	-0.066016406
-4.115903	smash	-0.066016406
-4.115903	putout	-0.066016406
-4.115903	leftfield	-0.066016406
-3.8668022	corner	-0.13905577
-3.9759805	rightfield	-0.066016406
-4.115903	Phil	-0.066016406
-4.115903	Shartzer's	-0.066016406
-4.115903	3-hitter	-0.066016406
-3.9759805	Indians	-0.066016406
-4.115903	bunched	-0.066016406
-3.9759805	Chuck	-0.066016406
-3.9759805	tripled	-0.066016406
-3.9759805	Cliff	-0.1807664
-4.115903	Cook	-0.066016406
-3.9759805	Dan	-0.066016406
-4.115903	Pavletich	-0.066016406
-4.115903	Gaines'	-0.066016406
-3.7077355	infield	-0.066016406
-4.115903	roller	-0.066016406
-3.9759805	accounted	-0.1807664
-4.115903	Alusik's	-0.066016406
-3.9759805	outfield	-0.066016406
-4.115903	flies	-0.066016406
-4.115903	Wert	-0.066016406
-4.115903	Gaines	-0.066016406
-3.9759805	hammered	-0.066016406
-4.115903	Despite	-0.066016406
-4.115903	45-degree	-0.066016406
-3.8668022	weather	-0.066016406
-4.115903	clicked	-0.066016406
-4.115903	1:48	-0.066016406
-4.115903	thanks	-0.066016406
-4.115903	Chico	-0.066016406
-4.115903	Ruiz	-0.066016406
-3.9759805	spectacular	-0.066016406
-4.115903	grounder	-0.066016406
-3.7077355	showed	-0.066016406
-4.115903	strong	-0.066016406
-4.115903	arm	-0.066016406
-4.115903	Bingles	-0.066016406
-4.115903	bobbles	-0.066016406
-4.115903	Tribe's	-0.066016406
-4.115903	season's	-0.066016406
-4.115903	obvious	-0.066016406
-4.115903	refocusing	-0.066016406
-4.115903	lights	-0.066016406
-3.9759805	order	-0.066016406
-4.115903	flooded	-0.066016406
-4.115903	expanded	-0.066016406
-4.115903	dark	-0.066016406
-3.9759805	Mary	-0.066016406
-4.115903	Dobbs	-0.066016406
-4.115903	organ	-0.066016406
-4.115903	Among	-0.066016406
-4.115903	spectators	-0.066016406
-4.115903	noted	-0.066016406
-4.115903	exotic	-0.066016406
-4.115903	dancer	-0.066016406
-4.115903	Patti	-0.066016406
-4.115903	Waggin	-0.066016406
-3.8668022	stage	-0.066016406
-4.115903	Wyman	-0.066016406
-4.115903	Tsitouris	-0.066016406
-3.9759805	o'clock	-0.066016406
-4.115903	Donnelly	-0.066016406
-3.9759805	starting	-0.066016406
-4.115903	Tex.	-0.066016406
-3.3600693	May	-0.1513289
-3.5000038	1	-0.119144246
-3.9759805	Kenny	-0.066016406
-3.9759805	Lane	-0.066016406
-4.115903	Muskegon	-0.066016406
-4.115903	Mich.	-0.066016406
-3.9759805	world's	-0.066016406
-4.115903	ranked	-0.066016406
-4.115903	lightweight	-0.066016406
-4.115903	unanimous	-0.066016406
-4.115903	Rip	-0.066016406
-4.115903	Randall	-0.066016406
-4.115903	Tyler	-0.066016406
-4.115903	Paul-Minneapolis	-0.066016406
-3.7077355	Gardner's	-0.066016406
-4.115903	eluded	-0.066016406
-4.115903	diving	-0.066016406
-4.115903	Minnie	-0.066016406
-4.115903	Minoso	-0.066016406
-3.8668022	Lemon	-0.066016406
-4.115903	Minnesota	-0.066016406
-3.8668022	Twins	-0.066016406
-4.115903	6-5	-0.066016406
-4.115903	liner	-0.066016406
-4.115903	5777	-0.066016406
-3.9759805	fans	-0.066016406
-3.9759805	batted	-0.066016406
-4.115903	ones	-0.066016406
-4.115903	Turk	-0.066016406
-4.115903	Lown	-0.066016406
-4.115903	tagged	-0.066016406
-3.8668022	victories	-0.13905577
-3.591566	Ray	-0.066016436
-3.8668022	Moore	-0.13905577
-3.9759805	Reno	-0.066016406
-4.115903	Bertoia	-0.066016406
-4.115903	chopper	-0.066016406
-4.115903	Lenny	-0.066016406
-4.115903	Green's	-0.066016406
-4.115903	5-4	-0.066016406
-3.8668022	pop	-0.066016406
-3.8668022	fly	-0.066016406
-3.9759805	Roy	-0.066016406
-4.115903	Sievers	-0.066016406
-4.115903	Camilo	-0.066016406
-4.115903	Carreon	-0.066016406
-4.115903	sacrifice	-0.066016406
-4.115903	Landis'	-0.066016406
-4.115903	380-foot	-0.066016406
-4.115903	1-0	-0.066016406
-4.115903	Harmon	-0.066016406
-4.115903	Killebrew	-0.066016406
-4.115903	bottom	-0.066016406
-3.9759805	walking	-0.066016406
-4.115903	Allison	-0.066016406
-4.115903	aboard	-0.066016406
-4.115903	Smith's	-0.066016406
-4.115903	340-blast	-0.066016406
-3.9759805	campaign	-0.066016406
-4.115903	Carreon's	-0.066016406
-4.115903	Allison's	-0.066016406
-4.115903	run-scoring	-0.066016406
-4.115903	2-baser	-0.066016406
-4.115903	solid	-0.066016406
-3.8668022	Ogden	-0.13905577
-4.115903	Utah	-0.066016406
-3.591566	Boston	-0.066016436
-4.115903	Red	-0.066016406
-4.115903	Outfielder	-0.066016406
-3.7077355	Jensen	-0.066016406
-3.132533	baseball	-0.066016406
-4.115903	newsman	-0.066016406
-4.115903	reflexes	-0.066016406
-3.4244246	any	-0.066016406
-4.115903	25th	-0.066016406
-3.9759805	word	-0.066016406
-4.115903	sudden	-0.066016406
-4.115903	walkout	-0.066016406
-3.9759805	46	-0.066016406
-4.115903	at-bats	-0.066016406
-3.9759805	midnight	-0.066016406
-3.9759805	train	-0.066016406
-3.8668022	official	-0.108351015
-3.9759805	anybody	-0.066016406
-4.115903	newsmen	-0.066016406
-3.7077355	trip	-0.066016406
-3.9759805	nation	-0.066016406
-4.115903	Nev.	-0.066016406
-4.115903	Olympic	-0.066016406
-4.115903	Diving	-0.066016406
-4.115903	Champion	-0.066016406
-4.115903	Zoe	-0.066016406
-3.591566	Ann	-0.066016436
-4.115903	Olsen	-0.066016406
-4.115903	awaited	-0.066016406
-3.3040311	she	-0.08666809
-4.115903	learned	-0.066016406
-4.115903	heading	-0.066016406
-4.115903	speculating	-0.066016406
-4.115903	hurting	-0.066016406
-4.115903	Boston's	-0.066016406
-3.9759805	chances	-0.066016406
-4.115903	Pacific	-0.066016406
-3.9759805	Railroad	-0.066016406
-4.115903	streamliner	-0.066016406
-4.115903	stopped	-0.066016406
-3.9759805	Sports	-0.066016406
-4.115903	Writer	-0.066016406
-4.115903	Ensign	-0.066016406
-3.7077355	Ritchie	-0.066016406
-4.115903	Standard	-0.066016406
-4.115903	Examiner	-0.066016406
-4.115903	compartment	-0.066016406
-3.7077355	talk	-0.108351015
-4.115903	conductor	-0.066016406
-3.9759805	mad	-0.066016406
-3.9759805	station	-0.066016406
-4.115903	magazine	-0.066016406
-3.7077355	quite	-0.066016406
-4.115903	cold	-0.066016406
-4.115903	warmed	-0.066016406
-3.5000038	Liston	-0.066016406
-4.115903	double-crosser	-0.066016406
-3.9759805	anything	-0.066016406
-4.115903	keyhole	-0.066016406
-4.115903	talked	-0.066016406
-3.9759805	writer	-0.066016406
-4.115903	Traveler	-0.066016406
-4.115903	quoted	-0.066016406
-4.115903	saying	-0.066016406
-4.115903	anymore	-0.066016406
-4.115903	Suddenly	-0.066016406
-4.115903	grip	-0.066016406
-3.8668022	masses	-0.13905577
-4.115903	pops	-0.066016406
-4.115903	heroics	-0.066016406
-3.9759805	millions	-0.1807664
-4.115903	tongues	-0.066016406
-4.115903	wagging	-0.066016406
-4.115903	40-year-old	-0.066016406
-3.7077355	Spahn	-0.066016436
-3.9759805	no-hit	-0.066016406
-4.115903	masterpiece	-0.066016406
-3.7077355	Giants	-0.1353213
-4.115903	Giants'	-0.066016406
-3.4244246	Willie	-0.09582854
-3.4244246	Mays	-0.17921118
-4.115903	retaliating	-0.066016406
-4.115903	record-tying	-0.066016406
-4.115903	4-homer	-0.066016406
-4.115903	remarkable	-0.066016406
-4.115903	feats	-0.066016406
-3.9759805	further	-0.066016406
-4.115903	embossed	-0.066016406
-4.115903	rightfully	-0.066016406
-4.115903	pastime	-0.066016406
-4.115903	Of	-0.066016406
-4.115903	cherished	-0.066016406
-4.115903	achievements	-0.066016406
-4.115903	elderly	-0.066016406
-4.115903	Spahn's	-0.066016406
-4.115903	hitless	-0.066016406
-3.7077355	reached	-0.11961245
-4.115903	hearts	-0.066016406
-4.115903	stimulant	-0.066016406
-4.115903	guys	-0.066016406
-4.115903	2-score-year	-0.066016406
-3.9759805	milestone	-0.1807664
-4.115903	rookies	-0.066016406
-4.115903	sighed	-0.066016406
-3.9759805	remarked	-0.066016406
-4.115903	Wish	-0.066016406
-4.115903	top-grade	-0.066016406
-4.115903	leaguer	-0.066016406
-4.115903	modest	-0.066016406
-4.115903	waved	-0.066016406
-4.115903	laurels	-0.066016406
-3.4244246	those	-0.066016406
-4.115903	surely	-0.066016406
-4.115903	doubt	-0.066016406
-3.9759805	belonging	-0.066016406
-4.115903	all-time	-0.066016406
-4.115903	lefthanders	-0.066016406
-3.8668022	history	-0.066016406
-4.115903	Yes	-0.066016406
-3.9759805	Carl	-0.066016406
-4.115903	Hubbell	-0.066016406
-4.115903	Herb	-0.066016406
-4.115903	Pennock	-0.066016406
-4.115903	Nehf	-0.066016406
-3.8668022	Vernon	-0.066016406
-4.115903	Gomez	-0.066016406
-4.115903	et	-0.066016406
-4.115903	al	-0.066016406
-4.115903	superior	-0.066016406
-3.9759805	pitcher	-0.066016406
-4.115903	gentlemanly	-0.066016406
-3.9759805	fellow	-0.066016406
-4.115903	player's	-0.066016406
-3.591566	player	-0.066016406
-3.591566	say	-0.16646838
-4.115903	trade	-0.066016406
-3.9759805	remember	-0.066016406
-4.115903	beardown	-0.066016406
-3.7077355	performance	-0.066016406
-4.115903	meaningless	-0.066016406
-3.9759805	1951	-0.066016406
-4.115903	18,792	-0.066016406
-4.115903	Spahnie	-0.066016406
-4.115903	Enos	-0.066016406
-3.9759805	Slaughter	-0.066016406
-4.115903	all-out	-0.066016406
-3.9759805	guy	-0.1807664
-4.115903	clubhouse	-0.066016406
-4.115903	reaches	-0.066016406
-3.5000038	25	-0.12783897
-4.115903	sluggers	-0.066016406
-4.115903	walloped	-0.066016406
-3.9759805	span	-0.1807664
-4.115903	Incidentally	-0.066016406
-4.115903	Lowe	-0.066016406
-4.115903	Gil	-0.066016406
-4.115903	Hodges	-0.066016406
-4.115903	trick	-0.066016406
-4.115903	Brooklyn's	-0.066016406
-4.115903	Ebbetts	-0.066016406
-3.8668022	Field	-0.13905577
-4.115903	Delahanty	-0.066016406
-4.115903	Klein	-0.066016406
-4.115903	Phillies	-0.066016406
-4.115903	Braves'	-0.066016406
-4.115903	Adcock	-0.066016406
-4.115903	Lou	-0.066016406
-4.115903	Gehrig	-0.066016406
-3.9759805	Pat	-0.066016406
-4.115903	Seerey	-0.066016406
-4.115903	Rocky	-0.066016406
-4.115903	Colavito	-0.066016406
-4.115903	Willie's	-0.066016406
-4.115903	revived	-0.066016406
-3.9759805	argument	-0.1807664
-4.115903	relative	-0.066016406
-4.115903	merits	-0.066016406
-3.7077355	Mickey	-0.19568422
-3.4244246	Mantle	-0.12602879
-4.115903	boils	-0.066016406
-3.9759805	depending	-0.1807664
-4.115903	fan	-0.066016406
-4.115903	anti	-0.066016406
-4.115903	pro-Yankee	-0.066016406
-3.7077355	books	-0.11961245
-3.9759805	favor	-0.066016406
-3.9759805	ace	-0.066016406
-3.8668022	previous	-0.066016406
-3.9759805	seasons	-0.066016406
-3.5000038	many	-0.066016436
-3.591566	figure	-0.066016436
-4.115903	30-30	-0.066016406
-4.115903	lifetime	-0.066016406
-4.115903	beyond	-0.066016406
-4.115903	Mickey's	-0.066016406
-4.115903	anemic	-0.066016406
-4.115903	windy	-0.066016406
-4.115903	Candlestick	-0.066016406
-3.4244246	Park	-0.1353213
-3.8668022	suddenly	-0.066016406
-3.9759805	formula	-0.066016406
-4.115903	Milwaukee's	-0.066016406
-4.115903	park	-0.066016406
-4.115903	forever	-0.066016406
-4.115903	mystery	-0.066016406
-3.8668022	hitting	-0.066016406
-4.115903	distressing	-0.066016406
-3.8668022	slump	-0.066016406
-4.115903	Denver-area	-0.066016406
-3.8668022	TV	-0.066016406
-4.115903	privileged	-0.066016406
-3.9759805	Mays'	-0.066016406
-4.115903	arrangement	-0.066016406
-4.115903	Howsam	-0.066016406
-4.115903	blacked	-0.066016406
-4.115903	providing	-0.066016406
-4.115903	blackout	-0.066016406
-3.9759805	televised	-0.066016406
-3.9759805	comes	-0.066016406
-4.115903	rulers	-0.066016406
-4.115903	management	-0.066016406
-3.8668022	Living	-0.24922071
-4.115903	Room	-0.066016406
-4.115903	Athletic	-0.066016406
-4.115903	Actually	-0.066016406
-4.115903	helpless	-0.066016406
-4.115903	nationwide	-0.066016406
-3.9759805	policy	-0.1807664
-4.115903	am	-0.066016406
-4.115903	CBS	-0.066016406
-3.9759805	network	-0.066016406
-3.9759805	continue	-0.066016406
-4.115903	abide	-0.066016406
-4.115903	NBC	-0.066016406
-4.115903	conclusion	-0.066016406
-4.115903	afternoons	-0.066016406
-4.115903	situation	-0.066016406
-4.115903	arise	-0.066016406
-4.115903	irritable	-0.066016406
-3.9759805	does	-0.066016406
-4.115903	harm	-0.066016406
-4.115903	especially	-0.066016406
-3.9759805	You	-0.066016406
-4.115903	surprised	-0.066016406
-4.115903	purposely	-0.066016406
-4.115903	dissatisfaction	-0.066016406
-4.115903	Howsam's	-0.066016406
-4.115903	video	-0.066016406
-4.115903	terminated	-0.066016406
-3.5000038	Cincinnati	-0.10100242
-4.115903	powerful	-0.066016406
-4.115903	19th	-0.066016406
-4.115903	5-game	-0.066016406
-4.115903	romp	-0.066016406
-4.115903	outclassed	-0.066016406
-4.115903	crushing	-0.066016406
-4.115903	Reds	-0.066016406
-4.115903	humiliating	-0.066016406
-4.115903	13-5	-0.066016406
-4.115903	barrage	-0.066016406
-4.115903	loosely	-0.066016406
-4.115903	finale	-0.066016406
-4.115903	Yogi	-0.066016406
-3.9759805	Berra	-0.066016406
-3.9759805	due	-0.066016406
-3.9759805	injuries	-0.066016406
-4.115903	champs	-0.066016406
-4.115903	mounted	-0.066016406
-4.115903	15-hit	-0.066016406
-3.9759805	parade	-0.066016406
-3.591566	ever	-0.066016436
-3.7077355	Johnny	-0.066016436
-4.115903	Blanchard	-0.066016406
-4.115903	Mantle's	-0.066016406
-4.115903	replacement	-0.066016406
-4.115903	2-run	-0.066016406
-4.115903	routed	-0.066016406
-4.115903	loser	-0.066016406
-4.115903	Joey	-0.066016406
-3.9759805	5-run	-0.066016406
-4.115903	Hector	-0.066016406
-4.115903	Lopez	-0.066016406
-4.115903	subbing	-0.066016406
-4.115903	smashed	-0.066016406
-4.115903	3-run	-0.066016406
-3.8668022	Henry	-0.066016406
-4.115903	explosion	-0.066016406
-4.115903	Yanks	-0.066016406
-4.115903	32,589	-0.066016406
-4.115903	applaud	-0.066016406
-4.115903	bleachers	-0.066016406
-4.115903	400	-0.066016406
-4.115903	Momentarily	-0.066016406
-4.115903	trailing	-0.066016406
-4.115903	fizzled	-0.066016406
-4.115903	Edwards	-0.066016406
-4.115903	fouled	-0.066016406
-4.115903	Wally	-0.066016406
-3.9759805	Post	-0.066016406
-4.115903	slashed	-0.066016406
-4.115903	Daley	-0.066016406
-4.115903	11-5	-0.066016406
-4.115903	Series	-0.066016406
-3.591566	manager	-0.15526253
-4.115903	Only	-0.066016406
-4.115903	Bucky	-0.066016406
-3.8668022	Harris	-0.13905577
-4.115903	boy-manager	-0.066016406
-4.115903	1924	-0.066016406
-4.115903	Eddie	-0.066016406
-4.115903	Dyer	-0.066016406
-3.9759805	Louis	-0.066016406
-3.9759805	Cardinals	-0.066016406
-4.115903	1946	-0.066016406
-3.9759805	accomplished	-0.066016406
-4.115903	feat	-0.066016406
-3.8668022	Philadelphia	-0.066016406
-3.9759805	Jan.	-0.066016406
-3.9759805	23	-0.066016406
-3.5000038	Skorich	-0.08902452
-3.8668022	Eagles	-0.066016436
-3.9759805	elevated	-0.066016406
-3.8668022	received	-0.066016406
-4.115903	three-year	-0.066016406
-3.8668022	salary	-0.066016406
-4.115903	believed	-0.066016406
-3.3600693	between	-0.066016406
-4.115903	$20,000	-0.066016406
-4.115903	$25,000	-0.066016406
-4.115903	succeeds	-0.066016406
-4.115903	Buck	-0.066016406
-3.9759805	Shaw	-0.066016406
-4.115903	appointment	-0.066016406
-4.115903	retain	-0.066016406
-3.9759805	Shaw's	-0.1807664
-3.591566	Williams	-0.066016436
-4.115903	Charlie	-0.066016406
-3.9759805	Gauer	-0.066016406
-3.7077355	works	-0.066016406
-3.9759805	ends	-0.066016406
-4.115903	Choice	-0.066016406
-4.115903	selection	-0.066016406
-3.9759805	considered	-0.1807664
-4.115903	logical	-0.066016406
-3.591566	Van	-0.108351015
-4.115903	Brocklin	-0.066016406
-3.9759805	permission	-0.1807664
-3.8668022	Vikings	-0.066016406
-4.115903	newest	-0.066016406
-4.115903	entry	-0.066016406
-4.115903	title	-0.066016406
-4.115903	connection	-0.066016406
-4.115903	refused	-0.066016406
-4.115903	reconsider	-0.066016406
-3.591566	career	-0.108351015
-4.115903	emphasis	-0.066016406
-4.115903	rather	-0.066016406
-4.115903	depended	-0.066016406
-4.115903	Brocklin's	-0.066016406
-4.115903	aerials	-0.066016406
-4.115903	advocate	-0.066016406
-4.115903	balanced	-0.066016406
-3.5000038	old	-0.066016406
-3.7077355	professional	-0.066016406
-4.115903	lineman	-0.066016406
-4.115903	Jock	-0.066016406
-4.115903	Sutherland	-0.066016406
-3.5000038	Pittsburgh	-0.066016406
-3.9759805	Steelers	-0.066016406
-4.115903	An	-0.066016406
-3.8668022	forced	-0.066016406
-4.115903	quit	-0.066016406
-4.115903	1948	-0.066016406
-4.115903	Catholic	-0.066016406
-3.8668022	1949	-0.13905577
-4.115903	remained	-0.066016406
-4.115903	Rensselaer	-0.066016406
-4.115903	Polytechnic	-0.066016406
-4.115903	Troy	-0.066016406
-3.7077355	N.	-0.108351015
-4.115903	Y.	-0.066016406
-4.115903	rejoining	-0.066016406
-4.115903	Four	-0.066016406
-4.115903	resigned	-0.066016406
-4.115903	similar	-0.066016406
-4.115903	Bay	-0.066016406
-3.9759805	Packers	-0.066016406
-4.115903	auspiciously	-0.066016406
-3.8668022	ceremony	-0.13905577
-3.7077355	room	-0.066016406
-4.115903	Richardson	-0.066016406
-4.115903	Dilworth	-0.066016406
-3.8668022	honored	-0.066016406
-4.115903	championship	-0.066016406
-3.5000038	group	-0.14802893
-3.9759805	officials	-0.066016406
-4.115903	engrossed	-0.066016406
-3.9759805	copy	-0.066016406
-3.7077355	city	-0.066016406
-4.115903	citation	-0.066016406
-3.9759805	silver	-0.066016406
-4.115903	cufflinks	-0.066016406
-4.115903	shaped	-0.066016406
-4.115903	announcement	-0.066016406
-4.115903	achievement	-0.066016406
-3.591566	award	-0.108351015
-3.591566	Shea	-0.11893631
-3.8668022	awards	-0.066016406
-4.115903	completed	-0.066016406
-3.3040311	yesterday	-0.11332009
-4.115903	night's	-0.066016406
-4.115903	thirty-eighth	-0.066016406
-4.115903	Chapter	-0.066016406
-3.9759805	Baseball	-0.066016406
-4.115903	Writers'	-0.066016406
-4.115903	America	-0.066016406
-4.115903	Waldorf-Astoria	-0.066016406
-4.115903	Wagner's	-0.066016406
-4.115903	dais	-0.066016406
-3.9759805	Graham	-0.066016406
-4.115903	Journal-American	-0.066016406
-3.8668022	sports	-0.066016406
-4.115903	columnist	-0.066016406
-3.9759805	Mazeroski	-0.13905577
-3.8668022	hero	-0.066016406
-3.7077355	Pirates	-0.066016406
-4.115903	receive	-0.066016406
-3.8668022	Ben	-0.11961245
-4.115903	Epstein	-0.066016406
-4.115903	Good	-0.066016406
-3.9759805	Guy	-0.066016406
-3.7077355	Award	-0.15526253
-3.9759805	Babe	-0.066016406
-4.115903	Ruth	-0.066016406
-4.115903	outstanding	-0.066016406
-3.8668022	recognized	-0.066016406
-4.115903	meritorious	-0.066016406
-4.115903	Slocum	-0.066016406
-4.115903	Sid	-0.066016406
-4.115903	Mercer	-0.066016406
-4.115903	chapter's	-0.066016406
-4.115903	Show	-0.066016406
-4.115903	follows	-0.066016406
-3.9759805	ceremonies	-0.066016406
-4.115903	1,400	-0.066016406
-3.9759805	followed	-0.066016406
-4.115903	writers	-0.066016406
-4.115903	lampoon	-0.066016406
-4.115903	personalities	-0.066016406
-4.115903	skit	-0.066016406
-3.8668022	dance	-0.066016406
-3.9759805	song	-0.066016406
-4.115903	53-year-old	-0.066016406
-4.115903	prominent	-0.066016406
-4.115903	corporation	-0.066016406
-3.9759805	lawyer	-0.066016406
-4.115903	background	-0.066016406
-4.115903	responsible	-0.066016406
-4.115903	imminent	-0.066016406
-3.5000038	return	-0.10100242
-4.115903	Named	-0.066016406
-4.115903	Wagner	-0.066016406
-3.5000038	committee	-0.11961245
-3.9759805	included	-0.066016406
-4.115903	Farley	-0.066016406
-3.9759805	Bernard	-0.066016406
-3.9759805	Gimbel	-0.066016406
-4.115903	Blume	-0.066016406
-4.115903	relentlessly	-0.066016406
-4.115903	obtain	-0.066016406
-4.115903	departure	-0.066016406
-3.8668022	Dodgers	-0.066016406
-3.9759805	California	-0.066016406
-4.115903	barriers	-0.066016406
-4.115903	disappointments	-0.066016406
-4.115903	forward	-0.066016406
-4.115903	unable	-0.066016406
-4.115903	immediate	-0.066016406
-4.115903	sought	-0.066016406
-4.115903	convince	-0.066016406
-4.115903	Branch	-0.066016406
-4.115903	Rickey's	-0.066016406
-4.115903	formation	-0.066016406
-3.9759805	Continental	-0.066016406
-3.9759805	franchise	-0.066016406
-4.115903	ground	-0.066016406
-3.9759805	majors	-0.066016406
-4.115903	expand	-0.066016406
-3.9759805	Flushing	-0.066016406
-3.8668022	stadium	-0.066016406
-4.115903	Shipman	-0.066016406
-4.115903	Payson	-0.066016406
-4.115903	big-league	-0.066016406
-3.8668022	municipal	-0.066016406
-4.115903	Meadow	-0.066016406
-4.115903	lease	-0.066016406
-4.115903	formally	-0.066016406
-4.115903	Ford	-0.066016406
-4.115903	Frick	-0.066016406
-4.115903	Shea's	-0.066016406
-4.115903	prominently	-0.066016406
-4.115903	Nori	-0.066016406
-4.115903	Sands	-0.066016406
-4.115903	Point	-0.066016406
-3.7077355	I.	-0.066016406
-3.098482	Jr.	-0.29997075
-4.115903	Kathy	-0.066016406
-3.9759805	Patricia	-0.066016406
-3.8668022	9	-0.066016406
-3.8668022	round	-0.066016406
-4.115903	Manhattan	-0.066016406
-3.9759805	attended	-0.066016406
-3.9759805	switching	-0.066016406
-4.115903	Georgetown	-0.066016406
-3.8668022	basketball	-0.066016406
-4.115903	toward	-0.066016406
-3.8668022	law	-0.066016406
-3.9759805	degree	-0.066016406
-4.115903	Later	-0.066016406
-3.9759805	owned	-0.066016406
-4.115903	operated	-0.066016406
-3.8668022	Long	-0.13905577
-4.115903	Ted	-0.066016406
-4.115903	Collins'	-0.066016406
-4.115903	All	-0.066016406
-4.115903	quiet	-0.066016406
-3.9759805	Roger	-0.066016406
-3.9759805	Maris	-0.066016406
-3.9759805	outfielder	-0.066016406
-4.115903	winner	-0.066016406
-4.115903	most-valuable-player	-0.066016406
-4.115903	Hamey	-0.066016406
-3.9759805	raise	-0.066016406
-3.5000038	Arnold	-0.09198818
-3.591566	Palmer	-0.09582854
-4.115903	Sam	-0.066016406
-3.9759805	Snead	-0.1807664
-3.9759805	Metropolitan	-0.066016406
-3.9759805	Golf	-0.066016406
-4.115903	Writers	-0.066016406
-4.115903	Pierre	-0.066016406
-4.115903	golf's	-0.066016406
-4.115903	leading	-0.066016406
-4.115903	money-winner	-0.066016406
-4.115903	saluted	-0.066016406
-4.115903	Canada	-0.066016406
-4.115903	Cup	-0.066016406
-3.9759805	matches	-0.066016406
-3.8668022	June	-0.066016406
-4.115903	Dublin	-0.066016406
-4.115903	Deane	-0.066016406
-4.115903	Beman	-0.066016406
-4.115903	Amateur	-0.066016406
-4.115903	metropolitan	-0.066016406
-4.115903	Gardner	-0.066016406
-4.115903	amateur	-0.066016406
-4.115903	title-holder	-0.066016406
-4.115903	writers'	-0.066016406
-3.9759805	Gold	-0.066016406
-4.115903	Tee	-0.066016406
-4.115903	Plainfield	-0.066016406
-4.115903	sponsorship	-0.066016406
-4.115903	charity	-0.066016406
-4.115903	tournaments	-0.066016406
-4.115903	Horton	-0.066016406
-3.591566	Smith	-0.108351015
-4.115903	Detroit	-0.066016406
-3.5000038	president	-0.29971305
-3.9759805	Professional	-0.066016406
-4.115903	Golfers	-0.066016406
-4.115903	Hogan	-0.066016406
-4.115903	Trophy	-0.066016406
-4.115903	comeback	-0.066016406
-3.9759805	recent	-0.066016406
-4.115903	illness	-0.066016406
-4.115903	speaker	-0.066016406
-3.9759805	Senator	-0.066016406
-3.9759805	Stuart	-0.066016406
-4.115903	Symington	-0.066016406
-4.115903	Democrat	-0.066016406
-3.9759805	Missouri	-0.066016406
-4.115903	Golf's	-0.066016406
-3.9759805	golden	-0.066016406
-4.115903	blazing	-0.066016406
-4.115903	twelve	-0.066016406
-4.115903	Masters	-0.066016406
-3.8668022	Open	-0.11961245
-4.115903	$80,738	-0.066016406
-3.8668022	prize	-0.066016406
-4.115903	heralded	-0.066016406
-3.9759805	Sportsman	-0.066016406
-4.115903	Year	-0.066016406
-3.9759805	Illustrated	-0.1807664
-4.115903	acclaimed	-0.066016406
-4.115903	Rochester	-0.066016406
-4.115903	Athlete	-0.066016406
-3.9759805	earned	-0.066016406
-4.115903	diamond-studded	-0.066016406
-4.115903	Hickok	-0.066016406
-4.115903	Belt	-0.066016406
-3.9759805	achieved	-0.066016406
-3.9759805	something	-0.066016406
-4.115903	endeared	-0.066016406
-4.115903	duffer	-0.066016406
-4.115903	flubbed	-0.066016406
-4.115903	monstrous	-0.066016406
-4.115903	par-5	-0.066016406
-4.115903	human	-0.066016406
-4.115903	hands	-0.066016406
-3.9759805	thousands	-0.1807664
-4.115903	brooding	-0.066016406
-4.115903	incompetents	-0.066016406
-4.115903	meditating	-0.066016406
-4.115903	abandonment	-0.066016406
-4.115903	sport	-0.066016406
-4.115903	frustrations	-0.066016406
-3.9759805	driving	-0.066016406
-4.115903	despair	-0.066016406
-4.115903	paragon	-0.066016406
-3.9759805	perfection	-0.066016406
-4.115903	commit	-0.066016406
-4.115903	sacrilege	-0.066016406
-3.9759805	hope	-0.066016406
-4.115903	neither	-0.066016406
-3.8668022	spirit	-0.13905577
-4.115903	self-sacrifice	-0.066016406
-4.115903	nor	-0.066016406
-4.115903	yen	-0.066016406
-4.115903	encourage	-0.066016406
-4.115903	downtrodden	-0.066016406
-4.115903	motivated	-0.066016406
-3.9759805	became	-0.066016406
-4.115903	victimized	-0.066016406
-4.115903	athletics	-0.066016406
-4.115903	respects	-0.066016406
-4.115903	aggravates	-0.066016406
-3.9759805	golfer	-0.066016406
-4.115903	shooting	-0.066016406
-3.9759805	below	-0.066016406
-4.115903	par	-0.066016406
-4.115903	intention	-0.066016406
-4.115903	delivering	-0.066016406
-4.115903	crusher	-0.066016406
-4.115903	boomed	-0.066016406
-4.115903	280-yard	-0.066016406
-4.115903	pixies	-0.066016406
-4.115903	zombies	-0.066016406
-4.115903	banshees	-0.066016406
-4.115903	wailed	-0.066016406
-4.115903	distance	-0.066016406
-3.9759805	No	-0.066016436
-3.9759805	margin	-0.066016406
-4.115903	narrow	-0.066016406
-3.9759805	fairway	-0.066016406
-4.115903	508-yard	-0.066016406
-4.115903	whipped	-0.066016406
-4.115903	majestic	-0.066016406
-4.115903	arc	-0.066016406
-4.115903	out-of-bounds	-0.066016406
-4.115903	slice	-0.066016406
-4.115903	sliced	-0.066016406
-4.115903	bounds	-0.066016406
-4.115903	hooked	-0.066016406
-4.115903	opposite	-0.066016406
-4.115903	over-corrected	-0.066016406
-4.115903	ruefully	-0.066016406
-4.115903	Each	-0.066016406
-4.115903	wayward	-0.066016406
-4.115903	shots	-0.066016406
-4.115903	strokes	-0.066016406
-4.115903	wound	-0.066016406
-3.9759805	dozen	-0.066016406
-4.115903	nice	-0.066016406
-4.115903	perturbed	-0.066016406
-4.115903	From	-0.066016406
-4.115903	standpoint	-0.066016406
-4.115903	army	-0.066016406
-3.9759805	duffers	-0.066016406
-4.115903	easily	-0.066016406
-4.115903	heartening	-0.066016406
-3.9759805	fell	-0.066016406
-4.115903	evil	-0.066016406
-4.115903	heyday	-0.066016406
-4.115903	idol	-0.066016406
-4.115903	hackers	-0.066016406
-4.115903	Ainsley	-0.066016406
-3.9759805	19	-0.066016406
-4.115903	secondary	-0.066016406
-3.9759805	pro	-0.066016406
-4.115903	Chisholm	-0.066016406
-4.115903	drank	-0.066016406
-4.115903	lunch	-0.066016406
-4.115903	rock-strewn	-0.066016406
-4.115903	gully	-0.066016406
-4.115903	partner	-0.066016406
-4.115903	count	-0.066016406
-4.115903	Stickler	-0.066016406
-3.591566	rules	-0.066016406
-4.115903	How	-0.066016406
-3.7077355	?	-0.19568422
-4.115903	Asked	-0.066016406
-4.115903	excavation	-0.066016406
-4.115903	Thirteen	-0.066016406
-4.115903	Nae	-0.066016406
-4.115903	ye	-0.066016406
-4.115903	countin'	-0.066016406
-4.115903	echoes	-0.066016406
-4.115903	Palmer's	-0.066016406
-4.115903	honestly	-0.066016406
-4.115903	Nor	-0.066016406
-4.115903	loophole	-0.066016406
-4.115903	knows	-0.066016406
-4.115903	code	-0.066016406
-4.115903	thoroughly	-0.066016406
-4.115903	wrote	-0.066016406
-4.115903	knowledge	-0.066016406
-4.115903	handy	-0.066016406
-4.115903	landed	-0.066016406
-4.115903	brook	-0.066016406
-4.115903	flowed	-0.066016406
-4.115903	floated	-0.066016406
-4.115903	downstream	-0.066016406
-3.9759805	picked	-0.1807664
-4.115903	handed	-0.066016406
-3.5000038	small	-0.066016406
-4.115903	potato	-0.066016406
-4.115903	playable	-0.066016406
-4.115903	lie	-0.066016406
-4.115903	Dey	-0.066016406
-3.8668022	association	-0.13905577
-4.115903	naturally	-0.066016406
-4.115903	alongside	-0.066016406
-4.115903	spot	-0.066016406
-4.115903	originally	-0.066016406
-4.115903	stream	-0.066016406
-3.9759805	knew	-0.066016406
-4.115903	confessed	-0.066016406
-4.115903	grin	-0.066016406
-3.8668022	happened	-0.066016406
-4.115903	nicer	-0.066016406
-3.9759805	drop	-0.066016406
-3.9759805	For	-0.066016406
-4.115903	serious	-0.066016406
-4.115903	intensity	-0.066016406
-4.115903	inherent	-0.066016406
-4.115903	humor	-0.066016406
-4.115903	relieves	-0.066016406
-4.115903	strain	-0.066016406
-3.9759805	keeps	-0.066016406
-4.115903	nerves	-0.066016406
-4.115903	jangling	-0.066016406
-4.115903	banjo	-0.066016406
-3.9759805	strings	-0.066016406
-4.115903	Yet	-0.066016406
-4.115903	remains	-0.066016406
-4.115903	fiercest	-0.066016406
-4.115903	competitors	-0.066016406
-4.115903	bull	-0.066016406
-4.115903	head-on	-0.066016406
-3.8668022	1958	-0.13905577
-4.115903	twelfth	-0.066016406
-4.115903	155-yarder	-0.066016406
-4.115903	Arnold's	-0.066016406
-4.115903	iron	-0.066016406
-4.115903	tee	-0.066016406
-4.115903	burrowed	-0.066016406
-4.115903	bunker	-0.066016406
-4.115903	guarding	-0.066016406
-3.9759805	green	-0.066016406
-4.115903	embankment	-0.066016406
-4.115903	soft	-0.066016406
-4.115903	spongy	-0.066016406
-4.115903	rains	-0.066016406
-4.115903	thereby	-0.066016406
-3.9759805	bringing	-0.066016406
-4.115903	force	-0.066016406
-4.115903	Ruling	-0.066016406
-4.115903	remove	-0.066016406
-3.9759805	lies	-0.066016406
-4.115903	wrong	-0.066016406
-3.9759805	provisional	-0.13905577
-4.115903	ruling	-0.066016406
-4.115903	embedded	-0.066016406
-4.115903	golfing	-0.066016406
-4.115903	fathers	-0.066016406
-3.9759805	stroke	-0.066016406
-3.9759805	tournament	-0.066016406
-4.115903	Until	-0.066016406
-4.115903	god-like	-0.066016406
-4.115903	creature	-0.066016406
-3.9759805	common	-0.066016406
-4.115903	bigger	-0.066016406
-4.115903	supply	-0.066016406
-4.115903	Minneapolis	-0.066016406
-4.115903	increasing	-0.066016406
-4.115903	fourteen	-0.066016406
-4.115903	discussed	-0.066016406
-3.9759805	owners	-0.066016406
-4.115903	Warwick	-0.066016406
-3.9759805	items	-0.066016406
-4.115903	agenda	-0.066016406
-3.9759805	meetings	-0.066016406
-4.115903	concern	-0.066016406
-4.115903	football's	-0.066016406
-3.9759805	hall	-0.066016406
-4.115903	fame	-0.066016406
-4.115903	players'	-0.066016406
-4.115903	benefits	-0.066016406
-4.115903	constitutional	-0.066016406
-4.115903	amendments	-0.066016406
-4.115903	fourteen-team	-0.066016406
-4.115903	home-and-home	-0.066016406
-3.8668022	teams	-0.13905577
-3.9759805	division	-0.066016406
-3.9759805	plus	-0.066016406
-4.115903	However	-0.066016406
-3.9759805	require	-0.1807664
-4.115903	lengthening	-0.066016406
-3.9759805	thirteen	-0.066016406
-4.115903	Rozelle	-0.066016406
-4.115903	commissioner	-0.066016406
-4.115903	Nine	-0.066016406
-4.115903	league's	-0.066016406
-4.115903	parks	-0.066016406
-3.8668022	therefore	-0.066016406
-4.115903	early-season	-0.066016406
-4.115903	conflict	-0.066016406
-4.115903	dates	-0.066016406
-4.115903	heed	-0.066016406
-3.9759805	Mauch	-0.066016406
-4.115903	misled	-0.066016406
-4.115903	Pirates'	-0.066016406
-4.115903	slower	-0.066016406
-4.115903	outclass	-0.066016406
-4.115903	age	-0.066016406
-4.115903	Vinegar	-0.066016406
-4.115903	Bend	-0.066016406
-3.8668022	Mizell	-0.066016406
-4.115903	Shantz	-0.066016406
-3.9759805	Tonight	-0.066016406
-3.9759805	anyone	-0.066016406
-4.115903	breaking	-0.066016406
-4.115903	baseball's	-0.066016406
-4.115903	9-6	-0.066016406
-4.115903	Redbirds	-0.066016406
-4.115903	7-9	-0.066016406
-4.115903	Change	-0.066016406
-3.9759805	Solly	-0.066016406
-3.8668022	Hemus	-0.066016406
-4.115903	switch	-0.066016406
-3.8668022	Gibson	-0.13905577
-4.115903	Ernie	-0.066016406
-3.9759805	Broglio	-0.066016406
-4.115903	reasons	-0.066016406
-4.115903	Broglio's	-0.066016406
-3.9759805	4-0	-0.066016406
-4.115903	won-lost	-0.066016406
-4.115903	earned-run	-0.066016406
-3.9759805	desire	-0.066016406
-4.115903	Redbirds'	-0.066016406
-4.115903	disheartening	-0.066016406
-4.115903	11-7	-0.066016406
-4.115903	collapse	-0.066016406
-4.115903	eager	-0.066016406
-4.115903	losses	-0.066016406
-3.8668022	current	-0.066016406
-4.115903	assignment	-0.066016406
-4.115903	Thursday's	-0.066016406
-3.8668022	Larry	-0.066016406
-3.9759805	Jackson	-0.066016406
-4.115903	Cubs	-0.066016406
-4.115903	Harvey	-0.066016406
-3.9759805	Haddix	-0.066016406
-4.115903	flu	-0.066016406
-4.115903	Cardinal	-0.066016406
-4.115903	mates	-0.066016406
-4.115903	captain	-0.066016406
-3.9759805	Boyer	-0.066016406
-4.115903	Busch	-0.066016406
-4.115903	suffering	-0.066016406
-4.115903	stiff	-0.066016406
-3.9759805	neck	-0.066016406
-4.115903	13-8	-0.066016406
-4.115903	despite	-0.066016406
-4.115903	1-3	-0.066016406
-3.9759805	Pirate	-0.066016406
-3.7077355	Danny	-0.11961245
-3.8668022	Murtaugh	-0.13905577
-4.115903	Vern	-0.066016406
-4.115903	Wednesday's	-0.066016406
-3.8668022	Nieman	-0.066016406
-3.9759805	lineup	-0.1807664
-4.115903	lengthy	-0.066016406
-3.8668022	stay	-0.19568422
-3.9759805	Stan	-0.1807664
-3.9759805	Musial	-0.13905577
-4.115903	anniversary	-0.066016406
-4.115903	five-home	-0.066016406
-4.115903	sore	-0.066016406
-4.115903	ankles	-0.066016406
-3.9759805	Taussig	-0.066016406
-4.115903	Lindy	-0.066016406
-4.115903	looked	-0.066016406
-4.115903	groove	-0.066016406
-3.9759805	shown	-0.066016406
-4.115903	hardly	-0.066016406
-4.115903	Six	-0.066016406
-4.115903	Bucks	-0.066016406
-4.115903	Bucs'	-0.066016406
-4.115903	bats	-0.066016406
-4.115903	quieted	-0.066016406
-3.9759805	bit	-0.066016406
-4.115903	recession	-0.066016406
-3.8668022	town	-0.066016406
-4.115903	imposing	-0.066016406
-4.115903	Smoky	-0.066016406
-4.115903	Burgess	-0.066016406
-4.115903	Gino	-0.066016406
-4.115903	Cimoli	-0.066016406
-3.9759805	Virdon	-0.066016406
-4.115903	Clemente	-0.066016406
-4.115903	Groat	-0.066016406
-4.115903	Hoak	-0.066016406
-4.115903	Skinner	-0.066016406
-4.115903	Hal	-0.066016406
-4.115903	dragging	-0.066016406
-4.115903	Perhaps	-0.066016406
-4.115903	unhappiest	-0.066016406
-4.115903	sit	-0.066016406
-3.8668022	Friend	-0.066016406
-4.115903	beaten	-0.066016406
-4.115903	Man	-0.066016406
-4.115903	twice	-0.066016406
-3.9759805	dramatic	-0.066016406
-4.115903	likely	-0.066016406
-4.115903	blasting	-0.066016406
-4.115903	plunkers	-0.066016406
-4.115903	Bucs	-0.066016406
-4.115903	jumped	-0.066016406
-4.115903	11-3	-0.066016406
-4.115903	7-6	-0.066016406
-4.115903	ending	-0.066016406
-4.115903	two-season	-0.066016406
-4.115903	fall-off	-0.066016406
-4.115903	3-10	-0.066016406
-4.115903	4-13	-0.066016406
-4.115903	Since	-0.066016406
-4.115903	'49	-0.066016406
-4.115903	so-so	-0.066016406
-4.115903	5-5	-0.066016406
-3.9759805	beginning	-0.066016406
-4.115903	low	-0.066016406
-4.115903	12-17	-0.066016406
-4.115903	finishing	-0.066016406
-4.115903	96	-0.066016406
-4.115903	'52	-0.066016406
-4.115903	Cards	-0.066016406
-4.115903	6-7	-0.066016406
-4.115903	ended	-0.066016406
-4.115903	88	-0.066016406
-4.115903	triumphs	-0.066016406
-4.115903	club's	-0.066016406
-4.115903	tumbled	-0.066016406
-4.115903	11-18	-0.066016406
-4.115903	recovering	-0.066016406
-4.115903	runaway	-0.066016406
-3.9759805	'55	-0.066016406
-4.115903	Dodger	-0.066016406
-4.115903	Those	-0.066016406
-4.115903	21-2	-0.066016406
-4.115903	nine-game	-0.066016406
-4.115903	overcame	-0.066016406
-4.115903	worst	-0.066016406
-4.115903	comparable	-0.066016406
-4.115903	York's	-0.066016406
-4.115903	'51	-0.066016406
-4.115903	battling	-0.066016406
-3.9759805	Billikens	-0.066016406
-4.115903	Speakers	-0.066016406
-4.115903	Tipoff	-0.066016406
-4.115903	dealt	-0.066016406
-4.115903	lavish	-0.066016406
-4.115903	praise	-0.066016406
-4.115903	words	-0.066016406
-3.591566	Benington	-0.09582854
-3.8668022	Mankowski	-0.13905577
-3.8668022	Gordon	-0.066016406
-3.591566	Hartweger	-0.066016436
-4.115903	Tom	-0.066016406
-3.9759805	Kieffer	-0.066016406
-3.9759805	Bevo	-0.066016406
-3.7077355	Nordmann	-0.11961245
-4.115903	6-foot-10	-0.066016406
-4.115903	sort	-0.066016406
-3.9759805	conversation	-0.066016406
