\data\
ngram 1=4440
ngram 2=11779
ngram 3=14576
ngram 4=14504
ngram 5=13703

\1-grams:
-4.117271	<unk>	0
0	<s>	-0.3633368
-3.27031	</s>	0
-2.129989	Nikita	-0.18313432
-2.6851237	(	-0.056982804
-4.001509	La	-0.056982804
-3.8129117	Femme	-0.056982804
-2.650803	)	-0.1506061
-3.8129117	Dieser	-0.05698283
-3.8129117	Episodenführer	-0.056982804
-2.9804559	wurde	-0.2954424
-2.0444887	von	-0.20175198
-3.8129117	September	-0.056982804
-3.8129117	1998	-0.056982804
-3.1509233	bis	-0.07648791
-3.7053986	Mai	-0.056982804
-3.5498152	1999	-0.056982804
-4.001509	Konstantin	-0.056982804
-4.001509	C.W.	-0.056982804
-4.001509	Volkmann	-0.056982804
-3.8129117	geschrieben	-0.056982804
-1.6778471	und	-0.16931082
-2.386971	im	-0.09152898
-3.7053986	2000	-0.056982804
-4.001509	Stefan	-0.056982804
-4.001509	Börzel	-0.056982804
-3.5498152	übernommen	-0.056982804
-1.3059459	.	-2.605382
-4.001509	Wichtiger	-0.056982804
-3.7053986	Hinweis	-0.056982804
-2.386971	:	-1.5299095
-3.8129117	Alles	-0.056982804
-1.3172795	,	-0.44633102
-3.7053986	was	-0.056982804
-3.4355054	ich	-0.05698283
-2.7422972	über	-0.17006491
-3.0573788	diese	-0.056982804
-3.8129117	Serie	-0.056982804
-1.9302197	die	-0.15851496
-4.001509	Darsteller	-0.056982804
-2.9804559	oder	-0.10615646
-2.3524308	an	-0.23827802
-1.8449696	der	-0.15259115
-4.001509	Produktion	-0.056982804
-4.001509	beteiligten	-0.056982804
-3.7053986	Personen	-0.056982804
-2.9804559	weiß	-0.30328226
-3.3451	steht	-0.10040961
-3.27031	hier	-0.056982804
-1.9527736	in	-0.37898344
-3.0573788	dieser	-0.056982804
-4.001509	Übersicht	-0.056982804
-4.001509	Weitere	-0.056982804
-3.4355054	Informationen	-0.05698283
-4.001509	besitze	-0.056982804
-2.378075	nicht	-0.17176676
-4.001509	Des	-0.056982804
-4.001509	weitern	-0.056982804
-3.27031	habe	-0.09393351
-2.7850747	auch	-0.10040961
-3.0172164	keine	-0.056982804
-3.8129117	einzige	-0.056982804
-3.7053986	Folge	-0.056982804
-2.2906387	auf	-0.3034043
-3.8129117	Video	-0.056982804
-3.7053986	sonst	-0.056982804
-2.7422972	einem	-0.08657917
-3.8129117	Medium	-0.056982804
-4.001509	Und	-0.056982804
-2.7033577	vor	-0.128701
-3.8129117	allem	-0.056982804
-4.001509	stehe	-0.056982804
-3.8129117	keinerlei	-0.056982804
-3.7053986	Verbindungen	-0.1486662
-1.8102713	zu	-0.19606407
-4.001509	irgendeinem	-0.056982804
-4.001509	Fernsehsender	-0.056982804
-2.7033577	kann	-0.18393174
-4.001509	daher	-0.056982804
-2.3442087	das	-0.14861962
-3.8129117	Programm	-0.056982804
-4.001509	einwirken	-0.056982804
-3.7053986	Alle	-0.056982804
-4.001509	Mails	-0.056982804
-4.001509	mich	-0.056982804
-2.150353	sich	-0.21952622
-3.8129117	trotzdem	-0.056982804
-2.476482	einen	-0.09066844
-4.001509	aufgeführten	-0.056982804
-3.8129117	Punkte	-0.056982804
-4.001509	richten	-0.056982804
-4.001509	unfreundlich/stillos	-0.056982804
-2.634609	sind	-0.22182497
-2.4655752	werden	-0.36169776
-4.001509	kommentarlos	-0.056982804
-4.001509	gelöscht	-0.056982804
-4.001509	Letzte	-0.056982804
-4.001509	Änderung	-0.056982804
-4.001509	03.11.2001	-0.056982804
-2.8325307	Die	-0.09985274
-4.001509	Folgenbeschreibungen	-0.056982804
-4.001509	Programmplanung	-0.056982804
-3.5498152	RTL	-0.44177336
-4.001509	II	-0.05698283
-3.8129117	entnommen	-0.056982804
-4.001509	Story	-0.056982804
-2.885816	Sie	-0.120817505
-2.0527358	ist	-0.33084026
-4.001509	jung.	-0.056982804
-3.8129117	schön	-0.056982804
-4.001509	Unrecht	-0.056982804
-4.001509	verurteilt	-0.056982804
-2.2906387	für	-0.237401
-3.8129117	Mord	-0.056982804
-2.3127933	den	-0.11168939
-2.1153188	sie	-0.23200463
-4.001509	begangen	-0.056982804
-2.2695594	hat	-0.38733625
-4.001509	Doch	-0.05698283
-3.27031	bekommt	-0.09393351
-2.4655752	eine	-0.08508805
-3.8129117	zweite	-0.056982804
-4.001509	Chance	-0.056982804
-3.7053986	Für	-0.09393351
-4.001509	heißt	-0.056982804
-4.001509	Alternative	-0.056982804
-3.8129117	lebenslänglich	-0.20296301
-3.3451	ins	-0.056982804
-3.8129117	Gefängnis	-0.056982804
-3.7053986	gehen	-0.056982804
-2.386971	als	-0.120805055
-4.001509	Elite-Agentin	-0.056982804
-3.7053986	Regierung	-0.056982804
-3.5498152	arbeiten	-0.10040961
-3.0573788		-0.080130436
-2.2494562	ein	-0.10996291
-3.8129117	neues	-0.056982804
-3.0172164	Leben	-0.09586621
-4.001509	eiskalte	-0.056982804
-4.001509	Killerin	-0.056982804
-3.8129117	führen	-0.056982804
-3.27031	zwischen	-0.13730438
-4.001509	tödlicher	-0.056982804
-3.27031	Gefahr	-0.08544629
-4.001509	mörderischer	-0.056982804
-4.001509	Intrige	-0.056982804
-3.4355054	Ihre	-0.08251452
-3.7053986	Wahl	-0.056982804
-3.3451	scheint	-0.056982804
-3.4355054	klar	-0.19375691
-2.6676245	...	-0.06592993
-3.206527	Der	-0.056982804
-3.7053986	mysteriöse	-0.056982804
-3.7053986	Agent	-0.056982804
-2.2695594	Michael	-0.18155704
-3.27031	führt	-0.19636737
-2.603927	ihr	-0.12466868
-4.001509	tödliches	-0.056982804
-4.001509	Handwerk	-0.056982804
-3.3451	geheime	-0.10040961
-4.001509	unbarmherzige	-0.056982804
-3.27031	Organisation	-0.07506529
-4.001509	Sektion	-0.056982804
-4.001509	Eins	-0.056982804
-3.4355054	ein.	-0.056982804
-3.1016374	Nikitas	-0.07648791
-3.0573788	Auftrag	-0.09691046
-2.7223911	es	-0.11687093
-3.7053986	internationalen	-0.056982804
-4.001509	Terrorismus	-0.056982804
-4.001509	bekämpfen	-0.056982804
-2.2118428	mit	-0.29116762
-3.5498152	allen	-0.10040961
-4.001509	notwendigen	-0.056982804
-3.8129117	Mitteln	-0.056982804
-4.001509	legalen	-0.056982804
-3.206527	anderen	-0.056982804
-4.001509	Verwandlung	-0.056982804
-2.7422972	einer	-0.07701325
-4.001509	verwahrlosten	-0.056982804
-4.001509	Gefängnisinsassin	-0.056982804
-4.001509	anziehenden	-0.056982804
-4.001509	kultivierten	-0.056982804
-3.4355054	Agentin	-0.05698283
-3.1509233	macht	-0.20637226
-2.8583567	zur	-0.09586621
-4.001509	perfekten	-0.056982804
-4.001509	Waffe	-0.056982804
-4.001509	Umgeben	-0.056982804
-3.8129117	Gewalt	-0.056982804
-3.8129117	Intrigen	-0.056982804
-2.9804559	geht	-0.15863997
-3.0573788	ihren	-0.056982804
-3.5498152	Weg	-0.15009503
-2.6851237	um	-0.106016695
-2.8325307	am	-0.168106
-3.5498152	bleiben	-0.056982804
-4.001509	Hauch	-0.056982804
-4.001509	Menschlichkeit	-0.056982804
-3.7053986	Welt	-0.05698283
-4.001509	bewahren	-0.056982804
-3.7053986	Fehler	-0.1486662
-4.001509	sofortigen	-0.056982804
-3.0573788	Tod	-0.056982804
-3.4355054	bedeutet	-0.10964145
-4.001509	Mitwirkende	-0.056982804
-3.7053986	Rolle	-0.056982804
-3.206527	..	-0.4717699
-4.001509	Schauspieler	-0.056982804
-4.001509	Peta	-0.056982804
-4.001509	Wilson	-0.056982804
-4.001509	Roy	-0.056982804
-4.001509	Dupuis	-0.056982804
-2.9151294	Madeline	-0.13402167
-4.001509	Alberta	-0.056982804
-4.001509	Watson	-0.056982804
-2.4991531	Operations	-0.15779491
-4.001509	Eugene	-0.056982804
-4.001509	Robert	-0.056982804
-4.001509	Glazer	-0.056982804
-2.8081548	Birkoff	-0.080130436
-4.001509	Matthew	-0.056982804
-4.001509	Ferguson	-0.056982804
-3.3451	Walter	-0.056982804
-4.001509	Don	-0.056982804
-4.001509	Francks	-0.056982804
-4.001509	Ausstrahlungsnotizen	-0.056982804
-3.7053986	zeigte	-0.1486662
-3.8129117	Januar	-0.056982804
-4.001509	April	-0.056982804
-4.001509	jeden	-0.056982804
-4.001509	Montag	-0.056982804
-3.1016374	zwei	-0.08251452
-3.5498152	Folgen	-0.05698283
-3.27031	ersten	-0.12761016
-3.27031	Staffel	-0.33988494
-3.206527	ab	-0.2543593
-3.8129117	20:15	-0.20296301
-3.7053986	Uhr	-0.1486662
-3.7053986	Nachdem	-0.056982804
-3.7053986	neue	-0.056982804
-4.001509	unendlich	-0.056982804
-3.8129117	oft	-0.056982804
-4.001509	verschoben	-0.056982804
-3.5498152	wurden	-0.12386797
-4.001509	Oktober	-0.056982804
-3.8129117	2001	-0.056982804
-4.001509	dritte	-0.056982804
-4.001509	Zuerst	-0.056982804
-3.8129117	liefen	-0.056982804
-3.8129117	samstags	-0.056982804
-4.001509	Ab	-0.056982804
-3.5498152	Ende	-0.056982804
-4.001509	Februar	-0.056982804
-3.8129117	lief	-0.056982804
-3.8129117	mittwochs	-0.056982804
-4.001509	22:10	-0.056982804
-2.6676245	noch	-0.112554304
-4.001509	zusätzlich	-0.056982804
-4.001509	Mitte	-0.056982804
-4.001509	März	-0.056982804
-2.8081548	mehr	-0.12102103
-4.001509	Juli	-0.056982804
-4.001509	hinereinander	-0.056982804
-3.1016374	dann	-0.080130436
-2.885816	wieder	-0.103293225
-4.001509	diesmal	-0.056982804
-2.9465656	aber	-0.092939995
-4.001509	23:05	-0.056982804
-4.001509	La	-0.056982804
-4.001509	Nikita	-0.056982804
-3.8129117	lehnt	-0.056982804
-4.001509	weltweiten	-0.056982804
-4.001509	Kinoerfolg	-0.056982804
-4.001509	Nikita	-0.056982804
-4.001509	Codename	-0.056982804
-4.001509	Nina	-0.056982804
-4.001509	schöne	-0.056982804
-2.3442087	wird	-0.28262034
-4.001509	schuldlos	-0.056982804
-2.3204367	des	-0.10460317
-4.001509	Mordes	-0.056982804
-3.8129117	bezichtigt	-0.056982804
-2.885816	muss	-0.16497716
-3.8129117	entscheiden	-0.056982804
-4.001509	Entweder	-0.056982804
-2.9465656	Sektion	-0.12829307
-4.001509	Eins	-0.056982804
-4.001509	Geheimdienstes	-0.056982804
-4.001509	Dort	-0.056982804
-2.618997	dem	-0.060301546
-3.7053986	geheimnisvollen	-0.056982804
-2.650803	ihre	-0.11983644
-3.5498152	tödlichen	-0.056982804
-4.001509	Jobs	-0.056982804
-4.001509	geschult	-0.056982804
-4.001509	Außerdem	-0.056982804
-3.8129117	trifft	-0.056982804
-3.5498152	dort	-0.056982804
-4.001509	Meisterstrategin	-0.056982804
-4.001509	gewitzten	-0.056982804
-4.001509	Techniker	-0.056982804
-4.001509	Computergenie	-0.056982804
-4.001509	brillanten	-0.056982804
-3.4355054	Kopf	-0.10040961
-3.7053986	Abteilung	-0.056982804
-3.8129117	PCd	-0.056982804
-3.7053986	=	-0.1486662
-4.001509	Produktionscode	-0.056982804
-4.001509	USNr.	-0.056982804
-4.001509	Erstausstrahlungsreihenfolge	-0.056982804
-3.7053986	USA	-0.056982804
-4.001509	Network	-0.056982804
-4.001509	DNr.	-0.056982804
-3.5498152	Deutschland	-0.056982804
-4.001509	Länge	-0.056982804
-4.001509	je	-0.056982804
-3.5498152	ca.	-0.1486662
-3.7053986	45	-0.12386797
-3.4355054	Minuten	-0.10964145
-4.001509	USNr	-0.056982804
-4.001509	Originaltitel	-0.056982804
-4.001509	US-Erstsendung	-0.056982804
-4.001509	DNr	-0.056982804
-4.001509	Deutscher	-0.056982804
-4.001509	Titel	-0.056982804
-4.001509	D-Erstsendung	-0.056982804
-3.5498152	1.	-0.056982804
-4.001509	1997	-0.056982804
-4.001509	101	-0.056982804
-4.001509	13.01.1997	-0.056982804
-4.001509	Prüfung	-0.056982804
-3.8129117	18.01.1999	-0.056982804
-4.001509	Samuel	-0.056982804
-3.8129117	lebt	-0.056982804
-3.8129117	gefährlichen	-0.056982804
-3.8129117	Viertel	-0.056982804
-3.8129117	Stadt	-0.056982804
-4.001509	jung	-0.056982804
-4.001509	fälschlicherweise	-0.056982804
-3.8129117	Polizisten	-0.056982804
-4.001509	angeklagt	-0.056982804
-4.001509	belästigt	-0.056982804
-3.7053986	erpresst	-0.1486662
-4.001509	Ihr	-0.056982804
-4.001509	lebenslange	-0.056982804
-4.001509	Haftstrafe	-0.056982804
-3.5498152	bevor	-0.09393351
-3.8129117	Überraschend	-0.056982804
-3.5498152	Angebot	-0.056982804
-4.001509	top-geheime	-0.056982804
-4.001509	Regierungsorganisation	-0.056982804
-2.9465656	immer	-0.14213736
-3.4355054	innerhalb	-0.19375691
-4.001509	Grenzen	-0.056982804
-4.001509	Legalität	-0.056982804
-4.001509	ermittelt	-0.056982804
-2.9465656	so	-0.06662591
-3.8129117	Name	-0.056982804
-4.001509	täuscht	-0.056982804
-3.5498152	Selbstmord	-0.12386797
-4.001509	verschafft	-0.056982804
-3.5498152	Identität	-0.056982804
-4.001509	Unter	-0.056982804
-3.8129117	Anleitung	-0.056982804
-3.27031	Agenten	-0.15009503
-3.206527	lernen	-0.19375691
-3.4355054	Gefühle	-0.056982804
-3.8129117	kontrollieren	-0.056982804
-3.8129117	Techniken	-0.056982804
-4.001509	Mörderin	-0.056982804
-3.1016374	wie	-0.07648791
-3.8129117	erwartet	-0.056982804
-4.001509	105	-0.056982804
-3.7053986	2.	-0.056982804
-4.001509	Friend	-0.056982804
-4.001509	20.01.1997	-0.056982804
-4.001509	Todesengel	-0.056982804
-3.7053986	Als	-0.0738361
-4.001509	Café	-0.056982804
-4.001509	Informanten	-0.056982804
-3.8129117	wartet	-0.056982804
-4.001509	mitteilen	-0.056982804
-2.5109484	soll	-0.19065727
-3.8129117	wer	-0.056982804
-4.001509	nächste	-0.056982804
-3.4355054	Ziel	-0.19375691
-3.0573788	ihrer	-0.056982804
-3.7053986	ehemaligen	-0.056982804
-3.5498152	Freundin	-0.12386797
-3.5498152	Julie	-0.056982804
-3.8129117	erkannt	-0.056982804
-3.7053986	beiden	-0.056982804
-3.3451	kennen	-0.09393351
-2.386971	aus	-0.3482246
-4.001509	Zeiten	-0.056982804
-4.001509	undercover	-0.056982804
-4.001509	arbeitete	-0.056982804
-4.001509	Informant	-0.056982804
-3.5498152	sieht	-0.12386797
-3.7053986	dass	-0.09045393
-3.8129117	alleine	-0.056982804
-3.8129117	weigert	-0.056982804
-2.328217	er	-0.1578997
-2.7422972	seine	-0.0815084
-4.001509	Information	-0.056982804
-4.001509	weiterzugeben	-0.056982804
-3.7053986	teilt	-0.056982804
-3.5498152	sterben	-0.056982804
-3.8129117	weil	-0.12386797
-3.27031	stellt	-0.1788573
-3.5498152	ob	-0.08251452
-3.1016374	selbst	-0.10104828
-3.5498152	Aufgabe	-0.056982804
-3.7053986	übernehmen	-0.056982804
-2.6851237	will	-0.25923952
-4.001509	anderer	-0.056982804
-4.001509	Julies	-0.056982804
-4.001509	Lebenslicht	-0.056982804
-4.001509	ausblasen	-0.056982804
-3.4355054	hält	-0.05698283
-3.8129117	Wohnung	-0.056982804
-3.5498152	fest	-0.23593047
-4.001509	Lösung	-0.056982804
-4.001509	Problems	-0.056982804
-4.001509	einfällt	-0.056982804
-3.8129117	Was	-0.056982804
-4.001509	Ausgerechnet	-0.056982804
-3.3451	nächsten	-0.18845692
-3.1509233	Aktion	-0.08251452
-2.6851237	sein	-0.08439692
-4.001509	104	-0.056982804
-3.7053986	3.	-0.056982804
-3.8129117	Simone	-0.056982804
-4.001509	27.01.1997	-0.056982804
-3.8129117	25.01.1999	-0.056982804
-4.001509	schleust	-0.056982804
-3.4355054	Leute	-0.056982804
-4.001509	Terroristenvereinigung	-0.056982804
-3.7053986	Besitz	-0.056982804
-2.9465656	eines	-0.056982804
-4.001509	Gerätes	-0.056982804
-4.001509	Radargeräte	-0.056982804
-4.001509	Flugzeugen	-0.056982804
-3.7053986	überlisten	-0.1486662
-4.001509	Zusammenstöße	-0.056982804
-3.7053986	Luft	-0.056982804
-4.001509	verursachen	-0.056982804
-4.001509	Es	-0.05698283
-3.7053986	handelt	-0.056982804
-3.5498152	dabei	-0.05698283
-3.8129117	gleiche	-0.056982804
-3.27031	angeblich	-0.056982804
-2.9804559	Michaels	-0.11652469
-3.206527	Frau	-0.09136988
-3.1509233	getötet	-0.20705737
-3.1509233	gibt	-0.18149902
-3.8129117	Terroristin	-0.056982804
-3.0573788	findet	-0.10040961
-4.001509	todbringende	-0.056982804
-4.001509	Radarausrüstung	-0.056982804
-3.27031	heraus	-0.33988494
-3.8129117	sondern	-0.056982804
-3.206527	seit	-0.12761016
-3.206527	Jahren	-0.08251452
-3.5498152	gefangen	-0.12386797
-3.7053986	gehalten	-0.20296301
-3.8129117	gefoltert	-0.056982804
-4.001509	102	-0.056982804
-3.5498152	4.	-0.056982804
-4.001509	Charity	-0.056982804
-4.001509	03.02.1997	-0.056982804
-4.001509	Wohltäter	-0.056982804
-3.5498152	Während	-0.07815366
-4.001509	Routinejobs	-0.056982804
-3.4355054	rettet	-0.056982804
-4.001509	gutaussehenden	-0.056982804
-3.7053986	Fremden	-0.056982804
-2.9804559	namens	-0.056982804
-3.7053986	Alec	-0.056982804
-4.001509	Chandler	-0.056982804
-4.001509	beinahe	-0.056982804
-4.001509	Auto	-0.056982804
-4.001509	überfahren	-0.056982804
-4.001509	Rendezvous	-0.056982804
-3.4355054	bittet	-0.16957755
-2.7631593	ihm	-0.11309592
-4.001509	Büroadresse	-0.056982804
-3.27031	lässt	-0.13857637
-4.001509	Geschenk	-0.056982804
-4.001509	zukommen	-0.056982804
-4.001509	Später	-0.056982804
-4.001509	Beinahe-Zusammenstoß	-0.056982804
-4.001509	fingiert	-0.056982804
-2.9151294	war	-0.11652469
-3.7053986	sicher	-0.1486662
-3.3451	retten	-0.16129987
-3.4355054	würde	-0.05698283
-4.001509	gesuchter	-0.056982804
-4.001509	Geldwäscher	-0.056982804
-3.8129117	sollte	-0.056982804
-2.8325307	ihn	-0.1460295
-3.7053986	näher	-0.12386797
-4.001509	Näheres	-0.056982804
-4.001509	kriminellen	-0.056982804
-4.001509	Aktivitäten	-0.056982804
-3.3451	herausfinden	-0.16775718
-4.001509	ahnungslose	-0.056982804
-4.001509	verabredet	-0.056982804
-3.8129117	willigt	-0.20296301
-3.8129117	Bald	-0.056982804
-3.5498152	verliebt	-0.1486662
-3.8129117	ernsthaft	-0.20296301
-4.001509	feinfühligen	-0.056982804
-3.27031	Mann	-0.104581565
-4.001509	wohltätige	-0.056982804
-4.001509	Zwecke	-0.056982804
-4.001509	Waisenhäuser	-0.056982804
-4.001509	engagiert	-0.056982804
-3.7053986	Meinung	-0.056982804
-3.7053986	ändern	-0.1486662
-4.001509	miterlebt	-0.056982804
-3.8129117	kurzerhand	-0.056982804
-2.9151294	seiner	-0.087180145
-3.7053986	Bodyguards	-0.056982804
-3.4355054	tötet	-0.05698283
-4.001509	Verrats	-0.056982804
-3.8129117	verdächtigt	-0.056982804
-4.001509	Schließlich	-0.056982804
-3.0573788	erfährt	-0.28146422
-3.5498152	ganze	-0.056982804
-3.8129117	Wahrheit	-0.12386797
-4.001509	Er	-0.056982804
-3.8129117	Menschenhändler	-0.056982804
-3.7053986	ganzen	-0.056982804
-3.4355054	Kinder	-0.10964145
-3.7053986	verkauft	-0.1486662
-3.27031	setzt	-0.09393351
-3.206527	nun	-0.056982804
-3.1016374	alles	-0.2577546
-3.8129117	daran	-0.12386797
-4.001509	Machenschaften	-0.056982804
-4.001509	aufzudecken	-0.056982804
-4.001509	107	-0.056982804
-3.7053986	5.	-0.056982804
-4.001509	Mother	-0.056982804
-4.001509	09.02.1997	-0.056982804
-4.001509	Mutterliebe	-0.056982804
-3.8129117	01.02.1999	-0.056982804
-4.001509	Zwei	-0.056982804
-4.001509	Kriminelle	-0.056982804
-3.8129117	John	-0.056982804
-4.001509	Wick	-0.056982804
-3.7053986	Helen	-0.056982804
-3.4355054	bekommen	-0.056982804
-4.001509	nuklearen	-0.056982804
-3.8129117	Zünder	-0.056982804
-4.001509	höchstbietenden	-0.056982804
-3.7053986	verkaufen	-0.1486662
-3.7053986	Bei	-0.10040961
-4.001509	gescheiterten	-0.056982804
-4.001509	Verkaufsversuch	-0.056982804
-3.8129117	vier	-0.056982804
-3.3451	Mitarbeiter	-0.20808697
-2.5109484	bei	-0.35354704
-4.001509	Explosion	-0.056982804
-4.001509	Währenddessen	-0.056982804
-3.7053986	sucht	-0.056982804
-3.1016374	weiter	-0.10964145
-2.8583567	nach	-0.10085657
-3.206527	ihrem	-0.05698283
-3.7053986	Kind	-0.056982804
-4.001509	Teenagerzeit	-0.056982804
-4.001509	saß	-0.056982804
-4.001509	Adoption	-0.056982804
-4.001509	freigab	-0.056982804
-3.5498152	arbeitet	-0.056982804
-3.0172164	Plan	-0.10040961
-3.4355054	übernimmt	-0.056982804
-3.7053986	verschollenen	-0.056982804
-3.8129117	Tochter	-0.056982804
-3.8129117	Suche	-0.20296301
-3.7053986	nehmen	-0.056982804
-4.001509	paar	-0.056982804
-4.001509	Beamte	-0.056982804
-4.001509	Mutter	-0.056982804
-3.1016374	In	-0.17085521
-4.001509	einsamen	-0.056982804
-4.001509	Wald	-0.056982804
-3.8129117	schlagen	-0.056982804
-3.1509233	dazu	-0.22744727
-4.001509	zwingen	-0.056982804
-3.4355054	Versteck	-0.056982804
-4.001509	Zünders	-0.056982804
-3.5498152	verraten	-0.23593047
-4.001509	103	-0.056982804
-3.7053986	6.	-0.056982804
-3.8129117	Love	-0.056982804
-4.001509	17.02.1997	-0.056982804
-3.8129117	Giftgasanschlag	-0.056982804
-4.001509	hört	-0.056982804
-4.001509	verheiratetes	-0.056982804
-4.001509	Paar	-0.056982804
-3.5498152	Terrorist	-0.056982804
-4.001509	Perry	-0.056982804
-3.7053986	Bauer	-0.056982804
-3.7053986	Um	-0.13730438
-3.8129117	herauszufinden	-0.056982804
-4.001509	wann	-0.056982804
-3.8129117	wo	-0.05698283
-4.001509	zuschlagen	-0.056982804
-3.8129117	auszugeben	-0.20296301
-3.7053986	Bauers	-0.056982804
-3.8129117	Aktionen	-0.056982804
-3.8129117	einzuschleusen	-0.056982804
-3.8129117	leicht	-0.056982804
-4.001509	spielen	-0.056982804
-3.7053986	tatsächlich	-0.056982804
-3.8129117	zueinander	-0.056982804
-3.8129117	hingezogen	-0.056982804
-3.8129117	fühlen	-0.056982804
-4.001509	Villa	-0.056982804
-4.001509	ständig	-0.056982804
-4.001509	Kameras	-0.056982804
-3.7053986	überwacht	-0.056982804
-3.27031	finden	-0.056982804
-4.001509	zentrale	-0.056982804
-4.001509	U-Bahnstation	-0.056982804
-3.7053986	plant	-0.056982804
-2.8081548	gelingt	-0.5080874
-4.001509	Schläger	-0.056982804
-4.001509	Terrorchef	-0.056982804
-4.001509	U-Bahnschaft	-0.056982804
-3.8129117	schachmatt	-0.20296301
-4.001509	setzen	-0.056982804
-3.206527	doch	-0.079273
-3.5498152	Bombe	-0.056982804
-4.001509	tickt	-0.056982804
-4.001509	106	-0.056982804
-3.8129117	7.	-0.056982804
-4.001509	Treason	-0.056982804
-4.001509	24.02.1997	-0.056982804
-3.5498152	Verrat	-0.056982804
-3.8129117	08.02.1999	-0.20296301
-3.5498152	andere	-0.056982804
-3.0172164	durch	-0.10040961
-4.001509	dramatisch	-0.056982804
-3.5498152	scheitert	-0.12386797
-3.7053986	einige	-0.056982804
-4.001509	Beteiligten	-0.056982804
-4.001509	kostet	-0.056982804
-2.8081548	nur	-0.07023327
-4.001509	Verräter	-0.056982804
-3.7053986	eigenen	-0.05698283
-3.8129117	Reihen	-0.056982804
-3.7053986	Schuld	-0.056982804
-4.001509	Desaster	-0.056982804
-2.7850747	haben	-0.21247207
-4.001509	Auf	-0.056982804
-4.001509	eigen	-0.056982804
-3.8129117	Faust	-0.056982804
-4.001509	Informationsleck	-0.056982804
-3.7053986	Spur	-0.05698283
-4.001509	Angestellten	-0.056982804
-4.001509	Roger	-0.056982804
-3.7053986	gesteht	-0.1486662
-4.001509	gegnerische	-0.056982804
-3.8129117	Partei	-0.056982804
-3.0573788	seinen	-0.07815366
-3.27031	Sohn	-0.056982804
-3.5498152	entführt	-0.056982804
-4.001509	drohten	-0.056982804
-3.4355054	töten	-0.056982804
-4.001509	wenn	-0.056982804
-4.001509	weitergeben	-0.056982804
-4.001509	Heimlich	-0.056982804
-3.0172164	versucht	-0.12761016
-3.8129117	Rettung	-0.20296301
-4.001509	Kindes	-0.056982804
-3.7053986	helfen	-0.10040961
-4.001509	Rogers	-0.056982804
-4.001509	Schreibtisch	-0.056982804
-3.7053986	plötzlich	-0.056982804
-3.7053986	verdächtig	-0.056982804
-4.001509	leer	-0.056982804
-4.001509	108	-0.056982804
-3.7053986	8.	-0.056982804
-4.001509	Escape	-0.056982804
-4.001509	03.03.1997	-0.056982804
-4.001509	Schmutziges	-0.056982804
-3.3451	Spiel	-0.056982804
-4.001509	unglücklich	-0.056982804
-3.8129117	Arbeit	-0.056982804
-3.7053986	zwingt	-0.056982804
-3.7053986	Eric	-0.056982804
-4.001509	Webber	-0.056982804
-4.001509	Beamter	-0.056982804
-4.001509	Fluchthilfe	-0.056982804
-3.8129117	anbietet	-0.056982804
-3.8129117	trauen	-0.20296301
-4.001509	Loyalität	-0.056982804
-4.001509	Probe	-0.056982804
-3.5498152	stellen	-0.056982804
-3.8129117	Erics	-0.056982804
-4.001509	nachdenkt	-0.056982804
-2.9465656	Mission	-0.06956107
-4.001509	verwickelt	-0.056982804
-3.3451	Ein	-0.056982804
-4.001509	südamerikanischer	-0.056982804
-4.001509	Terroristenführer	-0.056982804
-4.001509	Cassian	-0.056982804
-3.4355054	Perez	-0.10964145
-4.001509	US-Marines	-0.056982804
-4.001509	gekidnappt	-0.056982804
-3.4355054	verlangt	-0.13730438
-4.001509	Austausch	-0.056982804
-4.001509	Freilassung	-0.056982804
-4.001509	mehrerer	-0.056982804
-4.001509	inhaftierter	-0.056982804
-3.206527	Terroristen	-0.12645526
-4.001509	kidnapped	-0.056982804
-3.7053986	Bruder	-0.056982804
-3.5498152	bereit	-0.2676499
-4.001509	verhandeln	-0.056982804
-4.001509	Marines	-0.056982804
-3.7053986	zweiten	-0.056982804
-4.001509	Marine	-0.056982804
-3.3451	kommen	-0.08913906
-4.001509	küssen	-0.056982804
-4.001509	leidenschaftlich	-0.056982804
-4.001509	Fluch	-0.056982804
-4.001509	begleiten	-0.056982804
-3.8129117	längst	-0.056982804
-3.8129117	wusste	-0.056982804
-3.5498152	eliminiert	-0.23593047
-4.001509	Schicksal	-0.056982804
-4.001509	jedem	-0.056982804
-4.001509	Fahnenflüchtigen	-0.056982804
-3.5498152	droht	-0.056982804
-3.5498152	gegenüber	-0.056982804
-4.001509	geschäftsmäßig	-0.056982804
-4.001509	kühl	-0.056982804
-3.8129117	verhält	-0.056982804
-3.7053986	manipuliert	-0.056982804
-3.5498152	Flucht	-0.10040961
-3.7053986	verhindern	-0.23593047
-4.001509	So	-0.056982804
-3.5498152	gerettet	-0.12386797
-4.001509	welchem	-0.056982804
-4.001509	Preis	-0.056982804
-3.0573788	?	-0.8811061
-3.8129117	109	-0.056982804
-3.8129117	9.	-0.056982804
-3.8129117	Gray	-0.056982804
-4.001509	10.03.1997	-0.056982804
-3.7053986	1	-0.056982804
-3.8129117	22.02.1999	-0.20296301
-4.001509	Krimineller	-0.056982804
-3.5498152	Harding	-0.056982804
-4.001509	Computersystem	-0.056982804
-4.001509	eingeschlichen	-0.056982804
-4.001509	stiehlt	-0.056982804
-3.5498152	Liste	-0.10040961
-4.001509	Angaben	-0.056982804
-3.8129117	Decknamen	-0.056982804
-3.7053986	aller	-0.056982804
-3.7053986	arrangiert	-0.056982804
-4.001509	Auktion	-0.056982804
-4.001509	skrupelloser	-0.056982804
-4.001509	Ilya	-0.056982804
-3.3451	Benko	-0.056982804
-4.001509	wertvollen	-0.056982804
-3.8129117	meistbietend	-0.056982804
-4.001509	ersteigert	-0.056982804
-2.9151294	können	-0.26364568
-4.001509	reist	-0.056982804
-4.001509	Prag	-0.056982804
-4.001509	überbietet	-0.056982804
-3.5498152	seinem	-0.056982804
-3.7053986	verspricht	-0.056982804
-4.001509	Dateien	-0.056982804
-4.001509	zurückzugeben	-0.056982804
-4.001509	wiederbekommt	-0.056982804
-2.7850747	zum	-0.08251452
-4.001509	Glück	-0.056982804
-3.8129117	konnte	-0.056982804
-4.001509	steckte	-0.056982804
-4.001509	Diskette	-0.056982804
-3.5498152	kurz	-0.056982804
-4.001509	Zeitschrift	-0.056982804
-4.001509	Mitreisenden	-0.056982804
-4.001509	Bus	-0.056982804
-4.001509	Fahrgast	-0.056982804
-4.001509	Wellman	-0.056982804
-3.8129117	brisanten	-0.056982804
-3.8129117	List	-0.056982804
-4.001509	Witwer	-0.056982804
-4.001509	fühlt	-0.056982804
-3.27031	schließlich	-0.056982804
-3.206527	bringen	-0.18845692
-3.8129117	festzunehmen	-0.056982804
-4.001509	110	-0.056982804
-3.7053986	10	-0.1486662
-4.001509	Choice	-0.056982804
-4.001509	07.04.1997	-0.056982804
-4.001509	Doppelleben	-0.056982804
-4.001509	großer	-0.056982804
-4.001509	Drogendeal	-0.056982804
-4.001509	schief	-0.056982804
-3.8129117	fordert	-0.056982804
-4.001509	mehrere	-0.056982804
-4.001509	Tote	-0.056982804
-4.001509	Untersuchung	-0.056982804
-4.001509	Falls	-0.056982804
-3.7053986	beauftragt	-0.056982804
-4.001509	Einer	-0.056982804
-3.7053986	Männer	-0.056982804
-4.001509	Undercover-Mitarbeiter	-0.056982804
-4.001509	Verbreitung	-0.056982804
-4.001509	Heroin	-0.056982804
-4.001509	Nordamerika	-0.056982804
-3.5498152	Europa	-0.05698283
-4.001509	Wirklichkeit	-0.056982804
-3.8129117	Spion	-0.056982804
-4.001509	Gegenseite	-0.056982804
-4.001509	Schuldigen	-0.056982804
-3.8129117	dingfest	-0.20296301
-3.4355054	machen	-0.1486662
-4.001509	111	-0.056982804
-3.8129117	11	-0.20296301
-4.001509	Rescue	-0.056982804
-4.001509	14.04.1997	-0.056982804
-4.001509	Geballte	-0.056982804
-4.001509	Ladung	-0.056982804
-3.8129117	01.03.1999	-0.20296301
-3.8129117	Broda	-0.056982804
-4.001509	Zentraleuropa	-0.056982804
-3.8129117	sprengt	-0.056982804
-3.7053986	Lager	-0.056982804
-4.001509	chemische	-0.056982804
-4.001509	Waffen	-0.056982804
-3.7053986	angeschossen	-0.1486662
-4.001509	zurückgelassen	-0.056982804
-3.7053986	kidnappt	-0.056982804
-4.001509	Krankenschwester	-0.056982804
-3.4355054	Angie	-0.05698283
-4.001509	Georgiev	-0.056982804
-4.001509	Glücklicherweise	-0.056982804
-3.5498152	Seite	-0.05698283
-4.001509	Wunden	-0.056982804
-4.001509	versorgen	-0.056982804
-3.5498152	geben	-0.056982804
-4.001509	Kosmetikvertreterinnen	-0.056982804
-4.001509	reisen	-0.056982804
-3.7053986	löst	-0.056982804
-4.001509	Herzanfall	-0.056982804
-3.5498152	Krankenhaus	-0.056982804
-4.001509	gelangen	-0.056982804
-3.8129117	vermuten	-0.056982804
-3.7053986	Das	-0.056982804
-3.8129117	befindet	-0.056982804
-4.001509	Nähe	-0.056982804
-4.001509	Waffenlagers	-0.056982804
-3.8129117	lösen	-0.056982804
-4.001509	Rätsel	-0.056982804
-3.5498152	Aufenthaltsort	-0.12386797
-3.7053986	versuchen	-0.056982804
-4.001509	entkommen	-0.056982804
-3.4355054	vom	-0.05698283
-4.001509	Feind	-0.056982804
-3.7053986	genommen	-0.056982804
-3.4355054	Versuch	-0.10964145
-4.001509	umkommt	-0.056982804
-4.001509	112	-0.056982804
-3.7053986	12	-0.1486662
-4.001509	Innocent	-0.056982804
-4.001509	21.04.1997	-0.056982804
-4.001509	Super-Gau	-0.056982804
-3.7053986	entdeckt	-0.056982804
-4.001509	entsicherter	-0.056982804
-4.001509	nuklearer	-0.056982804
-3.7053986	Sprengkopf	-0.056982804
-3.8129117	Land	-0.056982804
-3.4355054	eingeschleust	-0.16957755
-3.8129117	Kassar	-0.056982804
-3.5498152	verantwortlich	-0.056982804
-4.001509	beamt	-0.056982804
-4.001509	Hologramm	-0.056982804
-3.8129117	Hauptquartier	-0.056982804
-4.001509	verkündet	-0.056982804
-4.001509	Großstadt	-0.056982804
-3.8129117	versteckt	-0.056982804
-3.5498152	verrät	-0.10964145
-4.001509	welcher	-0.056982804
-3.7053986	24	-0.1486662
-3.4355054	Stunden	-0.05698283
-4.001509	hochgehen	-0.056982804
-3.7053986	Botschaft	-0.056982804
-3.3451	bringt	-0.10040961
-4.001509	Pizzabote	-0.056982804
-3.5498152	Rudy	-0.056982804
-4.001509	Haynes	-0.056982804
-4.001509	ungewollt	-0.056982804
-4.001509	Zeuge	-0.056982804
-4.001509	Flugzeug	-0.056982804
-4.001509	entladen	-0.056982804
-4.001509	Befragung	-0.056982804
-4.001509	kooperiert	-0.056982804
-4.001509	ganzer	-0.056982804
-3.8129117	Linie	-0.056982804
-4.001509	sobald	-0.056982804
-3.5498152	braucht	-0.12386797
-3.3451	da	-0.11388483
-3.8129117	zuviel	-0.056982804
-4.001509	Kassars	-0.056982804
-4.001509	Partner	-0.056982804
-4.001509	identifiziert	-0.056982804
-4.001509	Sprengkörper	-0.056982804
-4.001509	lokalisieren	-0.056982804
-3.5498152	überzeugt	-0.12386797
-3.3451	lassen	-0.09393351
-4.001509	recht	-0.056982804
-3.8129117	einfach	-0.056982804
-4.001509	gestrickt	-0.056982804
-4.001509	echte	-0.056982804
-4.001509	Bedrohung	-0.056982804
-4.001509	darstellt	-0.056982804
-4.001509	114	-0.056982804
-3.8129117	13	-0.20296301
-4.001509	Recruit	-0.056982804
-4.001509	22.06.1997	-0.056982804
-4.001509	Psychopatin	-0.056982804
-3.8129117	08.03.1999	-0.056982804
-4.001509	beauftragen	-0.056982804
-3.1016374	damit	-0.12000761
-4.001509	Anwärterin	-0.056982804
-3.5498152	Posten	-0.056982804
-4.001509	beurteilen	-0.056982804
-3.27031	Karyn	-0.05698283
-3.7053986	gut	-0.056982804
-3.7053986	genug	-0.056982804
-3.5498152	Mitglied	-0.10040961
-4.001509	Beurteilung	-0.056982804
-3.8129117	Test	-0.056982804
-4.001509	sowohl	-0.056982804
-4.001509	begleitet	-0.056982804
-3.5498152	geheimen	-0.056982804
-3.8129117	Brief	-0.056982804
-4.001509	Unterfangen	-0.056982804
-3.7053986	Kollege	-0.056982804
-3.7053986	Brian	-0.056982804
-3.5498152	tot	-0.056982804
-3.8129117	aufgefunden	-0.056982804
-4.001509	Trainer	-0.056982804
-3.8129117	vergewaltigt	-0.056982804
-3.7053986	möchte	-0.056982804
-3.8129117	glauben	-0.20296301
-3.1016374	jedoch	-0.108847655
-3.5498152	Neue	-0.056982804
-3.4355054	sagt	-0.056982804
-4.001509	siebten	-0.056982804
-4.001509	Lebensjahr	-0.056982804
-4.001509	gefährliche	-0.056982804
-4.001509	Soziopathin	-0.056982804
-4.001509	umgebracht	-0.056982804
-2.7850747	gegen	-0.2506497
-4.001509	Aufnahme	-0.056982804
-4.001509	gestimmt	-0.056982804
-3.7053986	hätte	-0.056982804
-4.001509	Trotzdem	-0.056982804
-3.7053986	zögert	-0.056982804
-4.001509	grünes	-0.056982804
-4.001509	Licht	-0.056982804
-4.001509	wilden	-0.056982804
-4.001509	Schießerei	-0.056982804
-4.001509	Spaß	-0.056982804
-4.001509	spricht	-0.056982804
-4.001509	Aspirantin	-0.056982804
-3.7053986	bestätigt	-0.056982804
-3.8129117	Entscheidung	-0.056982804
-4.001509	Vorgesetzten	-0.056982804
-3.4355054	bereits	-0.05698283
-4.001509	getroffen	-0.056982804
-4.001509	besteht	-0.056982804
-4.001509	Gegensatz	-0.056982804
-3.8129117	113	-0.056982804
-3.8129117	14	-0.20296301
-4.001509	Gambit	-0.056982804
-4.001509	29.06.1997	-0.056982804
-4.001509	Schachmatt	-0.056982804
-3.7053986	Eine	-0.10964145
-3.7053986	terroristische	-0.056982804
-4.001509	Kriminellen	-0.056982804
-4.001509	Gregor	-0.056982804
-3.4355054	Kessler	-0.056982804
-4.001509	angeheuert	-0.056982804
-3.5498152	großen	-0.05698283
-4.001509	Menge	-0.056982804
-3.8129117	radioaktiven	-0.056982804
-4.001509	Kobalts	-0.056982804
-4.001509	Trinkwasserversorgung	-0.056982804
-3.8129117	vergiften	-0.056982804
-4.001509	Zwar	-0.056982804
-4.001509	Kobalt	-0.056982804
-3.1016374	schon	-0.10964145
-4.001509	weitergegeben	-0.056982804
-3.8129117	Mit	-0.056982804
-4.001509	Materials	-0.056982804
-4.001509	herauszubekommen	-0.056982804
-4.001509	brutalsten	-0.056982804
-4.001509	Methoden	-0.056982804
-4.001509	immun	-0.056982804
-4.001509	Beinahe	-0.056982804
-3.7053986	sogar	-0.056982804
-4.001509	Spieß	-0.056982804
-4.001509	umzudrehen	-0.056982804
-3.8129117	denn	-0.056982804
-4.001509	intime	-0.056982804
-4.001509	Details	-0.056982804
-3.7053986	Madelines	-0.056982804
-3.5498152	Vergangenheit	-0.056982804
-2.8081548	unter	-0.12919275
-3.8129117	Druck	-0.056982804
-3.8129117	setzten	-0.056982804
-4.001509	entscheidet	-0.056982804
-4.001509	ermöglichen	-0.056982804
-3.7053986	davon	-0.056982804
-4.001509	ausgehen	-0.056982804
-4.001509	zurückzubekommen	-0.056982804
-4.001509	folgen	-0.056982804
-4.001509	Völlig	-0.056982804
-4.001509	überraschend	-0.056982804
-4.001509	meldet	-0.056982804
-4.001509	übergeben	-0.056982804
-4.001509	115	-0.056982804
-3.4355054	15	-0.3328405
-4.001509	Obsessed	-0.056982804
-4.001509	20.07.1997	-0.056982804
-4.001509	Besessen	-0.056982804
-3.8129117	15.03.1999	-0.056982804
-3.4355054	David	-0.05698283
-3.7053986	Fanning	-0.056982804
-4.001509	Mörder	-0.056982804
-4.001509	besitzt	-0.056982804
-3.8129117	wichtige	-0.056982804
-3.8129117	Dokumente	-0.056982804
-3.8129117	denen	-0.056982804
-4.001509	globale	-0.056982804
-3.8129117	Sicherheit	-0.056982804
-3.7053986	könnte	-0.31683463
-4.001509	Bevor	-0.056982804
-4.001509	festnehmen	-0.056982804
-3.7053986	müssen	-0.056982804
-3.7053986	erst	-0.056982804
-3.7053986	zerstören	-0.31683463
-3.8129117	schleicht	-0.20296301
-4.001509	Fitnesstrainer	-0.056982804
-3.8129117	Fannings	-0.056982804
-3.206527	dessen	-0.056982804
-4.001509	Haus	-0.056982804
-3.5498152	Lisa	-0.056982804
-4.001509	verführen	-0.056982804
-4.001509	betrügen	-0.056982804
-4.001509	mies	-0.056982804
-3.8129117	behandelt	-0.056982804
-4.001509	einverstanden	-0.056982804
-4.001509	Lisas	-0.056982804
-3.8129117	Gefühlen	-0.056982804
-3.7053986	spielt	-0.056982804
-3.7053986	erfüllt	-0.056982804
-4.001509	pflichtschuldig	-0.056982804
-4.001509	unterstützt	-0.056982804
-4.001509	Dokumenten	-0.056982804
-4.001509	erschüttert	-0.056982804
-3.7053986	beschließt	-0.31683463
-3.7053986	nie	-0.05698283
-3.5498152	Beziehung	-0.056982804
-4.001509	ausnutzen	-0.056982804
-4.001509	117	-0.056982804
-3.8129117	16	-0.20296301
-4.001509	Noise	-0.056982804
-4.001509	27.07.1997	-0.056982804
-4.001509	Kein	-0.056982804
-4.001509	harter	-0.056982804
-4.001509	Kämpfer	-0.056982804
-4.001509	Auftrages	-0.056982804
-4.001509	Computerspezialist	-0.056982804
-4.001509	mal	-0.056982804
-4.001509	direkt	-0.056982804
-3.8129117	Killer	-0.056982804
-3.8129117	attackiert	-0.056982804
-4.001509	Nur	-0.05698283
-3.1509233	Hilfe	-0.056982804
-4.001509	erledigen	-0.056982804
-3.5498152	tödliche	-0.05698283
-4.001509	Kugel	-0.056982804
-4.001509	verpasst	-0.056982804
-4.001509	Obwohl	-0.056982804
-3.7053986	letzter	-0.10040961
-4.001509	Minute	-0.056982804
-4.001509	schafft	-0.056982804
-3.7053986	bleibt	-0.05698283
-3.8129117	Angst	-0.056982804
-4.001509	Panik	-0.056982804
-4.001509	übermannt	-0.056982804
-3.8129117	verursacht	-0.056982804
-3.8129117	fast	-0.056982804
-3.8129117	Mitgliedern	-0.056982804
-4.001509	Schnell	-0.056982804
-4.001509	Computerfreak	-0.056982804
-4.001509	Trauma	-0.056982804
-4.001509	allgemeinen	-0.056982804
-3.8129117	Gedanken	-0.056982804
-3.7053986	eliminieren	-0.12386797
-4.001509	Wird	-0.056982804
-3.8129117	gelingen	-0.056982804
-3.8129117	Freund	-0.056982804
-4.001509	119	-0.056982804
-3.8129117	17	-0.20296301
-4.001509	War	-0.056982804
-4.001509	03.08.1997	-0.056982804
-4.001509	Krieg	-0.056982804
-3.8129117	22.03.1999	-0.056982804
-3.5498152	drei	-0.05698283
-4.001509	Killern	-0.056982804
-4.001509	Müh	-0.056982804
-3.8129117	Not	-0.056982804
-4.001509	verteidigen	-0.056982804
-4.001509	Angriff	-0.056982804
-3.7053986	feindlichen	-0.056982804
-3.8129117	Red	-0.20296301
-4.001509	Cell	-0.056982804
-4.001509	zusammenhängt	-0.056982804
-3.0172164	alle	-0.056982804
-3.8129117	Mitglieder	-0.20296301
-3.5498152	sollen	-0.12386797
-3.7053986	Ort	-0.056982804
-4.001509	verlegen	-0.056982804
-4.001509	Gegen	-0.056982804
-4.001509	Vereinbarungen	-0.056982804
-3.4355054	diesen	-0.05698283
-4.001509	observieren	-0.056982804
-4.001509	erwischt	-0.056982804
-3.8129117	gefangengenommen	-0.20296301
-4.001509	Durch	-0.05698283
-4.001509	körperliche	-0.056982804
-4.001509	seelische	-0.056982804
-3.7053986	Folter	-0.056982804
-2.9151294	man	-0.07276339
-4.001509	Kommandozentrale	-0.056982804
-4.001509	herauszupressen	-0.056982804
-4.001509	Zunächst	-0.056982804
-4.001509	beharrlich	-0.056982804
-3.8129117	Mund	-0.056982804
-3.8129117	drohen	-0.056982804
-4.001509	quälen	-0.056982804
-3.8129117	bricht	-0.056982804
-4.001509	Schweigen	-0.056982804
-4.001509	116	-0.056982804
-3.8129117	18	-0.20296301
-4.001509	Missing	-0.056982804
-4.001509	10.08.1997	-0.056982804
-3.8129117	Väter	-0.056982804
-3.8129117	Söhne	-0.056982804
-4.001509	Bande	-0.056982804
-3.8129117	Männern	-0.056982804
-4.001509	zerschlagen	-0.056982804
-4.001509	vorhat	-0.056982804
-3.8129117	Pläne	-0.056982804
-4.001509	Raketenleitsystem	-0.056982804
-4.001509	stehlen	-0.056982804
-4.001509	besucht	-0.056982804
-3.8129117	heimlich	-0.056982804
-3.8129117	Apartment	-0.056982804
-4.001509	weiteren	-0.056982804
-3.8129117	Steven	-0.056982804
-4.001509	Wolfe	-0.056982804
-4.001509	Bandenmitglieder	-0.056982804
-4.001509	verschonen	-0.056982804
-4.001509	vertraut	-0.056982804
-4.001509	Kindheit	-0.056982804
-3.7053986	gesehen	-0.056982804
-4.001509	kennt	-0.056982804
-3.8129117	Geheimnis	-0.20296301
-4.001509	Gegenleistung	-0.056982804
-3.8129117	dafür	-0.20296301
-4.001509	Anschluss	-0.056982804
-4.001509	Diensten	-0.056982804
-4.001509	entlassen	-0.056982804
-4.001509	voller	-0.056982804
-4.001509	Erfolg	-0.056982804
-4.001509	Teil	-0.056982804
-4.001509	Abmachung	-0.056982804
-4.001509	Versprechen	-0.056982804
-4.001509	halten	-0.056982804
-4.001509	heißersehnte	-0.056982804
-3.8129117	Freiheit	-0.056982804
-3.8129117	verzichten	-0.056982804
-4.001509	118	-0.056982804
-3.7053986	19	-0.31683463
-4.001509	Voices	-0.056982804
-4.001509	17.08.1997	-0.056982804
-4.001509	Wendepunkt	-0.056982804
-3.8129117	29.03.1999	-0.056982804
-3.8129117	Park	-0.056982804
-4.001509	urplötzlich	-0.056982804
-4.001509	angegriffen	-0.056982804
-3.4355054	schnell	-0.05698283
-4.001509	niederschlägt	-0.056982804
-4.001509	Verletzte	-0.056982804
-4.001509	Polizei	-0.056982804
-4.001509	wobei	-0.056982804
-4.001509	Detective	-0.056982804
-3.5498152	Marco	-0.23593047
-3.8129117	O'Brien	-0.056982804
-3.7053986	bemerkt	-0.1486662
-4.001509	Jack	-0.056982804
-3.8129117	Crane	-0.056982804
-4.001509	langgesuchten	-0.056982804
-4.001509	Verdächtigen	-0.056982804
-4.001509	mittlerweile	-0.056982804
-4.001509	acht	-0.056982804
-3.7053986	Frauen	-0.056982804
-4.001509	ermordet	-0.056982804
-3.7053986	hinter	-0.056982804
-4.001509	Gitter	-0.056982804
-4.001509	benötigt	-0.056982804
-4.001509	Zeugenaussage	-0.056982804
-4.001509	Dank	-0.056982804
-4.001509	Augenzeugen	-0.056982804
-3.8129117	Tür	-0.056982804
-3.5498152	gerät	-0.12386797
-4.001509	arge	-0.056982804
-4.001509	Bedrängnis	-0.056982804
-4.001509	aufzufliegen	-0.056982804
-4.001509	Da	-0.056982804
-3.7053986	greift	-0.056982804
-4.001509	120	-0.056982804
-3.5498152	20	-0.20296301
-4.001509	Brainwash	-0.056982804
-4.001509	21.09.1997	-0.056982804
-4.001509	Gehirnwäsche	-0.056982804
-4.001509	Selbstmordopfers	-0.056982804
-4.001509	Cyberspace-Programm	-0.056982804
-3.7053986	wissen	-0.12386797
-3.4355054	wollen	-0.10964145
-4.001509	Mechanismus	-0.056982804
-3.8129117	funktioniert	-0.20296301
-4.001509	benutzen	-0.056982804
-4.001509	Versuchskaninchen	-0.056982804
-4.001509	durchlebt	-0.056982804
-3.7053986	junge	-0.056982804
-4.001509	erneut	-0.056982804
-4.001509	traumatisches	-0.056982804
-3.7053986	Erlebnis	-0.1486662
-4.001509	Situation	-0.056982804
-4.001509	Kontrolle	-0.056982804
-3.8129117	Experiment	-0.056982804
-4.001509	langfristig	-0.056982804
-4.001509	erschreckende	-0.056982804
-4.001509	Veränderungen	-0.056982804
-4.001509	Immer	-0.056982804
-4.001509	furchtbaren	-0.056982804
-4.001509	Halluzinationen	-0.056982804
-4.001509	heimgesucht	-0.056982804
-4.001509	verspürt	-0.056982804
-4.001509	verstärkt	-0.056982804
-4.001509	Wunsch	-0.056982804
-4.001509	Ganz	-0.056982804
-4.001509	oben	-0.056982804
-4.001509	Abschussliste	-0.056982804
-4.001509	chinesische	-0.056982804
-3.8129117	Premierminister	-0.056982804
-4.001509	grausige	-0.056982804
-4.001509	rückgängig	-0.056982804
-4.001509	Katastrophe	-0.056982804
-2.8583567	kommt	-0.20262367
-4.001509	121	-0.056982804
-3.8129117	21	-0.20296301
-4.001509	Verdict	-0.056982804
-4.001509	28.09.1997	-0.056982804
-4.001509	Urteil	-0.056982804
-3.8129117	05.04.1999	-0.056982804
-4.001509	frisch	-0.056982804
-4.001509	gewählte	-0.056982804
-4.001509	Jovan	-0.056982804
-3.5498152	Mijovich	-0.056982804
-3.5498152	während	-0.12386797
-4.001509	Feier	-0.056982804
-4.001509	gegnerischen	-0.056982804
-4.001509	gewaltsam	-0.056982804
-4.001509	gestürzt	-0.056982804
-4.001509	Ball	-0.056982804
-4.001509	geschleust	-0.056982804
-4.001509	schützen	-0.056982804
-4.001509	eskaliert	-0.056982804
-4.001509	gewisser	-0.056982804
-3.8129117	Zoran	-0.056982804
-3.8129117	Brunner	-0.056982804
-3.27031	nimmt	-0.080130436
-4.001509	Gäste	-0.056982804
-4.001509	beschuldigt	-0.056982804
-4.001509	abscheulichsten	-0.056982804
-4.001509	Kriegsverbrechen	-0.056982804
-3.8129117	Stelle	-0.056982804
-4.001509	hinrichten	-0.056982804
-4.001509	Ohr	-0.056982804
-4.001509	versteckten	-0.056982804
-4.001509	Sender	-0.056982804
-4.001509	darüber	-0.056982804
-4.001509	informiert	-0.056982804
-3.8129117	unschuldig	-0.056982804
-3.7053986	sei	-0.056982804
-4.001509	Sofort	-0.056982804
-3.8129117	all	-0.056982804
-4.001509	Überzeugungskraft	-0.056982804
-3.8129117	Tatsächlich	-0.12386797
-4.001509	langem	-0.056982804
-4.001509	Reden	-0.056982804
-4.001509	Bitten	-0.056982804
-4.001509	überzeugen	-0.056982804
-4.001509	Krise	-0.056982804
-3.8129117	vorbei	-0.056982804
-4.001509	belogen	-0.056982804
-4.001509	122	-0.056982804
-3.8129117	22	-0.20296301
-4.001509	Mercy	-0.056982804
-4.001509	05.10.1997	-0.056982804
-4.001509	Gnade	-0.056982804
-3.8129117	junger	-0.056982804
-4.001509	Chemiker	-0.056982804
-4.001509	Fred	-0.056982804
-3.4355054	Shays	-0.05698283
-3.8129117	entwickelt	-0.056982804
-4.001509	nachweisbaren	-0.056982804
-3.8129117	Sprengstoff	-0.056982804
-3.8129117	europäische	-0.056982804
-3.7053986	Tyler	-0.056982804
-3.7053986	unbedingt	-0.056982804
-4.001509	kaufen	-0.056982804
-4.001509	Übergabe	-0.056982804
-4.001509	gekettet	-0.056982804
-3.7053986	befiehlt	-0.12386797
-4.001509	unschuldigen	-0.056982804
-4.001509	Wegen	-0.056982804
-3.8129117	ihres	-0.056982804
-4.001509	Versagens	-0.056982804
-4.001509	begehen	-0.056982804
-3.3451	zurück	-0.1486662
-4.001509	stürmen	-0.056982804
-4.001509	einziger	-0.056982804
-3.8129117	außer	-0.056982804
-4.001509	schießt	-0.056982804
-4.001509	professionell	-0.056982804
-3.8129117	zuvor	-0.20296301
-4.001509	frei	-0.056982804
-4.001509	zielt	-0.056982804
-3.8129117	statt	-0.056982804
-4.001509	Shys	-0.056982804
-4.001509	außen	-0.056982804
-3.7053986	Gebäude	-0.16957755
-4.001509	schleichen	-0.056982804
-4.001509	Kurz	-0.056982804
-3.3451	darauf	-0.12761016
-3.8129117	explodiert	-0.056982804
-3.7053986	darin	-0.056982804
-3.8129117	befinden	-0.20296301
-4.001509	endlich	-0.056982804
-4.001509	201	-0.056982804
-3.8129117	23	-0.20296301
-4.001509	Hard	-0.056982804
-4.001509	Landing	-0.056982804
-4.001509	04.01.1998	-0.056982804
-3.7053986	Maulwurf	-0.056982804
-4.001509	27.01.2001	-0.056982804
-3.7053986	wirklich	-0.056982804
-4.001509	Angeblich	-0.056982804
-4.001509	Zerstörung	-0.056982804
-4.001509	Stützpunktes	-0.056982804
-3.7053986	Freiheitsliga	-0.056982804
-3.5498152	ums	-0.23593047
-3.8129117	gekommen	-0.056982804
-4.001509	Genau	-0.056982804
-3.7053986	begeht	-0.056982804
-3.1509233	Zeit	-0.08251452
-4.001509	zunehmend	-0.056982804
-4.001509	Anschläge	-0.056982804
-4.001509	Attacken	-0.056982804
-4.001509	vereiteln	-0.056982804
-4.001509	Gegenmaßnahmen	-0.056982804
-4.001509	Schritt	-0.056982804
-4.001509	voraus	-0.056982804
-4.001509	Nun	-0.05698283
-3.8129117	Liga	-0.056982804
-4.001509	französischen	-0.056982804
-4.001509	Atomwissenschaftler	-0.056982804
-3.7053986	entführen	-0.1486662
-4.001509	Entführung	-0.056982804
-4.001509	geschehen	-0.056982804
-4.001509	Kidnapper	-0.056982804
-4.001509	verfolgen	-0.056982804
-3.8129117	Stützpunkt	-0.056982804
-3.3451	ausfindig	-0.26877698
-3.8129117	durchführen	-0.056982804
-3.7053986	Falle	-0.05698283
-3.8129117	Sekunde	-0.05698283
-4.001509	befürchtet	-0.056982804
-4.001509	202	-0.056982804
-4.001509	Spec	-0.056982804
-4.001509	Ops	-0.056982804
-4.001509	11.01.1998	-0.056982804
-3.3451	Verdacht	-0.10040961
-4.001509	03.02.2001	-0.056982804
-4.001509	heimlicher	-0.056982804
-4.001509	kehrte	-0.056982804
-4.001509	geglaubte	-0.056982804
-4.001509	verhört	-0.056982804
-3.5498152	letzten	-0.056982804
-3.8129117	sechs	-0.056982804
-4.001509	Monaten	-0.056982804
-4.001509	geschah	-0.056982804
-4.001509	behaupten	-0.056982804
-4.001509	verstricken	-0.056982804
-4.001509	widersprüchliche	-0.056982804
-3.8129117	Aussagen	-0.056982804
-4.001509	Deshalb	-0.056982804
-4.001509	Spezial-Agent	-0.056982804
-3.27031	Jürgen	-0.056982804
-4.001509	zugeteilt	-0.056982804
-4.001509	physisches	-0.056982804
-4.001509	psychisches	-0.056982804
-4.001509	Aufbautraining	-0.056982804
-4.001509	absolvieren	-0.056982804
-4.001509	Dabei	-0.056982804
-4.001509	Zufällig	-0.056982804
-4.001509	Überlebenden	-0.056982804
-4.001509	Angriffs	-0.056982804
-4.001509	verhören	-0.056982804
-3.8129117	festgehalten	-0.056982804
-4.001509	Gefangenen	-0.056982804
-4.001509	erinnern	-0.056982804
-3.8129117	geraten	-0.056982804
-4.001509	gesühnt	-0.056982804
-4.001509	Überraschende	-0.056982804
-4.001509	Schützenhilfe	-0.056982804
-3.5498152	erhalten	-0.12386797
-4.001509	203	-0.056982804
-3.8129117	25	-0.20296301
-4.001509	Third	-0.056982804
-4.001509	Person	-0.056982804
-4.001509	18.01.1998	-0.056982804
-4.001509	Bewährungsprobe	-0.056982804
-4.001509	10.02.2001	-0.056982804
-3.8129117	Noch	-0.056982804
-3.5498152	alte	-0.10964145
-3.8129117	Position	-0.056982804
-4.001509	versetzen	-0.056982804
-4.001509	obwohl	-0.056982804
-4.001509	Jürgens	-0.056982804
-4.001509	Bewertung	-0.056982804
-3.1509233	sehr	-0.08544629
-4.001509	positiv	-0.056982804
-4.001509	ausfiel	-0.056982804
-4.001509	wendet	-0.056982804
-4.001509	rät	-0.056982804
-3.27031	Team	-0.056982804
-3.5498152	aufzunehmen	-0.23593047
-4.001509	beobachten	-0.056982804
-3.3451	Einsatz	-0.095289305
-4.001509	bewährt	-0.056982804
-4.001509	glänzend	-0.056982804
-3.3451	ahnt	-0.10040961
-4.001509	reagiert	-0.056982804
-4.001509	eifersüchtig	-0.056982804
-4.001509	schlecht	-0.056982804
-4.001509	Schlägerei	-0.056982804
-4.001509	unentschieden	-0.056982804
-4.001509	ausgeht	-0.056982804
-4.001509	bedingungslos	-0.056982804
-4.001509	aufeinander	-0.056982804
-4.001509	angewiesen	-0.056982804
-4.001509	204	-0.056982804
-3.8129117	26	-0.20296301
-4.001509	Approaching	-0.056982804
-4.001509	Zero	-0.056982804
-4.001509	01.02.1998	-0.056982804
-3.7053986	Liebe	-0.056982804
-4.001509	zerbricht	-0.056982804
-4.001509	24.02.2001	-0.056982804
-4.001509	Trägerrakete	-0.056982804
-4.001509	militärischen	-0.056982804
-4.001509	Nachrichten-Satelliten	-0.056982804
-4.001509	Start	-0.056982804
-4.001509	Nordsee	-0.056982804
-4.001509	Trümmerteile	-0.056982804
-4.001509	Wer	-0.056982804
-4.001509	Bordcomputers	-0.056982804
-3.8129117	Pentagon	-0.056982804
-4.001509	wochenlang	-0.056982804
-4.001509	lahm	-0.056982804
-3.8129117	legen	-0.056982804
-3.8129117	neuer	-0.056982804
-4.001509	Code	-0.056982804
-3.8129117	gefunden	-0.056982804
-4.001509	vermutet	-0.056982804
-4.001509	Fünfte	-0.056982804
-3.8129117	Orden	-0.20296301
-4.001509	Computers	-0.056982804
-4.001509	bemächtigt	-0.056982804
-4.001509	wundert	-0.056982804
-4.001509	viele	-0.056982804
-4.001509	Freiheiten	-0.056982804
-4.001509	geniest	-0.056982804
-4.001509	belastendes	-0.056982804
-3.8129117	Material	-0.056982804
-4.001509	Führungskräfte	-0.056982804
-4.001509	gesammelt	-0.056982804
-4.001509	Fünften	-0.056982804
-3.8129117	Ordens	-0.056982804
-4.001509	dramatischen	-0.056982804
-4.001509	Zwischenfall	-0.056982804
-4.001509	bezahlt	-0.056982804
-3.8129117	205	-0.056982804
-3.8129117	27	-0.20296301
-4.001509	New	-0.056982804
-4.001509	Regime	-0.056982804
-4.001509	01.03.1998	-0.056982804
-4.001509	Führungswechsel	-0.056982804
-4.001509	28.02.2001	-0.056982804
-4.001509	Einsatzbesprechung	-0.056982804
-4.001509	offenbar	-0.056982804
-4.001509	wahnsinnig	-0.056982804
-4.001509	gewordenen	-0.056982804
-4.001509	Sektionsagenten	-0.056982804
-4.001509	lebensgefährlich	-0.056982804
-3.8129117	verletzt	-0.056982804
-4.001509	Stellvertretend	-0.056982804
-3.7053986	gewissen	-0.056982804
-3.7053986	Petrosian	-0.056982804
-3.8129117	Leitung	-0.056982804
-4.001509	strukturiert	-0.056982804
-3.8129117	rechten	-0.056982804
-3.4355054	Hand	-0.056982804
-4.001509	lernt	-0.056982804
-3.8129117	Gefahren	-0.056982804
-3.8129117	Macht	-0.056982804
-4.001509	Kollegen	-0.056982804
-4.001509	ausspionieren	-0.056982804
-3.8129117	herausstellt	-0.20296301
-3.7053986	Anschlag	-0.056982804
-3.7053986	überleben	-0.1486662
-4.001509	eng	-0.056982804
-3.8129117	abgeben	-0.20296301
-4.001509	fängt	-0.056982804
-4.001509	recherchieren	-0.056982804
-4.001509	langer	-0.056982804
-3.8129117	vorbereitet	-0.056982804
-4.001509	ausgeklügelten	-0.056982804
-4.001509	überführen	-0.056982804
-4.001509	206	-0.056982804
-4.001509	28	-0.056982804
-4.001509	Mandatory	-0.056982804
-4.001509	Refusal	-0.056982804
-4.001509	08.03.1998	-0.056982804
-3.7053986	29	-0.31683463
-4.001509	Einsame	-0.056982804
-4.001509	03.03.2001	-0.056982804
-4.001509	Mitläufer	-0.056982804
-4.001509	Terroristenszene	-0.056982804
-3.8129117	Dorian	-0.056982804
-3.7053986	Enquist	-0.056982804
-4.001509	größere	-0.056982804
-4.001509	Mengen	-0.056982804
-4.001509	Plastikbrennstoffs	-0.056982804
-4.001509	Semtex	-0.056982804
-4.001509	liefern	-0.056982804
-4.001509	ausspielen	-0.056982804
-4.001509	Funkverbindung	-0.056982804
-3.8129117	falsche	-0.056982804
-4.001509	ausgesetzt	-0.056982804
-4.001509	Alleingang	-0.056982804
-4.001509	Geisel	-0.056982804
-3.7053986	gesamte	-0.056982804
-3.8129117	Operation	-0.056982804
-4.001509	Ruder	-0.056982804
-3.7053986	laufen	-0.056982804
-4.001509	eingreifen	-0.056982804
-4.001509	207	-0.056982804
-4.001509	Half-Life	-0.056982804
-4.001509	22.03.1998	-0.056982804
-4.001509	Zwiespalt	-0.056982804
-4.001509	07.03.2001	-0.056982804
-3.8129117	welche	-0.056982804
-3.7053986	Terroristengruppe	-0.056982804
-4.001509	Bombenanschlag	-0.056982804
-4.001509	Museumspark	-0.056982804
-4.001509	vieles	-0.056982804
-4.001509	Beschaffenheit	-0.056982804
-3.5498152	ohne	-0.05698283
-4.001509	beschattet	-0.056982804
-3.7053986	René	-0.056982804
-4.001509	Dian	-0.056982804
-4.001509	Begründer	-0.056982804
-3.7053986	Gruppe	-0.056982804
-4.001509	L'Heure	-0.056982804
-4.001509	Sanguine	-0.056982804
-3.8129117	sorgt	-0.056982804
-4.001509	Festnahme	-0.056982804
-3.8129117	Fall	-0.056982804
-4.001509	kollaboriert	-0.056982804
-3.7053986	ausgesprochen	-0.056982804
-4.001509	208	-0.056982804
-3.8129117	30	-0.20296301
-3.8129117	Darkness	-0.056982804
-4.001509	Visible	-0.056982804
-4.001509	29.03.1998	-0.056982804
-4.001509	Dunkle	-0.056982804
-4.001509	Kanäle	-0.056982804
-4.001509	10.03.2001	-0.056982804
-4.001509	Balkanstaat	-0.056982804
-3.8129117	herrscht	-0.056982804
-4.001509	brutaler	-0.056982804
-4.001509	Bürgerkrieg	-0.056982804
-4.001509	Rebellen	-0.056982804
-4.001509	ethnische	-0.056982804
-4.001509	Säuberungen	-0.056982804
-3.8129117	Köpfe	-0.056982804
-4.001509	Radovan	-0.056982804
-4.001509	Luka	-0.056982804
-3.8129117	unterhält	-0.056982804
-3.7053986	Kontakte	-0.056982804
-4.001509	Waffenhandel	-0.056982804
-4.001509	erneuter	-0.056982804
-4.001509	Waffendeal	-0.056982804
-4.001509	vereitelt	-0.056982804
-4.001509	mitten	-0.056982804
-4.001509	Krisengebiet	-0.056982804
-4.001509	Zeugen	-0.056982804
-4.001509	unglaublicher	-0.056982804
-4.001509	Gewalttaten	-0.056982804
-3.4355054	ihnen	-0.10964145
-4.001509	letztlich	-0.056982804
-3.8129117	erfüllen	-0.056982804
-4.001509	außerdem	-0.056982804
-4.001509	zweier	-0.056982804
-4.001509	Gefangene	-0.056982804
-4.001509	Internierungslager	-0.056982804
-4.001509	befreien	-0.056982804
-4.001509	209	-0.056982804
-3.8129117	31	-0.20296301
-4.001509	Open	-0.056982804
-4.001509	Heart	-0.056982804
-4.001509	05.04.1998	-0.056982804
-3.7053986	lebende	-0.31683463
-4.001509	14.03.2001	-0.056982804
-3.7053986	Im	-0.056982804
-4.001509	Terroristenorganisation	-0.056982804
-4.001509	Rote	-0.056982804
-3.8129117	Zelle	-0.056982804
-4.001509	Doktor	-0.056982804
-4.001509	Krelok	-0.056982804
-4.001509	Patienten	-0.056982804
-4.001509	implantiert	-0.056982804
-3.7053986	beginnt	-0.056982804
-4.001509	Wettlauf	-0.056982804
-3.5498152	einmal	-0.08913906
-4.001509	wen	-0.056982804
-4.001509	ausgewählt	-0.056982804
-3.8129117	Einziger	-0.056982804
-3.7053986	Jenna	-0.056982804
-4.001509	Vogler	-0.056982804
-3.8129117	sitzt	-0.056982804
-4.001509	Jennas	-0.056982804
-3.7053986	Vertrauen	-0.056982804
-3.8129117	gewinnen	-0.056982804
-4.001509	gemeinsamen	-0.056982804
-3.8129117	bewegen	-0.056982804
-3.1509233	nichts	-0.056982804
-4.001509	Träger	-0.056982804
-3.8129117	Roten	-0.056982804
-4.001509	schleusen	-0.056982804
-4.001509	210	-0.056982804
-3.7053986	32	-0.1486662
-4.001509	First	-0.056982804
-4.001509	12.04.1998	-0.056982804
-3.8129117	Mitgefühl	-0.056982804
-4.001509	21.03.2001	-0.056982804
-3.7053986	Weil	-0.056982804
-4.001509	akute	-0.056982804
-4.001509	Personalknappheit	-0.056982804
-4.001509	erstmals	-0.056982804
-4.001509	alleinige	-0.056982804
-4.001509	Verantwortung	-0.056982804
-4.001509	übertragen	-0.056982804
-4.001509	Neben	-0.056982804
-4.001509	Taylor	-0.056982804
-4.001509	Mentz	-0.056982804
-3.7053986	Vizcano	-0.056982804
-4.001509	rebelliert	-0.056982804
-3.8129117	lauter	-0.056982804
-4.001509	Eifersucht	-0.056982804
-3.8129117	erste	-0.056982804
-3.8129117	gemeinsame	-0.056982804
-3.7053986	misslingt	-0.1486662
-4.001509	völlig	-0.056982804
-4.001509	Pannen	-0.056982804
-4.001509	Grundfehler	-0.056982804
-4.001509	auszumerzen	-0.056982804
-4.001509	Beim	-0.056982804
-4.001509	wehrt	-0.056982804
-4.001509	stirbt	-0.056982804
-3.7053986	Gelegenheit	-0.12386797
-4.001509	grausame	-0.056982804
-3.4355054	Verhalten	-0.05698283
-4.001509	Wehr	-0.056982804
-4.001509	211	-0.056982804
-3.8129117	33	-0.20296301
-4.001509	Psychic	-0.056982804
-4.001509	Pilgrim	-0.056982804
-4.001509	19.04.1998	-0.056982804
-4.001509	Fahrt	-0.056982804
-3.8129117	Jenseits	-0.056982804
-4.001509	28.03.2001	-0.056982804
-4.001509	frischvermähltes	-0.056982804
-4.001509	Ehepaar	-0.056982804
-4.001509	Vorstadt	-0.056982804
-4.001509	ziehen	-0.056982804
-4.001509	Laut	-0.056982804
-4.001509	transzendentales	-0.056982804
-4.001509	Lockvogel	-0.056982804
-4.001509	dienen	-0.056982804
-4.001509	Führer	-0.056982804
-4.001509	Jaquim	-0.056982804
-3.7053986	Armel	-0.056982804
-4.001509	wenden	-0.056982804
-4.001509	verstorbenen	-0.056982804
-3.27031	Kontakt	-0.19636737
-3.8129117	Fähigkeiten	-0.056982804
-4.001509	anzuwenden	-0.056982804
-4.001509	raffinierten	-0.056982804
-4.001509	Trick	-0.056982804
-3.8129117	locken	-0.056982804
-4.001509	Daten	-0.056982804
-3.7053986	Nach	-0.08913906
-4.001509	Verhaftung	-0.056982804
-4.001509	Armels	-0.056982804
-4.001509	Sein	-0.056982804
-4.001509	Unfall	-0.056982804
-4.001509	lediglich	-0.056982804
-3.8129117	inszeniert	-0.056982804
-4.001509	212	-0.056982804
-3.8129117	34	-0.20296301
-4.001509	Soul	-0.056982804
-4.001509	Sacrifice	-0.056982804
-4.001509	14.06.1998	-0.056982804
-4.001509	Doppeltes	-0.056982804
-4.001509	04.04.2001	-0.056982804
-3.5498152	Terry	-0.12386797
-4.001509	dienstältesten	-0.056982804
-4.001509	Mitarbeiterinnen	-0.056982804
-4.001509	freunden	-0.056982804
-4.001509	vertreten	-0.056982804
-4.001509	abtrünniger	-0.056982804
-4.001509	NSA-Agent	-0.056982804
-4.001509	Sullivan	-0.056982804
-3.8129117	Gates	-0.056982804
-4.001509	verhaftet	-0.056982804
-3.8129117	Bates	-0.056982804
-3.7053986	Geiseln	-0.056982804
-3.7053986	befreit	-0.056982804
-4.001509	fliehen	-0.056982804
-4.001509	schwanger	-0.056982804
-3.8129117	Wenn	-0.056982804
-4.001509	Baby	-0.056982804
-3.8129117	behalten	-0.056982804
-3.8129117	absetzen	-0.056982804
-4.001509	Lebensgefahr	-0.056982804
-4.001509	entscheidenden	-0.056982804
-3.8129117	Moment	-0.056982804
-3.8129117	eigenes	-0.056982804
-3.8129117	davor	-0.056982804
-4.001509	zurückschrecken	-0.056982804
-3.8129117	erschießen	-0.20296301
-4.001509	216	-0.056982804
-3.8129117	35	-0.20296301
-4.001509	21.06.1998	-0.056982804
-4.001509	11.04.2001	-0.056982804
-4.001509	Bar	-0.056982804
-4.001509	Hinterhalt	-0.056982804
-3.8129117	überwältigt	-0.20296301
-4.001509	leitenden	-0.056982804
-4.001509	Taktiker	-0.056982804
-4.001509	Roten	-0.056982804
-4.001509	Zelle	-0.056982804
-4.001509	Verhör	-0.056982804
-3.7053986	Drogen	-0.056982804
-3.7053986	gesetzt	-0.056982804
-4.001509	Wenig	-0.056982804
-3.7053986	später	-0.056982804
-3.3451	'	-0.056982804
-4.001509	Folterkammer	-0.056982804
-4.001509	Einfluss	-0.056982804
-4.001509	Erinnerungsvermögen	-0.056982804
-4.001509	verloren	-0.056982804
-4.001509	jetzigen	-0.056982804
-3.8129117	Zustand	-0.20296301
-4.001509	untragbar	-0.056982804
-3.8129117	lange	-0.056982804
-4.001509	liebt	-0.056982804
-4.001509	Zweifronten-Krieg	-0.056982804
-4.001509	An	-0.056982804
-4.001509	kämpft	-0.056982804
-3.7053986	Waffenhändler	-0.056982804
-4.001509	auszubremsen	-0.056982804
-4.001509	217	-0.056982804
-3.8129117	36	-0.20296301
-4.001509	Double	-0.056982804
-4.001509	Date	-0.056982804
-4.001509	28.06.1998	-0.056982804
-4.001509	Ausgeglichene	-0.056982804
-4.001509	Gerechtigkeit	-0.056982804
-4.001509	18.04.2001	-0.056982804
-4.001509	Connection	-0.056982804
-3.8129117	bestimmt	-0.056982804
-4.001509	früher	-0.056982804
-3.3451	hatte	-0.16775718
-3.8129117	Affäre	-0.056982804
-3.8129117	Davids	-0.056982804
-4.001509	seither	-0.056982804
-4.001509	skrupellosen	-0.056982804
-4.001509	Schlägertypen	-0.056982804
-4.001509	gelernt	-0.056982804
-4.001509	Diese	-0.05698283
-4.001509	Vorgeschichte	-0.056982804
-4.001509	verheißt	-0.056982804
-4.001509	Gutes	-0.056982804
-4.001509	Doppelagent	-0.056982804
-4.001509	gebraucht	-0.056982804
-4.001509	rumänische	-0.056982804
-4.001509	Söldnereinheit	-0.056982804
-4.001509	ausgehoben	-0.056982804
-3.7053986	anschließend	-0.056982804
-4.001509	zurückbringt	-0.056982804
-4.001509	213	-0.056982804
-3.8129117	37	-0.20296301
-4.001509	Fuzzy	-0.056982804
-4.001509	Logic	-0.056982804
-4.001509	05.07.1998	-0.056982804
-4.001509	Wunderknabe	-0.056982804
-4.001509	25.04.2001	-0.056982804
-4.001509	schwerwiegendes	-0.056982804
-3.8129117	Problem	-0.056982804
-4.001509	Computer-Code	-0.056982804
-4.001509	Einheit	-0.056982804
-4.001509	knacken	-0.056982804
-4.001509	Mathematiker	-0.056982804
-3.8129117	weiterhelfen	-0.056982804
-4.001509	jungen	-0.056982804
-3.7053986	Greg	-0.056982804
-3.27031	Hillinger	-0.056982804
-4.001509	echten	-0.056982804
-4.001509	Wunderknaben	-0.056982804
-4.001509	öfteren	-0.056982804
-4.001509	geweigert	-0.056982804
-4.001509	Geheimdiensten	-0.056982804
-3.27031	zusammen	-0.09393351
-4.001509	zunächst	-0.056982804
-4.001509	Kollaboration	-0.056982804
-4.001509	sträubte	-0.056982804
-3.8129117	Leichtigkeit	-0.056982804
-4.001509	Gefallen	-0.056982804
-4.001509	hochentwickelten	-0.056982804
-4.001509	Computertechnik	-0.056982804
-4.001509	Sektionsgebäude	-0.056982804
-4.001509	herum	-0.056982804
-3.7053986	Technik	-0.12386797
-4.001509	Außenstehende	-0.056982804
-4.001509	Tabu	-0.056982804
-4.001509	Jungen	-0.056982804
-4.001509	Willen	-0.056982804
-4.001509	214	-0.056982804
-3.8129117	38	-0.20296301
-4.001509	Old	-0.056982804
-4.001509	Habits	-0.056982804
-4.001509	12.07.1998	-0.056982804
-3.8129117	Alte	-0.056982804
-4.001509	Gewohnheiten	-0.056982804
-4.001509	02.05.2001	-0.056982804
-4.001509	Bright	-0.056982804
-3.8129117	Star	-0.056982804
-4.001509	aufgespürt	-0.056982804
-4.001509	vernichtet	-0.056982804
-3.7053986	Formitz	-0.056982804
-4.001509	Anführer	-0.056982804
-4.001509	Halir	-0.056982804
-4.001509	kooperieren	-0.056982804
-3.7053986	Geld	-0.056982804
-4.001509	interessiert	-0.056982804
-4.001509	sezieren	-0.056982804
-4.001509	perversen	-0.056982804
-4.001509	Neigungen	-0.056982804
-3.8129117	weiteres	-0.056982804
-3.3451	Mädchen	-0.056982804
-4.001509	Interessen	-0.056982804
-4.001509	beugen	-0.056982804
-4.001509	215	-0.056982804
-3.8129117	39	-0.20296301
-4.001509	Inside	-0.056982804
-3.5498152	Out	-0.12386797
-4.001509	26.07.1998	-0.056982804
-4.001509	schleichende	-0.056982804
-4.001509	09.05.2001	-0.056982804
-4.001509	Mowen	-0.056982804
-4.001509	Bakterium	-0.056982804
-4.001509	infiziert	-0.056982804
-4.001509	Hinter	-0.056982804
-4.001509	steckt	-0.056982804
-3.8129117	Gruppierung	-0.056982804
-4.001509	Zellen	-0.056982804
-3.8129117	nennt	-0.056982804
-4.001509	auszulöschen	-0.056982804
-4.001509	tun	-0.056982804
-4.001509	Wissenschaftler	-0.056982804
-3.8129117	Bisseroff	-0.056982804
-4.001509	Gegenmittels	-0.056982804
-4.001509	Mittel	-0.056982804
-4.001509	herausgeben	-0.056982804
-3.8129117	Familie	-0.056982804
-4.001509	festhalten	-0.056982804
-4.001509	Erst	-0.056982804
-4.001509	anhand	-0.056982804
-4.001509	Computersimulation	-0.056982804
-4.001509	vortäuscht	-0.056982804
-3.5498152	worden	-0.12386797
-3.8129117	ändert	-0.056982804
-4.001509	Existenz	-0.056982804
-4.001509	218	-0.056982804
-3.8129117	40	-0.20296301
-4.001509	Off	-0.056982804
-4.001509	Profile	-0.056982804
-4.001509	02.08.1998	-0.056982804
-4.001509	Agentenliebe	-0.056982804
-4.001509	16.05.2001	-0.056982804
-4.001509	taktischen	-0.056982804
-4.001509	Planungsstab	-0.056982804
-4.001509	verstärken	-0.056982804
-3.5498152	Andrea	-0.056982804
-4.001509	beste	-0.056982804
-4.001509	Referenzen	-0.056982804
-4.001509	Fittiche	-0.056982804
-4.001509	Hartnäckig	-0.056982804
-4.001509	umwirbt	-0.056982804
-4.001509	linientreue	-0.056982804
-4.001509	Dorn	-0.056982804
-3.8129117	Auge	-0.056982804
-4.001509	unerklärlichen	-0.056982804
-3.8129117	Gründen	-0.056982804
-4.001509	Rat	-0.056982804
-4.001509	Schlagartig	-0.056982804
-4.001509	Andreas	-0.056982804
-4.001509	Verehrer	-0.056982804
-4.001509	bewusst	-0.056982804
-4.001509	Einzig	-0.056982804
-4.001509	liquidiert	-0.056982804
-4.001509	Annäherungsversuche	-0.056982804
-3.206527	waren	-0.08913906
-4.001509	geplant	-0.056982804
-4.001509	219	-0.056982804
-3.8129117	41	-0.20296301
-4.001509	Last	-0.056982804
-3.8129117	Night	-0.056982804
-4.001509	09.08.1998	-0.056982804
-4.001509	Ausgetrickst	-0.056982804
-4.001509	23.05.2001	-0.056982804
-4.001509	seltsamer	-0.056982804
-3.8129117	Gegner	-0.056982804
-3.7053986	Brutus	-0.056982804
-4.001509	Aufregung	-0.056982804
-4.001509	Scheinbar	-0.056982804
-4.001509	problemlos	-0.056982804
-4.001509	unterläuft	-0.056982804
-4.001509	sämtliche	-0.056982804
-4.001509	Sicherheitssysteme	-0.056982804
-4.001509	durchkreuzt	-0.056982804
-4.001509	dauert	-0.056982804
-3.8129117	Weile	-0.056982804
-3.5498152	kein	-0.056982804
-3.7053986	Mensch	-0.056982804
-3.5498152	Computer	-0.05698283
-4.001509	bislang	-0.056982804
-4.001509	unbekannten	-0.056982804
-4.001509	künstliche	-0.056982804
-4.001509	Intelligenz	-0.056982804
-4.001509	Abwehr	-0.056982804
-4.001509	Angriffen	-0.056982804
-4.001509	passieren	-0.056982804
-4.001509	wichtigsten	-0.056982804
-4.001509	Mitarbeitern	-0.056982804
-4.001509	grobe	-0.056982804
-3.8129117	Auch	-0.056982804
-3.7053986	Einsätze	-0.056982804
-4.001509	Albanien	-0.056982804
-4.001509	Kasachstan	-0.056982804
-4.001509	Weißrussland	-0.056982804
-4.001509	220	-0.056982804
-3.8129117	42	-0.20296301
-4.001509	Between	-0.056982804
-4.001509	16.08.1998	-0.056982804
-4.001509	Nebenbuhler	-0.056982804
-4.001509	30.05.2001	-0.056982804
-3.8129117	Carla	-0.056982804
-4.001509	Goellner	-0.056982804
-4.001509	dubiose	-0.056982804
-4.001509	Geschäfte	-0.056982804
-4.001509	immense	-0.056982804
-4.001509	Geldsummen	-0.056982804
-4.001509	angehäuft	-0.056982804
-4.001509	aufgrund	-0.056982804
-4.001509	Machtfülle	-0.056982804
-3.8129117	politische	-0.056982804
-3.4355054	Lage	-0.056982804
-4.001509	Zentralafrika	-0.056982804
-4.001509	destabilisieren	-0.056982804
-4.001509	Finanzberater	-0.056982804
-3.8129117	getarnt	-0.056982804
-4.001509	Zentrale	-0.056982804
-3.7053986	treffen	-0.056982804
-3.8129117	Giraldi	-0.056982804
-4.001509	überrascht	-0.056982804
-4.001509	Madaline	-0.056982804
-4.001509	Ehemann	-0.056982804
-4.001509	Charles	-0.056982804
-3.8129117	Sand	-0.056982804
-4.001509	unterbunden	-0.056982804
-4.001509	erteilt	-0.056982804
-4.001509	Ex-Agenten	-0.056982804
-4.001509	Abwesenheit	-0.056982804
-4.001509	geheimnisvolle	-0.056982804
-4.001509	Telefonate	-0.056982804
-4.001509	221	-0.056982804
-3.8129117	43	-0.20296301
-4.001509	Adrian's	-0.056982804
-3.8129117	Garden	-0.056982804
-4.001509	23.08.1998	-0.056982804
-4.001509	Machtspiele	-0.056982804
-4.001509	06.06.2001	-0.056982804
-4.001509	betäubt	-0.056982804
-4.001509	elegante	-0.056982804
-4.001509	ältere	-0.056982804
-4.001509	Dame	-0.056982804
-3.4355054	Adrian	-0.056982804
-4.001509	Begründerin	-0.056982804
-4.001509	verdrängt	-0.056982804
-3.8129117	Entwicklung	-0.056982804
-4.001509	verfolgt	-0.056982804
-4.001509	fürchtet	-0.056982804
-4.001509	Machtgelüsten	-0.056982804
-4.001509	getrieben	-0.056982804
-3.7053986	erklärt	-0.056982804
-3.8129117	derzeit	-0.056982804
-4.001509	beschäftigt	-0.056982804
-4.001509	südamerikanischen	-0.056982804
-4.001509	Präsidentschaftskandidaten	-0.056982804
-4.001509	beschützen	-0.056982804
-3.5498152	Politiker	-0.056982804
-4.001509	liquidieren	-0.056982804
-4.001509	einzusetzen	-0.056982804
-4.001509	Fakten	-0.056982804
-4.001509	sprechen	-0.056982804
-4.001509	222	-0.056982804
-3.8129117	44	-0.20296301
-4.001509	End	-0.056982804
-4.001509	Game	-0.056982804
-4.001509	30.08.1998	-0.056982804
-4.001509	13.06.2001	-0.056982804
-4.001509	ehemalige	-0.056982804
-4.001509	Ausbilderin	-0.056982804
-4.001509	Beendigung	-0.056982804
-4.001509	Agentenlaufbahn	-0.056982804
-4.001509	Untergrund	-0.056982804
-4.001509	Weltherrschaft	-0.056982804
-4.001509	reißt	-0.056982804
-4.001509	benutzt	-0.056982804
-4.001509	Spitzel	-0.056982804
-4.001509	durchschaut	-0.056982804
-4.001509	seinerseits	-0.056982804
-3.8129117	angesetzt	-0.056982804
-4.001509	Adrians	-0.056982804
-4.001509	stoppen	-0.056982804
-4.001509	Machtübernahme	-0.056982804
-4.001509	bezahlen	-0.056982804
-4.001509	301	-0.056982804
-3.8129117	Looking	-0.056982804
-3.7053986	For	-0.056982804
-4.001509	03.01.1999	-0.056982804
-4.001509	Machtkampf	-0.056982804
-4.001509	20.06.2001	-0.056982804
-3.7053986	ebenfalls	-0.056982804
-4.001509	Bescheid	-0.056982804
-3.5498152	diesem	-0.05698283
-3.8129117	warnt	-0.056982804
-4.001509	eindringlich	-0.056982804
-4.001509	Schon	-0.056982804
-4.001509	Team-Führers	-0.056982804
-4.001509	Ferrera	-0.056982804
-4.001509	ausgeschaltet	-0.056982804
-3.7053986	Birkoffs	-0.1486662
-3.8129117	Dienst	-0.056982804
-4.001509	Zu	-0.056982804
-4.001509	Überraschung	-0.056982804
-3.27031	Elena	-0.08913906
-4.001509	Adam	-0.056982804
-3.8129117	sofort	-0.056982804
-3.8129117	Boss	-0.056982804
-4.001509	Vorsitzenden	-0.056982804
-4.001509	Aufsichtskomitees	-0.056982804
-3.1509233	George	-0.108847655
-4.001509	abzubrechen	-0.056982804
-4.001509	302	-0.056982804
-3.8129117	46	-0.20296301
-4.001509	Someone	-0.056982804
-4.001509	Else's	-0.056982804
-4.001509	Shadow	-0.056982804
-4.001509	10.01.1999	-0.056982804
-4.001509	verlorene	-0.056982804
-3.5498152	Vater	-0.056982804
-4.001509	27.06.2001	-0.056982804
-3.7053986	erhält	-0.1486662
-4.001509	Salla	-0.056982804
-3.1016374	Vacek	-0.12000761
-4.001509	Top-Terrorist	-0.056982804
-4.001509	her	-0.056982804
-4.001509	Ebenso	-0.056982804
-4.001509	wenig	-0.056982804
-3.8129117	verheiratet	-0.20296301
-4.001509	heranzukommen	-0.056982804
-4.001509	Cousine	-0.056982804
-4.001509	bestärkt	-0.056982804
-4.001509	intensiven	-0.056982804
-4.001509	Gesprächen	-0.056982804
-4.001509	vorsichtiger	-0.056982804
-4.001509	organisiert	-0.056982804
-3.8129117	Treffen	-0.056982804
-4.001509	Vertrauter	-0.056982804
-4.001509	Mischa	-0.056982804
-4.001509	erscheint	-0.056982804
-4.001509	Operations´	-0.056982804
-4.001509	zugreifen	-0.056982804
-4.001509	wollten	-0.056982804
-4.001509	Nachsehen	-0.056982804
-4.001509	Top-Terroristen	-0.056982804
-4.001509	303	-0.056982804
-3.8129117	47	-0.20296301
-4.001509	Opening	-0.056982804
-4.001509	Jitters	-0.056982804
-4.001509	17.01.1999	-0.056982804
-4.001509	Unerwünschtheit	-0.056982804
-4.001509	04.07.2001	-0.056982804
-4.001509	sorgfältig	-0.056982804
-4.001509	ausgetüftelte	-0.056982804
-4.001509	fassen	-0.056982804
-3.8129117	gescheitert	-0.056982804
-4.001509	reichlich	-0.056982804
-4.001509	perfide	-0.056982804
-3.8129117	Idee	-0.056982804
-3.7053986	Man	-0.056982804
-4.001509	gefährliches	-0.056982804
-4.001509	Gift	-0.056982804
-4.001509	Wein	-0.056982804
-4.001509	mischt	-0.056982804
-4.001509	hofft	-0.056982804
-4.001509	Reserve	-0.056982804
-4.001509	Damit	-0.056982804
-4.001509	sträubt	-0.056982804
-4.001509	Abendessen	-0.056982804
-4.001509	eingeladen	-0.056982804
-4.001509	fertig	-0.056982804
-4.001509	Also	-0.056982804
-4.001509	Substanz	-0.056982804
-3.8129117	verabreichen	-0.056982804
-3.7053986	Elenas	-0.056982804
-3.8129117	außerordentlich	-0.056982804
-4.001509	kritisch	-0.056982804
-3.5498152	offensichtlich	-0.056982804
-3.8129117	leben	-0.056982804
-4.001509	inzwischen	-0.056982804
-3.8129117	Krankheit	-0.056982804
-3.8129117	erfahren	-0.056982804
-4.001509	daraufhin	-0.056982804
-3.8129117	läuft	-0.056982804
-3.8129117	also	-0.056982804
-3.7053986	möglich	-0.056982804
-4.001509	zurückkehren	-0.056982804
-4.001509	beistehen	-0.056982804
-4.001509	Klinik	-0.056982804
-4.001509	Anstalten	-0.056982804
-3.3451	gemacht	-0.15009503
-3.8129117	sehen	-0.056982804
-4.001509	Unterdessen	-0.056982804
-4.001509	fleht	-0.056982804
-4.001509	geradezu	-0.056982804
-3.5498152	darum	-0.12386797
-4.001509	Gegengift	-0.056982804
-4.001509	endgültig	-0.056982804
-4.001509	spät	-0.056982804
-4.001509	endlosen	-0.056982804
-4.001509	Warten	-0.056982804
-3.3451	etwas	-0.056982804
-3.8129117	besser	-0.056982804
-4.001509	kündigt	-0.056982804
-4.001509	Kommen	-0.056982804
-4.001509	telefonisch	-0.056982804
-4.001509	bestens	-0.056982804
-4.001509	auftauscht	-0.056982804
-4.001509	jeder	-0.056982804
-4.001509	Platz	-0.056982804
-4.001509	Vaceks	-0.056982804
-4.001509	Leibgarde	-0.056982804
-3.7053986	unschädlich	-0.1486662
-4.001509	Augen	-0.056982804
-4.001509	Feuergefecht	-0.056982804
-3.8129117	gewagten	-0.056982804
-4.001509	Anerkennung	-0.056982804
-3.7053986	persönlichen	-0.056982804
-4.001509	Opferbereitschaft	-0.056982804
-4.001509	belobigt	-0.056982804
-4.001509	aufs	-0.056982804
-4.001509	Abstellgleis	-0.056982804
-3.4355054	gestellt	-0.05698283
-4.001509	304	-0.056982804
-3.8129117	48	-0.20296301
-3.4355054	Of	-0.056982804
-3.8129117	Hell	-0.056982804
-4.001509	24.01.1999	-0.056982804
-4.001509	Pforten	-0.056982804
-4.001509	Hölle	-0.056982804
-4.001509	11.07.2001	-0.056982804
-4.001509	Trennung	-0.056982804
-3.8129117	zieht	-0.056982804
-3.8129117	kaum	-0.056982804
-4.001509	Anteil	-0.056982804
-4.001509	Umwelt	-0.056982804
-3.8129117	entgeht	-0.056982804
-3.7053986	dieses	-0.056982804
-4.001509	Veränderung	-0.056982804
-3.8129117	ordnet	-0.056982804
-4.001509	Mihail	-0.056982804
-3.4355054	Brevich	-0.056982804
-3.8129117	Lazlo	-0.056982804
-4.001509	befehligen	-0.056982804
-4.001509	Unternehmen	-0.056982804
-4.001509	schlechten	-0.056982804
-4.001509	Stern	-0.056982804
-3.7053986	stehen	-0.056982804
-4.001509	Vorbereitungen	-0.056982804
-4.001509	drängt	-0.056982804
-4.001509	Beschuss	-0.056982804
-3.8129117	gerade	-0.056982804
-4.001509	blauen	-0.056982804
-4.001509	Schlag	-0.056982804
-4.001509	eigener	-0.056982804
-4.001509	anscheinend	-0.056982804
-4.001509	erschossen	-0.056982804
-3.7053986	fassungslos	-0.1486662
-4.001509	Schlafwandler	-0.056982804
-4.001509	vermeintlichen	-0.056982804
-4.001509	los	-0.056982804
-4.001509	erschießt	-0.056982804
-4.001509	feststellt	-0.056982804
-4.001509	Maske	-0.056982804
-4.001509	Anscheinend	-0.056982804
-4.001509	zeigen	-0.056982804
-4.001509	Sache	-0.056982804
-4.001509	Vorfall	-0.056982804
-4.001509	tiefer	-0.056982804
-4.001509	größten	-0.056982804
-4.001509	Sorgen	-0.056982804
-4.001509	Über	-0.056982804
-4.001509	Foto	-0.056982804
-4.001509	wacht	-0.056982804
-4.001509	nächtelang	-0.056982804
-4.001509	Überfall	-0.056982804
-4.001509	305	-0.056982804
-3.8129117	49	-0.20296301
-4.001509	Imitation	-0.056982804
-4.001509	Death	-0.056982804
-4.001509	07.03.1999	-0.056982804
-4.001509	Killer-Fabrik	-0.056982804
-4.001509	18.07.2001	-0.056982804
-3.5498152	Chernov	-0.05698283
-4.001509	auszuschalten	-0.056982804
-3.8129117	kleine	-0.056982804
-4.001509	bildet	-0.056982804
-4.001509	Killermaschinen	-0.056982804
-3.5498152	Jahre	-0.056982804
-3.8129117	Organisationen	-0.056982804
-4.001509	Aus	-0.056982804
-4.001509	Kindern	-0.056982804
-4.001509	willenlose	-0.056982804
-4.001509	Kampfmaschinen	-0.056982804
-4.001509	Selbstzerstörung	-0.056982804
-4.001509	Befehle	-0.056982804
-4.001509	ausführen	-0.056982804
-4.001509	Kokain-Dealer	-0.056982804
-3.8129117	Leibwächterin	-0.056982804
-4.001509	begeistert	-0.056982804
-4.001509	kauft	-0.056982804
-3.8129117	Aber	-0.056982804
-4.001509	Eizelle	-0.056982804
-3.7053986	Menschen	-0.1486662
-4.001509	klonen	-0.056982804
-4.001509	stürmt	-0.056982804
-4.001509	Einsatzteam	-0.056982804
-4.001509	Chernovs	-0.056982804
-3.8129117	Labor	-0.056982804
-4.001509	skrupellose	-0.056982804
-4.001509	entzieht	-0.056982804
-4.001509	Gefangennahme	-0.056982804
-4.001509	keimt	-0.056982804
-4.001509	wollte	-0.056982804
-4.001509	Ebene	-0.056982804
-4.001509	Acht	-0.056982804
-4.001509	eindringt	-0.056982804
-4.001509	begegnet	-0.056982804
-3.8129117	genauso	-0.056982804
-4.001509	aussieht	-0.056982804
-4.001509	aussah	-0.056982804
-4.001509	schrecklichen	-0.056982804
-4.001509	307	-0.056982804
-3.7053986	50	-0.12386797
-3.7053986	And	-0.056982804
-4.001509	Country	-0.056982804
-4.001509	21.03.1999	-0.056982804
-3.8129117	25.07.2001	-0.056982804
-4.001509	Nikolai	-0.056982804
-3.7053986	Markali	-0.056982804
-4.001509	Wahlkampf	-0.056982804
-4.001509	terroristischen	-0.056982804
-4.001509	Bottenheim	-0.056982804
-4.001509	Tatsache	-0.056982804
-4.001509	ehemaliger	-0.056982804
-4.001509	einfacher	-0.056982804
-4.001509	ganz	-0.056982804
-4.001509	Rachefeldzug	-0.056982804
-4.001509	unternehmen	-0.056982804
-4.001509	offizielle	-0.056982804
-4.001509	lautet	-0.056982804
-3.8129117	Markalis	-0.056982804
-3.8129117	gewinnt	-0.056982804
-2.8081548	!	-1.118467
-4.001509	Zweck	-0.056982804
-4.001509	Wahlkampfbüro	-0.056982804
-4.001509	populären	-0.056982804
-4.001509	Politikers	-0.056982804
-4.001509	Psychiaterin	-0.056982804
-4.001509	psychisch	-0.056982804
-4.001509	labiler	-0.056982804
-4.001509	Ehefrau	-0.056982804
-4.001509	Corinne	-0.056982804
-3.8129117	starker	-0.056982804
-4.001509	abhängig	-0.056982804
-3.8129117	gelangt	-0.056982804
-4.001509	Überzeugung	-0.056982804
-4.001509	306	-0.056982804
-3.8129117	51	-0.20296301
-4.001509	Cat	-0.056982804
-4.001509	Mouse	-0.056982804
-4.001509	28.03.1999	-0.056982804
-3.8129117	Katz	-0.20296301
-4.001509	Maus	-0.056982804
-4.001509	erfolgreichen	-0.056982804
-4.001509	Baltischen	-0.056982804
-4.001509	See	-0.056982804
-3.8129117	fällt	-0.056982804
-4.001509	erstaunliche	-0.056982804
-4.001509	Wesensveränderung	-0.056982804
-4.001509	unterscheidet	-0.056982804
-4.001509	gravierend	-0.056982804
-4.001509	sonstigen	-0.056982804
-3.8129117	Art	-0.20296301
-3.7053986	misstrauisch	-0.056982804
-3.5498152	neuen	-0.056982804
-4.001509	knapp	-0.056982804
-4.001509	Videoaufzeichnungen	-0.056982804
-4.001509	ansieht	-0.056982804
-4.001509	Schusslinie	-0.056982804
-4.001509	Ist	-0.056982804
-4.001509	womöglich	-0.056982804
-4.001509	Verräterin	-0.056982804
-4.001509	herausfindet	-0.056982804
-4.001509	weit	-0.056982804
-4.001509	überraschender	-0.056982804
-4.001509	träumen	-0.056982804
-4.001509	309	-0.056982804
-3.8129117	52	-0.20296301
-4.001509	Outside	-0.056982804
-2.8583567	The	-0.08585756
-3.8129117	Box	-0.056982804
-4.001509	04.04.1999	-0.056982804
-4.001509	Superhirn	-0.056982804
-3.8129117	01.08.2001	-0.20296301
-4.001509	Terrorring	-0.056982804
-4.001509	sprengen	-0.056982804
-4.001509	Mitgliederliste	-0.056982804
-4.001509	heran	-0.056982804
-3.8129117	Datei	-0.056982804
-4.001509	umfangreich	-0.056982804
-4.001509	kopierbar	-0.056982804
-4.001509	obendrein	-0.056982804
-4.001509	wenige	-0.056982804
-4.001509	Zugriff	-0.056982804
-3.4355054	Kruger	-0.05698283
-4.001509	Besagter	-0.056982804
-4.001509	unbescholtener	-0.056982804
-4.001509	Uniabsolvent	-0.056982804
-4.001509	verfügt	-0.056982804
-4.001509	phänomenales	-0.056982804
-3.8129117	Gedächtnis	-0.056982804
-4.001509	interessant	-0.056982804
-3.8129117	wäre	-0.056982804
-4.001509	Einzige	-0.056982804
-3.5498152	weniger	-0.056982804
-4.001509	auswendig	-0.056982804
-4.001509	ausgebildet	-0.056982804
-4.001509	Konfrontiert	-0.056982804
-4.001509	Krugers	-0.056982804
-4.001509	Gedächtnistraining	-0.056982804
-4.001509	tauchen	-0.056982804
-3.8129117	Erinnerungen	-0.056982804
-4.001509	wieso	-0.056982804
-4.001509	weiht	-0.056982804
-4.001509	vorher	-0.056982804
-4.001509	wenigen	-0.056982804
-4.001509	zufrieden	-0.056982804
-4.001509	herausgefunden	-0.056982804
-4.001509	310	-0.056982804
-3.8129117	53	-0.20296301
-4.001509	Slipping	-0.056982804
-3.8129117	Into	-0.056982804
-4.001509	11.04.1999	-0.056982804
-4.001509	Bluff	-0.056982804
-3.5498152	Philo	-0.056982804
-4.001509	bedient	-0.056982804
-4.001509	Tricks	-0.056982804
-4.001509	veranlasst	-0.056982804
-4.001509	Beweis	-0.056982804
-4.001509	zusammenarbeiten	-0.056982804
-4.001509	Bewusstseinsdroge	-0.056982804
-4.001509	verabreicht	-0.056982804
-4.001509	Bewusstseinstrübungen	-0.056982804
-4.001509	Schein	-0.056982804
-3.8129117	wahren	-0.056982804
-4.001509	Droge	-0.056982804
-3.8129117	vollkommen	-0.056982804
-4.001509	unsinnige	-0.056982804
-4.001509	bizarre	-0.056982804
-4.001509	Missionen	-0.056982804
-4.001509	Unruhe	-0.056982804
-4.001509	wächst	-0.056982804
-4.001509	unberechenbarer	-0.056982804
-3.5498152	zugleich	-0.05698283
-4.001509	gefährlicher	-0.056982804
-4.001509	eingeweiht	-0.056982804
-4.001509	Griff	-0.056982804
-4.001509	Sterben	-0.056982804
-3.7053986	liegt	-0.056982804
-4.001509	Kommando	-0.056982804
-4.001509	verlässt	-0.056982804
-4.001509	überwältigen	-0.056982804
-4.001509	buchstäblich	-0.056982804
-4.001509	Gegenmittel	-0.056982804
-4.001509	308	-0.056982804
-3.8129117	54	-0.20296301
-4.001509	Under	-0.056982804
-4.001509	Influence	-0.056982804
-3.8129117	25.04.1999	-0.056982804
-4.001509	Peruze-Brüder	-0.056982804
-3.8129117	08.08.2001	-0.056982804
-3.8129117	Brüder	-0.056982804
-3.7053986	Peruze	-0.056982804
-4.001509	brandgefährliche	-0.056982804
-4.001509	zahlreiche	-0.056982804
-4.001509	brutale	-0.056982804
-4.001509	Angriffe	-0.056982804
-4.001509	Zivilbevölkerung	-0.056982804
-3.8129117	Simon	-0.056982804
-4.001509	brillante	-0.056982804
-4.001509	fungiert	-0.056982804
-3.27031	Karl	-0.056982804
-4.001509	ausführendes	-0.056982804
-4.001509	Organ	-0.056982804
-3.8129117	Hassan	-0.056982804
-4.001509	zwanzig	-0.056982804
-4.001509	Anthrax-Raketen	-0.056982804
-4.001509	schier	-0.056982804
-4.001509	unmöglich	-0.056982804
-4.001509	schnappt	-0.056982804
-4.001509	testet	-0.056982804
-3.8129117	Verfahren	-0.056982804
-3.8129117	Zeitraum	-0.056982804
-3.8129117	verliert	-0.056982804
-4.001509	angebliche	-0.056982804
-4.001509	Verlobte	-0.056982804
-4.001509	ahnungslosen	-0.056982804
-4.001509	anzunehmen	-0.056982804
-4.001509	Geschäft	-0.056982804
-4.001509	perfekt	-0.056982804
-4.001509	Anschließend	-0.056982804
-4.001509	vorgesehen	-0.056982804
-4.001509	stimmt	-0.056982804
-4.001509	eingestehen	-0.056982804
-4.001509	brutalen	-0.056982804
-4.001509	Schlächter	-0.056982804
-4.001509	beruhigen	-0.056982804
-4.001509	indem	-0.056982804
-4.001509	umso	-0.056982804
-4.001509	überzeugender	-0.056982804
-4.001509	allmählich	-0.056982804
-4.001509	scheitern	-0.056982804
-4.001509	311	-0.056982804
-3.8129117	55	-0.20296301
-4.001509	Walk	-0.056982804
-3.8129117	On	-0.056982804
-4.001509	By	-0.056982804
-4.001509	taucht	-0.056982804
-3.8129117	Jaimie	-0.056982804
-4.001509	Junge	-0.056982804
-3.7053986	stammt	-0.31683463
-4.001509	aufgewachsen	-0.056982804
-4.001509	große	-0.056982804
-4.001509	Schwierigkeiten	-0.056982804
-4.001509	Einsätzen	-0.056982804
-4.001509	mithalten	-0.056982804
-4.001509	bestehen	-0.056982804
-4.001509	behauptet	-0.056982804
-3.8129117	Mutter	-0.05698283
-4.001509	abgefunden	-0.056982804
-4.001509	Detektiv	-0.056982804
-4.001509	dicht	-0.056982804
-4.001509	Fersen	-0.056982804
-4.001509	verändert	-0.056982804
-4.001509	Trinken	-0.056982804
-4.001509	aufgegeben	-0.056982804
-4.001509	Verzweiflung	-0.056982804
-3.8129117	tödlich	-0.056982804
-4.001509	Privatdetektiv	-0.056982804
-4.001509	Verbindung	-0.056982804
-4.001509	Allerdings	-0.056982804
-4.001509	Zusammenkunft	-0.056982804
-4.001509	annehmen	-0.056982804
-4.001509	liege	-0.056982804
-4.001509	Koma	-0.056982804
-4.001509	bald	-0.056982804
-4.001509	312	-0.056982804
-3.8129117	56	-0.20296301
-4.001509	Threshold	-0.056982804
-4.001509	Pain	-0.056982804
-4.001509	06.06.1999	-0.056982804
-4.001509	Schmerzgrenze	-0.056982804
-3.8129117	15.08.2001	-0.056982804
-4.001509	Pärchen	-0.056982804
-3.5498152	Angela	-0.056982804
-3.4355054	Mark	-0.056982804
-4.001509	Black	-0.056982804
-4.001509	March	-0.056982804
-4.001509	ausheben	-0.056982804
-4.001509	deren	-0.056982804
-4.001509	Crachek	-0.056982804
-4.001509	Caroline	-0.056982804
-3.5498152	besonders	-0.05698283
-4.001509	grausam	-0.056982804
-4.001509	sadistisch	-0.056982804
-4.001509	gelten	-0.056982804
-3.8129117	schlägt	-0.056982804
-4.001509	fehl	-0.056982804
-4.001509	brutalster	-0.056982804
-4.001509	psychopathischen	-0.056982804
-3.8129117	Außenstation	-0.056982804
-4.001509	Angesichts	-0.056982804
-4.001509	Qualen	-0.056982804
-4.001509	durchmachen	-0.056982804
-4.001509	Trotz	-0.056982804
-4.001509	überlebt	-0.056982804
-3.8129117	Eliminierung	-0.056982804
-4.001509	Untersuchungskommission	-0.056982804
-4.001509	zuvorkommen	-0.056982804
-4.001509	Terrorpaar	-0.056982804
-4.001509	eigene	-0.056982804
-4.001509	ausschalten	-0.056982804
-3.7053986	Unterstützung	-0.056982804
-4.001509	gewagte	-0.056982804
-3.8129117	fehlschlägt	-0.056982804
-4.001509	schwebt	-0.056982804
-4.001509	größter	-0.056982804
-4.001509	wem	-0.056982804
-4.001509	313	-0.056982804
-3.8129117	57	-0.20296301
-4.001509	Beyond	-0.056982804
-4.001509	Pale	-0.056982804
-4.001509	13.06.1999	-0.056982804
-4.001509	erwarten	-0.056982804
-4.001509	Beförderung	-0.056982804
-4.001509	Chefstrategen	-0.056982804
-4.001509	Begründung	-0.056982804
-4.001509	Einsatzleiter	-0.056982804
-4.001509	unentbehrlich	-0.056982804
-4.001509	ehrgeizigen	-0.056982804
-3.7053986	Zalman	-0.056982804
-4.001509	Vor	-0.056982804
-4.001509	Enttäuschung	-0.056982804
-4.001509	erwägt	-0.056982804
-4.001509	deshalb	-0.056982804
-3.7053986	beim	-0.1486662
-4.001509	desertieren	-0.056982804
-4.001509	Stich	-0.056982804
-4.001509	entwendet	-0.056982804
-3.8129117	Walters	-0.056982804
-4.001509	Waffenlager	-0.056982804
-4.001509	Kommunikationsserver	-0.056982804
-4.001509	Codes	-0.056982804
-4.001509	Frequenzen	-0.056982804
-4.001509	gespeichert	-0.056982804
-4.001509	Server	-0.056982804
-4.001509	erleichtern	-0.056982804
-4.001509	unauffindbar	-0.056982804
-4.001509	foltern	-0.056982804
-4.001509	geschieht	-0.056982804
-4.001509	Unerwartete	-0.056982804
-3.8129117	glaubt	-0.056982804
-4.001509	enttarnt	-0.056982804
-4.001509	Zellen	-0.056982804
-4.001509	315	-0.056982804
-3.8129117	58	-0.20296301
-3.8129117	To	-0.056982804
-4.001509	20.06.1999	-0.056982804
-4.001509	Gewissensfragen	-0.056982804
-3.8129117	22.08.2001	-0.056982804
-4.001509	Industriellen	-0.056982804
-3.7053986	Meyers	-0.1486662
-4.001509	Terrorgruppen	-0.056982804
-4.001509	versorgt	-0.056982804
-3.8129117	Anagar	-0.056982804
-4.001509	Nutze	-0.056982804
-4.001509	Helfern	-0.056982804
-4.001509	perverses	-0.056982804
-3.8129117	Etablissement	-0.056982804
-4.001509	gezwungen	-0.056982804
-4.001509	abartigen	-0.056982804
-4.001509	Publikum	-0.056982804
-3.8129117	Kämpfe	-0.056982804
-4.001509	miteinander	-0.056982804
-4.001509	auszutragen	-0.056982804
-3.8129117	häufiger	-0.056982804
-4.001509	Zuschauer	-0.056982804
-4.001509	Anagars	-0.056982804
-3.7053986	Club	-0.056982804
-4.001509	solventer	-0.056982804
-4.001509	Industrieller	-0.056982804
-4.001509	einführt	-0.056982804
-4.001509	dagegen	-0.056982804
-4.001509	Bordell	-0.056982804
-4.001509	gelandet	-0.056982804
-4.001509	einigen	-0.056982804
-4.001509	anfreundet	-0.056982804
-4.001509	Laden	-0.056982804
-4.001509	widersetzt	-0.056982804
-4.001509	Anweisung	-0.056982804
-4.001509	verlassen	-0.056982804
-4.001509	unversucht	-0.056982804
-4.001509	geschundenen	-0.056982804
-4.001509	Pan	-0.056982804
-4.001509	316	-0.056982804
-3.8129117	59	-0.20296301
-4.001509	Before	-0.056982804
-3.8129117	I	-0.056982804
-4.001509	Sleep	-0.056982804
-4.001509	27.06.1999	-0.056982804
-4.001509	Sarahs	-0.056982804
-3.8129117	Jay	-0.056982804
-4.001509	Baylin	-0.056982804
-4.001509	Kurier	-0.056982804
-4.001509	Terrorgruppe	-0.056982804
-3.8129117	Allianz	-0.056982804
-3.7053986	genannt	-0.1486662
-3.8129117	Ashe	-0.056982804
-4.001509	transportiert	-0.056982804
-4.001509	anzuwerben	-0.056982804
-3.8129117	aufzuspüren	-0.056982804
-4.001509	pro	-0.056982804
-4.001509	forma	-0.056982804
-4.001509	Treffpunkt	-0.056982804
-4.001509	außerhalb	-0.056982804
-3.7053986	niemand	-0.056982804
-4.001509	Baylins	-0.056982804
-3.7053986	nutzt	-0.056982804
-4.001509	Doppelgängerin	-0.056982804
-3.7053986	Sarah	-0.10040961
-4.001509	Gerard	-0.056982804
-4.001509	leidet	-0.056982804
-4.001509	erweisen	-0.056982804
-4.001509	kontaktieren	-0.056982804
-4.001509	wiedersehen	-0.056982804
-4.001509	überredet	-0.056982804
-4.001509	danach	-0.056982804
-4.001509	abgeschlossen	-0.056982804
-4.001509	Koffer	-0.056982804
-4.001509	überbringen	-0.056982804
-4.001509	überreden	-0.056982804
-4.001509	314	-0.056982804
-3.7053986	60	-0.1486662
-4.001509	Remember	-0.056982804
-4.001509	Paris	-0.056982804
-4.001509	18.07.1999	-0.056982804
-4.001509	Evakuierung	-0.056982804
-3.8129117	29.08.2001	-0.056982804
-4.001509	Routinedurchsuchung	-0.056982804
-3.8129117	Boris	-0.056982804
-3.8129117	Netz	-0.056982804
-4.001509	Standort	-0.056982804
-4.001509	Enttarnung	-0.056982804
-4.001509	zuvorzukommen	-0.056982804
-4.001509	evakuieren	-0.056982804
-4.001509	Verschwörung	-0.056982804
-4.001509	Freddy	-0.056982804
-3.7053986	Allen	-0.1486662
-4.001509	Irland	-0.056982804
-4.001509	Montreal	-0.056982804
-4.001509	begibt	-0.056982804
-4.001509	dorthin	-0.056982804
-4.001509	Spitzels	-0.056982804
-4.001509	Pierre	-0.056982804
-4.001509	Brogan	-0.056982804
-4.001509	operiert	-0.056982804
-4.001509	Allens	-0.056982804
-4.001509	Auftraggeber	-0.056982804
-4.001509	Errol	-0.056982804
-4.001509	Sparks	-0.056982804
-4.001509	vernichten	-0.056982804
-4.001509	Helfer	-0.056982804
-4.001509	Jetzt	-0.056982804
-3.8129117	ungestört	-0.056982804
-4.001509	fortsetzen	-0.056982804
-4.001509	318	-0.056982804
-3.8129117	61	-0.20296301
-3.8129117	All	-0.056982804
-4.001509	Good	-0.056982804
-4.001509	Things	-0.056982804
-4.001509	25.07.1999	-0.056982804
-4.001509	Gefährliche	-0.056982804
-4.001509	Versuchung	-0.056982804
-4.001509	Nahen	-0.056982804
-4.001509	Osten	-0.056982804
-4.001509	abberufen	-0.056982804
-4.001509	oberste	-0.056982804
-4.001509	besessen	-0.056982804
-4.001509	Luigi	-0.056982804
-4.001509	Bergomi	-0.056982804
-4.001509	Ehrgeiz	-0.056982804
-4.001509	neuerlangte	-0.056982804
-4.001509	skrupellos	-0.056982804
-4.001509	ans	-0.056982804
-4.001509	Warnungen	-0.056982804
-4.001509	Wind	-0.056982804
-4.001509	Verlusten	-0.056982804
-4.001509	Bergomi-Mission	-0.056982804
-4.001509	Abschluss	-0.056982804
-4.001509	rücksichtsloses	-0.056982804
-4.001509	Freunde	-0.056982804
-4.001509	geschaffen	-0.056982804
-4.001509	zurückkommt	-0.056982804
-4.001509	317	-0.056982804
-3.8129117	62	-0.20296301
-4.001509	Party	-0.056982804
-4.001509	Ripoff	-0.056982804
-4.001509	01.08.1999	-0.056982804
-4.001509	Degradiert	-0.056982804
-4.001509	12.09.2001	-0.056982804
-4.001509	gefährlich	-0.056982804
-3.8129117	weiterhin	-0.056982804
-4.001509	Liebespaar	-0.056982804
-4.001509	stimmen	-0.056982804
-4.001509	überein	-0.056982804
-4.001509	auseinanderbringen	-0.056982804
-4.001509	zitiert	-0.056982804
-4.001509	trennt	-0.056982804
-4.001509	bedenken	-0.056982804
-3.8129117	getrennt	-0.056982804
-3.8129117	könne	-0.056982804
-4.001509	Daraufhin	-0.056982804
-4.001509	degradiert	-0.056982804
-4.001509	Status	-0.056982804
-4.001509	kleinen	-0.056982804
-4.001509	Waffendealer	-0.056982804
-4.001509	versagt	-0.056982804
-3.8129117	Davenport	-0.056982804
-4.001509	kläglich	-0.056982804
-4.001509	entschlossen	-0.056982804
-4.001509	guten	-0.056982804
-4.001509	müsse	-0.056982804
-4.001509	eingesetzt	-0.056982804
-4.001509	319	-0.056982804
-3.8129117	63	-0.20296301
-4.001509	Any	-0.056982804
-4.001509	Means	-0.056982804
-4.001509	Necessary	-0.056982804
-4.001509	08.08.1999	-0.056982804
-4.001509	Überläufer	-0.056982804
-4.001509	19.09.2001	-0.056982804
-4.001509	Gefecht	-0.056982804
-4.001509	kurzen	-0.056982804
-4.001509	Augenblick	-0.056982804
-4.001509	Schwäche	-0.056982804
-4.001509	gründlich	-0.056982804
-4.001509	Szene	-0.056982804
-4.001509	steigt	-0.056982804
-3.8129117	Arbeitsplatz	-0.056982804
-4.001509	überlassen	-0.056982804
-4.001509	Dafür	-0.056982804
-4.001509	Außeneinsatz	-0.056982804
-4.001509	Undercoverermittler	-0.056982804
-4.001509	Soldats	-0.056982804
-4.001509	de	-0.056982804
-4.001509	la	-0.056982804
-4.001509	Liberte	-0.056982804
-4.001509	entsetzt	-0.056982804
-3.7053986	solche	-0.056982804
-4.001509	keineswegs	-0.056982804
-4.001509	trainiert	-0.056982804
-3.8129117	beide	-0.056982804
-4.001509	fürchten	-0.056982804
-4.001509	Himmelfahrtskommando	-0.056982804
-4.001509	Transfer	-0.056982804
-4.001509	kurzer	-0.056982804
-4.001509	geniale	-0.056982804
-4.001509	Begabung	-0.056982804
-3.8129117	Jean-Marc	-0.056982804
-4.001509	Rousseau	-0.056982804
-4.001509	Gründer	-0.056982804
-4.001509	Terror-Organisation	-0.056982804
-4.001509	welchen	-0.056982804
-4.001509	Hintergrund	-0.056982804
-4.001509	Erkenntnisse	-0.056982804
-4.001509	mitteilt	-0.056982804
-4.001509	entledigen	-0.056982804
-4.001509	bündig	-0.056982804
-4.001509	wünscht	-0.056982804
-4.001509	zutiefst	-0.056982804
-4.001509	enttäuscht	-0.056982804
-4.001509	verängstigt	-0.056982804
-4.001509	verunsichert	-0.056982804
-4.001509	Zielen	-0.056982804
-4.001509	identifizieren	-0.056982804
-4.001509	Dem	-0.056982804
-4.001509	charismatischen	-0.056982804
-3.8129117	Leiter	-0.056982804
-3.8129117	natürlich	-0.056982804
-4.001509	Können	-0.056982804
-4.001509	dringend	-0.056982804
-4.001509	bietet	-0.056982804
-4.001509	Freundschaft	-0.056982804
-4.001509	heimischer	-0.056982804
-4.001509	322	-0.056982804
-3.8129117	64	-0.20296301
-4.001509	Three-Eyed	-0.056982804
-4.001509	Turtle	-0.056982804
-4.001509	15.08.1999	-0.056982804
-4.001509	26.09.2001	-0.056982804
-4.001509	geschützt	-0.056982804
-4.001509	unvorbereitet	-0.056982804
-3.8129117	gravierende	-0.056982804
-4.001509	Victor	-0.056982804
-4.001509	Außendienst	-0.056982804
-4.001509	verbannt	-0.056982804
-4.001509	erkoren	-0.056982804
-4.001509	Videoübertragungen	-0.056982804
-4.001509	geschickt	-0.056982804
-4.001509	Überspielungen	-0.056982804
-4.001509	irritiert	-0.056982804
-4.001509	gefährdet	-0.056982804
-4.001509	Geistesgegenwart	-0.056982804
-4.001509	geschickten	-0.056982804
-4.001509	Schachzug	-0.056982804
-4.001509	aufgezeichnet	-0.056982804
-4.001509	dadurch	-0.056982804
-4.001509	fliegen	-0.056982804
-3.8129117	technischen	-0.056982804
-4.001509	Manipulationen	-0.056982804
-4.001509	Hillingers	-0.056982804
-4.001509	Strafe	-0.056982804
-4.001509	täglich	-0.056982804
-4.001509	abgeschossen	-0.056982804
-4.001509	Stress	-0.056982804
-4.001509	kalt	-0.056982804
-4.001509	abweisend	-0.056982804
-4.001509	Derweil	-0.056982804
-4.001509	abzuschießen	-0.056982804
-4.001509	ruft	-0.056982804
-3.8129117	gemeinsam	-0.056982804
-4.001509	auszuliefern	-0.056982804
-4.001509	Geheimdatei	-0.056982804
-4.001509	Firma	-0.056982804
-4.001509	Natürlich	-0.056982804
-4.001509	ziert	-0.056982804
-4.001509	hart	-0.056982804
-4.001509	anderes	-0.056982804
-4.001509	übrig	-0.056982804
-4.001509	zuzustimmen	-0.056982804
-3.8129117	Brulois	-0.20296301
-4.001509	interessierten	-0.056982804
-4.001509	Regierungen	-0.056982804
-4.001509	Wissen	-0.056982804
-4.001509	erzwungenen	-0.056982804
-4.001509	verlangen	-0.056982804
-3.8129117	Rücktrittsgesuch	-0.056982804
-4.001509	einzureichen	-0.056982804
-3.8129117	Am	-0.056982804
-3.8129117	Tag	-0.056982804
-4.001509	holt	-0.056982804
-4.001509	pünktlich	-0.056982804
-4.001509	letztes	-0.056982804
-3.5498152	Mal	-0.056982804
-4.001509	hereinzulegen	-0.056982804
-4.001509	Denn	-0.056982804
-4.001509	gute	-0.056982804
-4.001509	Störmanöver	-0.056982804
-4.001509	befohlen	-0.056982804
-4.001509	320	-0.056982804
-3.8129117	65	-0.20296301
-4.001509	Playing	-0.056982804
-3.8129117	With	-0.056982804
-4.001509	Fire	-0.056982804
-4.001509	22.08.1999	-0.056982804
-4.001509	Feuer	-0.056982804
-4.001509	03.10.2001	-0.056982804
-4.001509	dürfen	-0.056982804
-3.8129117	verschiedener	-0.056982804
-4.001509	mittels	-0.056982804
-4.001509	Schalttafeln	-0.056982804
-4.001509	Einsatz-	-0.056982804
-4.001509	Aufzeichnungsgeräte	-0.056982804
-4.001509	unbemerkt	-0.056982804
-4.001509	Aufzeichnungsdaten	-0.056982804
-4.001509	verschlüsselt	-0.056982804
-4.001509	löscht	-0.056982804
-4.001509	ahnen	-0.056982804
-4.001509	nachdem	-0.056982804
-4.001509	gelöschte	-0.056982804
-4.001509	Aufzeichnungsdatei	-0.056982804
-4.001509	Finger	-0.056982804
-3.8129117	Schatten-Team	-0.056982804
-4.001509	observiert	-0.056982804
-4.001509	geleitet	-0.056982804
-4.001509	vorgewarnt	-0.056982804
-4.001509	Schulden	-0.056982804
-4.001509	schließen	-0.056982804
-4.001509	äußerst	-0.056982804
-4.001509	erfolgreich	-0.056982804
-4.001509	Hand.	-0.056982804
-4.001509	321	-0.056982804
-3.8129117	66	-0.20296301
-4.001509	Borrowed	-0.056982804
-3.7053986	Time	-0.056982804
-4.001509	29.08.1999	-0.056982804
-4.001509	Gezählte	-0.056982804
-4.001509	Tage	-0.056982804
-4.001509	10.10.2001	-0.056982804
-4.001509	misstrauen	-0.056982804
-4.001509	private	-0.056982804
-4.001509	wiederum	-0.056982804
-4.001509	beobachtet	-0.056982804
-4.001509	speziellen	-0.056982804
-4.001509	unterzogen	-0.056982804
-4.001509	Danach	-0.056982804
-4.001509	empfindet	-0.056982804
-4.001509	getestet	-0.056982804
-4.001509	Befehl	-0.056982804
-4.001509	drinnen	-0.056982804
-4.001509	aufsucht	-0.056982804
-4.001509	weist	-0.056982804
-4.001509	begreift	-0.056982804
-4.001509	irgend	-0.056982804
-4.001509	401	-0.056982804
-4.001509	67	-0.056982804
-4.001509	Getting	-0.056982804
-4.001509	Reverse	-0.056982804
-3.8129117	09.01.2000	-0.056982804
-4.001509	402	-0.056982804
-4.001509	68	-0.056982804
-3.8129117	There	-0.056982804
-4.001509	Are	-0.056982804
-3.5498152	No	-0.056982804
-4.001509	Missions	-0.056982804
-4.001509	403	-0.056982804
-4.001509	69	-0.056982804
-4.001509	View	-0.056982804
-4.001509	16.01.2000	-0.056982804
-4.001509	404	-0.056982804
-4.001509	70	-0.056982804
-4.001509	Glass	-0.056982804
-4.001509	23.01.2000	-0.056982804
-4.001509	405	-0.056982804
-4.001509	71	-0.056982804
-4.001509	Middle	-0.056982804
-4.001509	20.02.2000	-0.056982804
-4.001509	406	-0.056982804
-4.001509	72	-0.056982804
-4.001509	Honor	-0.056982804
-4.001509	Cherish	-0.056982804
-4.001509	27.02.2000	-0.056982804
-4.001509	407	-0.056982804
-4.001509	73	-0.056982804
-4.001509	Sympathy	-0.056982804
-4.001509	Devil	-0.056982804
-4.001509	05.03.2000	-0.056982804
-4.001509	408	-0.056982804
-4.001509	74	-0.056982804
-4.001509	One	-0.056982804
-4.001509	Lives	-0.056982804
-4.001509	Forever	-0.056982804
-4.001509	12.03.2000	-0.056982804
-4.001509	409	-0.056982804
-4.001509	75	-0.056982804
-4.001509	Down	-0.056982804
-3.4355054	A	-0.056982804
-4.001509	Crooked	-0.056982804
-4.001509	Path	-0.056982804
-4.001509	19.03.2000	-0.056982804
-4.001509	410	-0.056982804
-4.001509	76	-0.056982804
-4.001509	He	-0.056982804
-4.001509	Came	-0.056982804
-4.001509	From	-0.056982804
-3.8129117	Four	-0.056982804
-4.001509	02.04.2000	-0.056982804
-4.001509	411	-0.056982804
-4.001509	77	-0.056982804
-4.001509	Be	-0.056982804
-4.001509	Heros	-0.056982804
-4.001509	16.04.2000	-0.056982804
-4.001509	412	-0.056982804
-4.001509	78	-0.056982804
-4.001509	Hath	-0.056982804
-4.001509	Fury	-0.056982804
-4.001509	23.04.2000	-0.056982804
-4.001509	413	-0.056982804
-4.001509	79	-0.056982804
-4.001509	Kiss	-0.056982804
-4.001509	Past	-0.056982804
-4.001509	Goodbye	-0.056982804
-4.001509	25.06.2000	-0.056982804
-4.001509	414	-0.056982804
-4.001509	80	-0.056982804
-4.001509	Line	-0.056982804
-4.001509	02.07.2000	-0.056982804
-4.001509	415	-0.056982804
-4.001509	81	-0.056982804
-4.001509	Abort	-0.056982804
-4.001509	Fail	-0.056982804
-4.001509	Retry	-0.056982804
-4.001509	Terminate	-0.056982804
-4.001509	16.07.2000	-0.056982804
-4.001509	416	-0.056982804
-4.001509	82	-0.056982804
-4.001509	Catch	-0.056982804
-4.001509	Falling	-0.056982804
-4.001509	23.07.2000	-0.056982804
-4.001509	417	-0.056982804
-4.001509	83	-0.056982804
-4.001509	Sleeping	-0.056982804
-4.001509	Enemy	-0.056982804
-4.001509	30.07.2000	-0.056982804
-4.001509	418	-0.056982804
-4.001509	84	-0.056982804
-4.001509	Toys	-0.056982804
-4.001509	Basement	-0.056982804
-4.001509	06.08.2000	-0.056982804
-4.001509	419	-0.056982804
-3.8129117	85	-0.056982804
-4.001509	Mind	-0.056982804
-4.001509	13.08.2000	-0.056982804
-4.001509	420	-0.056982804
-4.001509	86	-0.056982804
-4.001509	Face	-0.056982804
-4.001509	Mirror	-0.056982804
-4.001509	20.08.2000	-0.056982804
-4.001509	421	-0.056982804
-4.001509	87	-0.056982804
-4.001509	Up	-0.056982804
-4.001509	Rabbit	-0.056982804
-4.001509	Hole	-0.056982804
-3.8129117	27.08.2000	-0.056982804
-4.001509	422	-0.056982804
-4.001509	88	-0.056982804
-4.001509	Light	-0.056982804
-4.001509	Years	-0.056982804
-4.001509	Farther	-0.056982804
-4.001509	501	-0.056982804
-4.001509	89	-0.056982804
-4.001509	Deja	-0.056982804
-4.001509	Vu	-0.056982804
-4.001509	Over	-0.056982804
-4.001509	Again	-0.056982804
-4.001509	07.01.2001	-0.056982804
-4.001509	502	-0.056982804
-4.001509	90	-0.056982804
-4.001509	Girl	-0.056982804
-4.001509	Who	-0.056982804
-4.001509	Wasn't	-0.056982804
-4.001509	14.01.2001	-0.056982804
-4.001509	503	-0.056982804
-4.001509	91	-0.056982804
-4.001509	Through	-0.056982804
-4.001509	Door	-0.056982804
-4.001509	21.01.2001	-0.056982804
-4.001509	504	-0.056982804
-4.001509	92	-0.056982804
-4.001509	World's	-0.056982804
-4.001509	Stage	-0.056982804
-4.001509	04.02.2001	-0.056982804
-4.001509	505	-0.056982804
-4.001509	93	-0.056982804
-4.001509	Behind	-0.056982804
-4.001509	Curtain	-0.056982804
-4.001509	11.02.2001	-0.056982804
-4.001509	506	-0.056982804
-4.001509	94	-0.056982804
-4.001509	Evil	-0.056982804
-4.001509	That	-0.056982804
-4.001509	Men	-0.056982804
-4.001509	Do	-0.056982804
-4.001509	18.02.2001	-0.056982804
-4.001509	507	-0.056982804
-4.001509	95	-0.056982804
-4.001509	Let	-0.056982804
-4.001509	Put	-0.056982804
-4.001509	Asunder	-0.056982804
-4.001509	25.02.2001	-0.056982804
-4.001509	508	-0.056982804
-4.001509	96	-0.056982804
-4.001509	Every	-0.056982804
-4.001509	Purpose	-0.056982804
-4.001509	04.03.2001	-0.056982804
-3.8129117	Bereich	-0.056982804
-4.001509	Forschung	-0.056982804
-4.001509	Sachgebiet	-0.056982804
-3.8129117	Medizin	-0.056982804
